{"learner":{"attributes":{"scikit_learn":"{\"_estimator_type\": \"regressor\"}"},"feature_names":["day_of_week","day_of_month","month","is_weekend"],"feature_types":["int","int","int","int"],"gradient_booster":{"model":{"cats":{"enc":[],"feature_segments":[],"sorted_idx":[]},"gbtree_model_param":{"num_parallel_tree":"1","num_trees":"100"},"iteration_indptr":[0,1,2,3,4,5,6,7,8,9,10,11,12,13,14,15,16,17,18,19,20,21,22,23,24,25,26,27,28,29,30,31,32,33,34,35,36,37,38,39,40,41,42,43,44,45,46,47,48,49,50,51,52,53,54,55,56,57,58,59,60,61,62,63,64,65,66,67,68,69,70,71,72,73,74,75,76,77,78,79,80,81,82,83,84,85,86,87,88,89,90,91,92,93,94,95,96,97,98,99,100],"tree_info":[0,0,0,0,0,0,0,0,0,0,0,0,0,0,0,0,0,0,0,0,0,0,0,0,0,0,0,0,0,0,0,0,0,0,0,0,0,0,0,0,0,0,0,0,0,0,0,0,0,0,0,0,0,0,0,0,0,0,0,0,0,0,0,0,0,0,0,0,0,0,0,0,0,0,0,0,0,0,0,0,0,0,0,0,0,0,0,0,0,0,0,0,0,0,0,0,0,0,0,0],"trees":[{"base_weights":[-0E0,-5.35E0,5.631579E0,4E-2,-4.547368E-1,-4.857143E0,2.3333333E0,-1.3333333E-1,-4.2E-1],"categories":[],"categories_nodes":[],"categories_segments":[],"categories_sizes":[],"default_left":[0,0,0,0,0,0,0,0,0],"id":0,"left_children":[1,3,5,-1,-1,7,-1,-1,-1],"loss_changes":[1.1750289E3,4.1944702E1,4.831873E3,0E0,0E0,8.797638E0,0E0,0E0,0E0],"parents":[2147483647,0,0,1,1,2,2,5,5],"right_children":[2,4,6,-1,-1,8,-1,-1,-1],"split_conditions":[1.9E1,2E0,6E0,4E-2,-4.547368E-1,2.1E1,2.3333333E0,-1.3333333E-1,-4.2E-1],"split_indices":[1,1,2,0,0,1,0,0,0],"split_type":[0,0,0,0,0,0,0,0,0],"sum_hessian":[3.7E1,1.9E1,1.8E1,1E0,1.8E1,1.3E1,5E0,2E0,1.1E1],"tree_param":{"num_deleted":"0","num_feature":"4","num_nodes":"9","size_leaf_vector":"1"}},{"base_weights":[3.5927597E-2,-4.942737E0,5.2747364E0,3.84E-2,-5.2534075E0,-4.5080953E0,2.1777775E0,-3.0325896E-1,-4.9525893E-1,-1.2622222E-1,-3.8919997E-1],"categories":[],"categories_nodes":[],"categories_segments":[],"categories_sizes":[],"default_left":[0,0,0,0,0,0,0,0,0,0,0],"id":1,"left_children":[1,3,5,-1,7,9,-1,-1,-1,-1,-1],"loss_changes":[1.0171979E3,3.6215332E1,4.2021826E3,0E0,2.581604E0,6.9659424E0,0E0,0E0,0E0,0E0,0E0],"parents":[2147483647,0,0,1,1,2,2,4,4,5,5],"right_children":[2,4,6,-1,8,10,-1,-1,-1,-1,-1],"split_conditions":[1.9E1,2E0,6E0,3.84E-2,3E0,2.1E1,2.1777775E0,-3.0325896E-1,-4.9525893E-1,-1.2622222E-1,-3.8919997E-1],"split_indices":[1,1,2,0,0,1,0,0,0,0,0],"split_type":[0,0,0,0,0,0,0,0,0,0,0],"sum_hessian":[3.7E1,1.9E1,1.8E1,1E0,1.8E1,1.3E1,5E0,9E0,9E0,2E0,1.1E1],"tree_param":{"num_deleted":"0","num_feature":"4","num_nodes":"11","size_leaf_vector":"1"}},{"base_weights":[5.67968E-2,-4.585324E0,4.9402504E0,3.6864012E-2,-4.8751616E0,-4.184263E0,2.0325925E0,-2.814243E-1,-4.596003E-1,-1.19490355E-1,-3.6065865E-1],"categories":[],"categories_nodes":[],"categories_segments":[],"categories_sizes":[],"default_left":[0,0,0,0,0,0,0,0,0,0,0],"id":2,"left_children":[1,3,5,-1,7,9,-1,-1,-1,-1,-1],"loss_changes":[8.840967E2,3.149768E1,3.6546152E3,0E0,2.2232666E0,5.4699554E0,0E0,0E0,0E0,0E0,0E0],"parents":[2147483647,0,0,1,1,2,2,4,4,5,5],"right_children":[2,4,6,-1,8,10,-1,-1,-1,-1,-1],"split_conditions":[1.9E1,2E0,6E0,3.6864012E-2,3E0,2.1E1,2.0325925E0,-2.814243E-1,-4.596003E-1,-1.19490355E-1,-3.6065865E-1],"split_indices":[1,1,2,0,0,1,0,0,0,0,0],"split_type":[0,0,0,0,0,0,0,0,0,0,0],"sum_hessian":[3.7E1,1.9E1,1.8E1,1E0,1.8E1,1.3E1,5E0,9E0,9E0,2E0,1.1E1],"tree_param":{"num_deleted":"0","num_feature":"4","num_nodes":"11","size_leaf_vector":"1"}},{"base_weights":[7.4576356E-2,-4.253706E0,4.6267376E0,3.5389442E-2,-4.52415E0,-3.8838184E0,1.8970863E0,-3.0780172E-1,-5.480262E-1,-1.4144096E-1,-3.4401026E-1],"categories":[],"categories_nodes":[],"categories_segments":[],"categories_sizes":[],"default_left":[0,0,0,0,0,0,0,0,0,0,0],"id":3,"left_children":[1,3,5,-1,7,9,-1,-1,-1,-1,-1],"loss_changes":[7.683962E2,2.7401855E1,3.1784524E3,0E0,3.5484314E0,4.7289276E0,0E0,0E0,0E0,0E0,0E0],"parents":[2147483647,0,0,1,1,2,2,4,4,5,5],"right_children":[2,4,6,-1,8,10,-1,-1,-1,-1,-1],"split_conditions":[1.9E1,2E0,6E0,3.5389442E-2,1.8E1,2.2E1,1.8970863E0,-3.0780172E-1,-5.480262E-1,-1.4144096E-1,-3.4401026E-1],"split_indices":[1,1,2,0,1,1,0,0,0,0,0],"split_type":[0,0,0,0,0,0,0,0,0,0,0],"sum_hessian":[3.7E1,1.9E1,1.8E1,1E0,1.8E1,1.3E1,5E0,1.6E1,2E0,3E0,1E1],"tree_param":{"num_deleted":"0","num_feature":"4","num_nodes":"11","size_leaf_vector":"1"}},{"base_weights":[8.416778E-2,-3.9544315E0,4.330895E0,3.3973847E-2,-4.207262E0,-3.6077878E0,1.7706138E0,-2.846261E-1,-5.187982E-1,-1.3295448E-1,-3.189913E-1],"categories":[],"categories_nodes":[],"categories_segments":[],"categories_sizes":[],"default_left":[0,0,0,0,0,0,0,0,0,0,0],"id":4,"left_children":[1,3,5,-1,7,9,-1,-1,-1,-1,-1],"loss_changes":[6.688577E2,2.3930145E1,2.764981E3,0E0,5.0329285E0,3.714386E0,0E0,0E0,0E0,0E0,0E0],"parents":[2147483647,0,0,1,1,2,2,4,4,5,5],"right_children":[2,4,6,-1,8,10,-1,-1,-1,-1,-1],"split_conditions":[1.9E1,2E0,6E0,3.3973847E-2,1.8E1,2.2E1,1.7706138E0,-2.846261E-1,-5.187982E-1,-1.3295448E-1,-3.189913E-1],"split_indices":[1,1,2,0,1,1,0,0,0,0,0],"split_type":[0,0,0,0,0,0,0,0,0,0,0],"sum_hessian":[3.7E1,1.9E1,1.8E1,1E0,1.8E1,1.3E1,5E0,1.6E1,2E0,3E0,1E1],"tree_param":{"num_deleted":"0","num_feature":"4","num_nodes":"11","size_leaf_vector":"1"}},{"base_weights":[9.18874E-2,-3.6765497E0,4.0538273E0,3.2614898E-2,-3.9129667E0,-3.3514464E0,1.6525729E0,-2.1471182E-1,-3.8005912E-1,-9.848307E-2,-2.881809E-1],"categories":[],"categories_nodes":[],"categories_segments":[],"categories_sizes":[],"default_left":[0,0,0,0,0,0,0,0,0,0,0],"id":5,"left_children":[1,3,5,-1,7,9,-1,-1,-1,-1,-1],"loss_changes":[5.822563E2,2.0906921E1,2.4053237E3,0E0,6.8134155E0,3.0110931E0,0E0,0E0,0E0,0E0,0E0],"parents":[2147483647,0,0,1,1,2,2,4,4,5,5],"right_children":[2,4,6,-1,8,10,-1,-1,-1,-1,-1],"split_conditions":[1.9E1,2E0,6E0,3.2614898E-2,3E0,2.1E1,1.6525729E0,-2.1471182E-1,-3.8005912E-1,-9.848307E-2,-2.881809E-1],"split_indices":[1,1,2,0,0,1,0,0,0,0,0],"split_type":[0,0,0,0,0,0,0,0,0,0,0],"sum_hessian":[3.7E1,1.9E1,1.8E1,1E0,1.8E1,1.3E1,5E0,9E0,9E0,2E0,1.1E1],"tree_param":{"num_deleted":"0","num_feature":"4","num_nodes":"11","size_leaf_vector":"1"}},{"base_weights":[1.0305648E-1,-3.4105334E0,3.796148E0,3.131031E-2,-3.631233E0,-3.1109493E0,1.5424014E0,-2.4080403E-1,-4.7526836E-1,-1.1527426E-1,-2.748333E-1],"categories":[],"categories_nodes":[],"categories_segments":[],"categories_sizes":[],"default_left":[0,0,0,0,0,0,0,0,0,0,0],"id":6,"left_children":[1,3,5,-1,7,9,-1,-1,-1,-1,-1],"loss_changes":[5.0603522E2,1.820282E1,2.0920024E3,0E0,9.376938E0,2.6359406E0,0E0,0E0,0E0,0E0,0E0],"parents":[2147483647,0,0,1,1,2,2,4,4,5,5],"right_children":[2,4,6,-1,8,10,-1,-1,-1,-1,-1],"split_conditions":[1.9E1,2E0,6E0,3.131031E-2,1.8E1,2.2E1,1.5424014E0,-2.4080403E-1,-4.7526836E-1,-1.1527426E-1,-2.748333E-1],"split_indices":[1,1,2,0,1,1,0,0,0,0,0],"split_type":[0,0,0,0,0,0,0,0,0,0,0],"sum_hessian":[3.7E1,1.9E1,1.8E1,1E0,1.8E1,1.3E1,5E0,1.6E1,2E0,3E0,1E1],"tree_param":{"num_deleted":"0","num_feature":"4","num_nodes":"11","size_leaf_vector":"1"}},{"base_weights":[1.0711529E-1,-3.1719291E0,3.5531032E0,3.0057907E-2,-3.3784225E0,-2.8899379E0,1.4395746E0,-2.2267294E-1,-4.499207E-1,-1.0835779E-1,-2.5484538E-1],"categories":[],"categories_nodes":[],"categories_segments":[],"categories_sizes":[],"default_left":[0,0,0,0,0,0,0,0,0,0,0],"id":7,"left_children":[1,3,5,-1,7,9,-1,-1,-1,-1,-1],"loss_changes":[4.4065298E2,1.5920685E1,1.8199095E3,0E0,9.732864E0,2.0402298E0,0E0,0E0,0E0,0E0,0E0],"parents":[2147483647,0,0,1,1,2,2,4,4,5,5],"right_children":[2,4,6,-1,8,10,-1,-1,-1,-1,-1],"split_conditions":[1.9E1,2E0,6E0,3.0057907E-2,1.8E1,2.2E1,1.4395746E0,-2.2267294E-1,-4.499207E-1,-1.0835779E-1,-2.5484538E-1],"split_indices":[1,1,2,0,1,1,0,0,0,0,0],"split_type":[0,0,0,0,0,0,0,0,0,0,0],"sum_hessian":[3.7E1,1.9E1,1.8E1,1E0,1.8E1,1.3E1,5E0,1.6E1,2E0,3E0,1E1],"tree_param":{"num_deleted":"0","num_feature":"4","num_nodes":"11","size_leaf_vector":"1"}},{"base_weights":[1.0996274E-1,-2.9503014E0,3.325506E0,-1.7774708E0,-3.945385E0,-2.684686E0,1.3436029E0,2.885559E-2,-1.6218854E-1,-2.108108E-1,-4.8994055E-1,-8.1303604E-2,-2.3024477E-1],"categories":[],"categories_nodes":[],"categories_segments":[],"categories_sizes":[],"default_left":[0,0,0,0,0,0,0,0,0,0,0,0,0],"id":8,"left_children":[1,3,5,7,9,11,-1,-1,-1,-1,-1,-1,-1],"loss_changes":[3.837469E2,1.6328476E1,1.5832241E3,6.608532E0,1.2410431E1,1.5917664E0,0E0,0E0,0E0,0E0,0E0,0E0,0E0],"parents":[2147483647,0,0,1,1,2,2,3,3,4,4,5,5],"right_children":[2,4,6,8,10,12,-1,-1,-1,-1,-1,-1,-1],"split_conditions":[1.9E1,3E0,6E0,2E0,1.4E1,2.1E1,1.3436029E0,2.885559E-2,-1.6218854E-1,-2.108108E-1,-4.8994055E-1,-8.1303604E-2,-2.3024477E-1],"split_indices":[1,0,2,1,1,1,0,0,0,0,0,0,0],"split_type":[0,0,0,0,0,0,0,0,0,0,0,0,0],"sum_hessian":[3.7E1,1.9E1,1.8E1,1E1,9E0,1.3E1,5E0,1E0,9E0,7E0,2E0,2E0,1.1E1],"tree_param":{"num_deleted":"0","num_feature":"4","num_nodes":"13","size_leaf_vector":"1"}},{"base_weights":[1.0637537E-1,-2.7559817E0,3.113784E0,-1.6473943E0,-3.6998296E0,-2.4921646E0,1.2540293E0,2.7701378E-2,-1.5051098E-1,-1.9605404E-1,-4.6381038E-1,-9.3999304E-2,-2.1956609E-1],"categories":[],"categories_nodes":[],"categories_segments":[],"categories_sizes":[],"default_left":[0,0,0,0,0,0,0,0,0,0,0,0,0],"id":9,"left_children":[1,3,5,7,9,11,-1,-1,-1,-1,-1,-1,-1],"loss_changes":[3.3569608E2,1.4831665E1,1.3770377E3,5.7829933E0,1.1996658E1,1.4297333E0,0E0,0E0,0E0,0E0,0E0,0E0,0E0],"parents":[2147483647,0,0,1,1,2,2,3,3,4,4,5,5],"right_children":[2,4,6,8,10,12,-1,-1,-1,-1,-1,-1,-1],"split_conditions":[1.9E1,3E0,6E0,2E0,1.4E1,2.2E1,1.2540293E0,2.7701378E-2,-1.5051098E-1,-1.9605404E-1,-4.6381038E-1,-9.3999304E-2,-2.1956609E-1],"split_indices":[1,0,2,1,1,1,0,0,0,0,0,0,0],"split_type":[0,0,0,0,0,0,0,0,0,0,0,0,0],"sum_hessian":[3.7E1,1.9E1,1.8E1,1E1,9E0,1.3E1,5E0,1E0,9E0,7E0,2E0,3E0,1E1],"tree_param":{"num_deleted":"0","num_feature":"4","num_nodes":"13","size_leaf_vector":"1"}},{"base_weights":[1.0201788E-1,-2.5746367E0,2.9141798E0,-2.0437222E0,-3.9215297E-1,-2.315189E0,1.1704274E0,-1.9016345E-1,1.449094E-1,-1.9392723E-1,-3.5978697E-2],"categories":[],"categories_nodes":[],"categories_segments":[],"categories_sizes":[],"default_left":[0,0,0,0,0,0,0,0,0,0,0],"id":10,"left_children":[1,3,5,7,-1,9,-1,-1,-1,-1,-1],"loss_changes":[2.9353604E2,1.4693527E1,1.1979666E3,2.7435387E1,0E0,1.7539215E0,0E0,0E0,0E0,0E0,0E0],"parents":[2147483647,0,0,1,1,2,2,3,3,5,5],"right_children":[2,4,6,8,-1,10,-1,-1,-1,-1,-1],"split_conditions":[1.9E1,1.8E1,6E0,1.7E1,-3.9215297E-1,3.1E1,1.1704274E0,-1.9016345E-1,1.449094E-1,-1.9392723E-1,-3.5978697E-2],"split_indices":[1,1,2,1,0,1,0,0,0,0,0],"split_type":[0,0,0,0,0,0,0,0,0,0,0],"sum_hessian":[3.7E1,1.9E1,1.8E1,1.7E1,2E0,1.3E1,5E0,1.6E1,1E0,1.2E1,1E0],"tree_param":{"num_deleted":"0","num_feature":"4","num_nodes":"11","size_leaf_vector":"1"}},{"base_weights":[1.0709597E-1,-2.390536E0,2.7305458E0,-1.8827385E0,-3.7123814E-1,-2.146396E0,1.0923988E0,-1.7584525E-1,1.3911301E-1,-9.663025E-2,-2.0268688E-1],"categories":[],"categories_nodes":[],"categories_segments":[],"categories_sizes":[],"default_left":[0,0,0,0,0,0,0,0,0,0,0],"id":11,"left_children":[1,3,5,7,-1,9,-1,-1,-1,-1,-1],"loss_changes":[2.5551915E2,1.411348E1,1.0415883E3,2.4378342E1,0E0,2.0271225E0,0E0,0E0,0E0,0E0,0E0],"parents":[2147483647,0,0,1,1,2,2,3,3,5,5],"right_children":[2,4,6,8,-1,10,-1,-1,-1,-1,-1],"split_conditions":[1.9E1,1.8E1,6E0,1.7E1,-3.7123814E-1,2.4E1,1.0923988E0,-1.7584525E-1,1.3911301E-1,-9.663025E-2,-2.0268688E-1],"split_indices":[1,1,2,1,0,1,0,0,0,0,0],"split_type":[0,0,0,0,0,0,0,0,0,0,0],"sum_hessian":[3.7E1,1.9E1,1.8E1,1.7E1,2E0,1.3E1,5E0,1.6E1,1E0,5E0,8E0],"tree_param":{"num_deleted":"0","num_feature":"4","num_nodes":"11","size_leaf_vector":"1"}},{"base_weights":[1.0866268E-1,-2.219692E0,2.5538433E0,-1.2170005E0,-3.1006832E0,-1.996064E0,1.0195721E0,-1.604683E-2,-1.4153232E-1,-1.5670963E-1,-4.0895656E-1,-1.679021E-1,-2.6432075E-2],"categories":[],"categories_nodes":[],"categories_segments":[],"categories_sizes":[],"default_left":[0,0,0,0,0,0,0,0,0,0,0,0,0],"id":12,"left_children":[1,3,5,7,9,11,-1,-1,-1,-1,-1,-1,-1],"loss_changes":[2.2201213E2,1.3893723E1,9.064166E2,5.8185234E0,1.2951317E1,1.7017441E0,0E0,0E0,0E0,0E0,0E0,0E0,0E0],"parents":[2147483647,0,0,1,1,2,2,3,3,4,4,5,5],"right_children":[2,4,6,8,10,12,-1,-1,-1,-1,-1,-1,-1],"split_conditions":[1.9E1,3E0,6E0,9E0,1.4E1,3.1E1,1.0195721E0,-1.604683E-2,-1.4153232E-1,-1.5670963E-1,-4.0895656E-1,-1.679021E-1,-2.6432075E-2],"split_indices":[1,0,2,1,1,1,0,0,0,0,0,0,0],"split_type":[0,0,0,0,0,0,0,0,0,0,0,0,0],"sum_hessian":[3.7E1,1.9E1,1.8E1,1E1,9E0,1.3E1,5E0,4E0,6E0,7E0,2E0,1.2E1,1E0],"tree_param":{"num_deleted":"0","num_feature":"4","num_nodes":"13","size_leaf_vector":"1"}},{"base_weights":[1.0265343E-1,-2.078279E0,2.392969E0,-1.6076174E0,-3.367591E-1,-1.8502599E0,9.516006E-1,-1.5255226E-1,1.3920975E-1,-7.899479E-2,-1.7759138E-1],"categories":[],"categories_nodes":[],"categories_segments":[],"categories_sizes":[],"default_left":[0,0,0,0,0,0,0,0,0,0,0],"id":13,"left_children":[1,3,5,7,-1,9,-1,-1,-1,-1,-1],"loss_changes":[1.9478413E2,1.3294327E1,7.8807605E2,2.1353004E1,0E0,2.2729912E0,0E0,0E0,0E0,0E0,0E0],"parents":[2147483647,0,0,1,1,2,2,3,3,5,5],"right_children":[2,4,6,8,-1,10,-1,-1,-1,-1,-1],"split_conditions":[1.9E1,1.8E1,6E0,1.7E1,-3.367591E-1,2.4E1,9.516006E-1,-1.5255226E-1,1.3920975E-1,-7.899479E-2,-1.7759138E-1],"split_indices":[1,1,2,1,0,1,0,0,0,0,0],"split_type":[0,0,0,0,0,0,0,0,0,0,0],"sum_hessian":[3.7E1,1.9E1,1.8E1,1.7E1,2E0,1.3E1,5E0,1.6E1,1E0,5E0,8E0],"tree_param":{"num_deleted":"0","num_feature":"4","num_nodes":"11","size_leaf_vector":"1"}},{"base_weights":[1.03518136E-1,-1.9295214E0,2.2381115E0,-1.479749E0,-3.187986E-1,-1.7205667E0,8.881607E-1,-1.4106594E-1,1.3364135E-1,-7.372847E-2,-1.6496265E-1],"categories":[],"categories_nodes":[],"categories_segments":[],"categories_sizes":[],"default_left":[0,0,0,0,0,0,0,0,0,0,0],"id":14,"left_children":[1,3,5,7,-1,9,-1,-1,-1,-1,-1],"loss_changes":[1.6922757E2,1.2593033E1,6.8579877E2,1.9025745E1,0E0,1.9190788E0,0E0,0E0,0E0,0E0,0E0],"parents":[2147483647,0,0,1,1,2,2,3,3,5,5],"right_children":[2,4,6,8,-1,10,-1,-1,-1,-1,-1],"split_conditions":[1.9E1,1.8E1,6E0,1.7E1,-3.187986E-1,2.4E1,8.881607E-1,-1.4106594E-1,1.3364135E-1,-7.372847E-2,-1.6496265E-1],"split_indices":[1,1,2,1,0,1,0,0,0,0,0],"split_type":[0,0,0,0,0,0,0,0,0,0,0],"sum_hessian":[3.7E1,1.9E1,1.8E1,1.7E1,2E0,1.3E1,5E0,1.6E1,1E0,5E0,8E0],"tree_param":{"num_deleted":"0","num_feature":"4","num_nodes":"11","size_leaf_vector":"1"}},{"base_weights":[1.0374308E-1,-1.7914711E0,2.0932453E0,-8.8563406E-1,-2.6087449E0,-1.5999707E0,8.289499E-1,3.7717132E-3,-1.1403093E-1,-1.2518667E-1,-3.6183414E-1,-1.4634894E-1,-4.5532208E-2],"categories":[],"categories_nodes":[],"categories_segments":[],"categories_sizes":[],"default_left":[0,0,0,0,0,0,0,0,0,0,0,0,0],"id":15,"left_children":[1,3,5,7,9,11,-1,-1,-1,-1,-1,-1,-1],"loss_changes":[1.4703023E2,1.2495941E1,5.9679755E2,5.60538E0,1.2904739E1,2.2692604E0,0E0,0E0,0E0,0E0,0E0,0E0,0E0],"parents":[2147483647,0,0,1,1,2,2,3,3,4,4,5,5],"right_children":[2,4,6,8,10,12,-1,-1,-1,-1,-1,-1,-1],"split_conditions":[1.9E1,3E0,6E0,9E0,1.4E1,2.9E1,8.289499E-1,3.7717132E-3,-1.1403093E-1,-1.2518667E-1,-3.6183414E-1,-1.4634894E-1,-4.5532208E-2],"split_indices":[1,0,2,1,1,1,0,0,0,0,0,0,0],"split_type":[0,0,0,0,0,0,0,0,0,0,0,0,0],"sum_hessian":[3.7E1,1.9E1,1.8E1,1E1,9E0,1.3E1,5E0,4E0,6E0,7E0,2E0,1E1,3E0],"tree_param":{"num_deleted":"0","num_feature":"4","num_nodes":"13","size_leaf_vector":"1"}},{"base_weights":[9.649088E-2,-1.6780174E0,1.9593159E0,-1.262159E0,-2.8910628E-1,-1.4856788E0,7.736867E-1,-1.2254252E-1,1.3285694E-1,-5.905664E-2,-1.4551339E-1],"categories":[],"categories_nodes":[],"categories_segments":[],"categories_sizes":[],"default_left":[0,0,0,0,0,0,0,0,0,0,0],"id":16,"left_children":[1,3,5,7,-1,9,-1,-1,-1,-1,-1],"loss_changes":[1.289005E2,1.1539238E1,5.191411E2,1.672914E1,0E0,2.1444645E0,0E0,0E0,0E0,0E0,0E0],"parents":[2147483647,0,0,1,1,2,2,3,3,5,5],"right_children":[2,4,6,8,-1,10,-1,-1,-1,-1,-1],"split_conditions":[1.9E1,1.8E1,6E0,1.7E1,-2.8910628E-1,2.4E1,7.736867E-1,-1.2254252E-1,1.3285694E-1,-5.905664E-2,-1.4551339E-1],"split_indices":[1,1,2,1,0,1,0,0,0,0,0],"split_type":[0,0,0,0,0,0,0,0,0,0,0],"sum_hessian":[3.7E1,1.9E1,1.8E1,1.7E1,2E0,1.3E1,5E0,1.6E1,1E0,5E0,8E0],"tree_param":{"num_deleted":"0","num_feature":"4","num_nodes":"11","size_leaf_vector":"1"}},{"base_weights":[9.641183E-2,-1.5577157E0,1.8325244E0,-7.214808E-1,-2.3218026E0,-1.3814367E0,7.221077E-1,1.1373031E-2,-9.882403E-2,-1.0784562E-1,-3.3155903E-1,-1.2826647E-1,-3.406946E-2],"categories":[],"categories_nodes":[],"categories_segments":[],"categories_sizes":[],"default_left":[0,0,0,0,0,0,0,0,0,0,0,0,0],"id":17,"left_children":[1,3,5,7,9,11,-1,-1,-1,-1,-1,-1,-1],"loss_changes":[1.1198112E2,1.1103989E1,4.5176193E2,5.0569415E0,1.2161007E1,2.2856827E0,0E0,0E0,0E0,0E0,0E0,0E0,0E0],"parents":[2147483647,0,0,1,1,2,2,3,3,4,4,5,5],"right_children":[2,4,6,8,10,12,-1,-1,-1,-1,-1,-1,-1],"split_conditions":[1.9E1,3E0,6E0,9E0,1.4E1,2.9E1,7.221077E-1,1.1373031E-2,-9.882403E-2,-1.0784562E-1,-3.3155903E-1,-1.2826647E-1,-3.406946E-2],"split_indices":[1,0,2,1,1,1,0,0,0,0,0,0,0],"split_type":[0,0,0,0,0,0,0,0,0,0,0,0,0],"sum_hessian":[3.7E1,1.9E1,1.8E1,1E1,9E0,1.3E1,5E0,4E0,6E0,7E0,2E0,1E1,3E0],"tree_param":{"num_deleted":"0","num_feature":"4","num_nodes":"13","size_leaf_vector":"1"}},{"base_weights":[8.95652E-2,-1.4594411E0,1.7153841E0,-1.0753297E0,-2.6221037E-1,-1.2825173E0,6.739672E-1,-1.0655681E-1,1.3149562E-1,-4.6568464E-2,-1.2855652E-1],"categories":[],"categories_nodes":[],"categories_segments":[],"categories_sizes":[],"default_left":[0,0,0,0,0,0,0,0,0,0,0],"id":18,"left_children":[1,3,5,7,-1,9,-1,-1,-1,-1,-1],"loss_changes":[9.820284E1,1.0443207E1,3.929619E2,1.4749464E1,0E0,2.2459545E0,0E0,0E0,0E0,0E0,0E0],"parents":[2147483647,0,0,1,1,2,2,3,3,5,5],"right_children":[2,4,6,8,-1,10,-1,-1,-1,-1,-1],"split_conditions":[1.9E1,1.8E1,6E0,1.7E1,-2.6221037E-1,2.4E1,6.739672E-1,-1.0655681E-1,1.3149562E-1,-4.6568464E-2,-1.2855652E-1],"split_indices":[1,1,2,1,0,1,0,0,0,0,0],"split_type":[0,0,0,0,0,0,0,0,0,0,0],"sum_hessian":[3.7E1,1.9E1,1.8E1,1.7E1,2E0,1.3E1,5E0,1.6E1,1E0,5E0,8E0],"tree_param":{"num_deleted":"0","num_feature":"4","num_nodes":"11","size_leaf_vector":"1"}},{"base_weights":[8.9283705E-2,-1.3545493E0,1.6044087E0,-5.8233285E-1,-2.0685325E0,-1.1924249E0,6.290362E-1,1.7464828E-2,-8.568244E-2,-9.283747E-2,-3.0404207E-1,-1.12569824E-1,-2.4311943E-2],"categories":[],"categories_nodes":[],"categories_segments":[],"categories_sizes":[],"default_left":[0,0,0,0,0,0,0,0,0,0,0,0,0],"id":19,"left_children":[1,3,5,7,9,11,-1,-1,-1,-1,-1,-1,-1],"loss_changes":[8.5301575E1,9.822414E0,3.41954E2,4.537814E0,1.1317223E1,2.2430801E0,0E0,0E0,0E0,0E0,0E0,0E0,0E0],"parents":[2147483647,0,0,1,1,2,2,3,3,4,4,5,5],"right_children":[2,4,6,8,10,12,-1,-1,-1,-1,-1,-1,-1],"split_conditions":[1.9E1,3E0,6E0,9E0,1.4E1,2.9E1,6.290362E-1,1.7464828E-2,-8.568244E-2,-9.283747E-2,-3.0404207E-1,-1.12569824E-1,-2.4311943E-2],"split_indices":[1,0,2,1,1,1,0,0,0,0,0,0,0],"split_type":[0,0,0,0,0,0,0,0,0,0,0,0,0],"sum_hessian":[3.7E1,1.9E1,1.8E1,1E1,9E0,1.3E1,5E0,4E0,6E0,7E0,2E0,1E1,3E0],"tree_param":{"num_deleted":"0","num_feature":"4","num_nodes":"13","size_leaf_vector":"1"}},{"base_weights":[8.285313E-2,-1.26944E0,1.501959E0,-9.150033E-1,-2.3783313E-1,-1.1068082E0,5.8710045E-1,-9.2760645E-2,1.2966312E-1,-3.5959218E-2,-1.1376331E-1],"categories":[],"categories_nodes":[],"categories_segments":[],"categories_sizes":[],"default_left":[0,0,0,0,0,0,0,0,0,0,0],"id":20,"left_children":[1,3,5,7,-1,9,-1,-1,-1,-1,-1],"loss_changes":[7.483044E1,9.355255E0,2.9743262E2,1.3039558E1,0E0,2.2617264E0,0E0,0E0,0E0,0E0,0E0],"parents":[2147483647,0,0,1,1,2,2,3,3,5,5],"right_children":[2,4,6,8,-1,10,-1,-1,-1,-1,-1],"split_conditions":[1.9E1,1.8E1,6E0,1.7E1,-2.3783313E-1,2.4E1,5.8710045E-1,-9.2760645E-2,1.2966312E-1,-3.5959218E-2,-1.1376331E-1],"split_indices":[1,1,2,1,0,1,0,0,0,0,0],"split_type":[0,0,0,0,0,0,0,0,0,0,0],"sum_hessian":[3.7E1,1.9E1,1.8E1,1.7E1,2E0,1.3E1,5E0,1.6E1,1E0,5E0,8E0],"tree_param":{"num_deleted":"0","num_feature":"4","num_nodes":"11","size_leaf_vector":"1"}},{"base_weights":[8.2447164E-2,-1.1779312E0,1.4048219E0,-8.3975255E-1,-2.2514871E-1,-1.0289582E0,5.479604E-1,-8.577629E-2,1.2447658E-1,-9.8938495E-2,-1.602745E-2],"categories":[],"categories_nodes":[],"categories_segments":[],"categories_sizes":[],"default_left":[0,0,0,0,0,0,0,0,0,0,0],"id":21,"left_children":[1,3,5,7,-1,9,-1,-1,-1,-1,-1],"loss_changes":[6.498909E1,8.704729E0,2.5881995E2,1.1692237E1,0E0,2.1625233E0,0E0,0E0,0E0,0E0,0E0],"parents":[2147483647,0,0,1,1,2,2,3,3,5,5],"right_children":[2,4,6,8,-1,10,-1,-1,-1,-1,-1],"split_conditions":[1.9E1,1.8E1,6E0,1.7E1,-2.2514871E-1,2.9E1,5.479604E-1,-8.577629E-2,1.2447658E-1,-9.8938495E-2,-1.602745E-2],"split_indices":[1,1,2,1,0,1,0,0,0,0,0],"split_type":[0,0,0,0,0,0,0,0,0,0,0],"sum_hessian":[3.7E1,1.9E1,1.8E1,1.7E1,2E0,1.3E1,5E0,1.6E1,1E0,1E1,3E0],"tree_param":{"num_deleted":"0","num_feature":"4","num_nodes":"11","size_leaf_vector":"1"}},{"base_weights":[8.233936E-2,-1.093019E0,1.315225E0,-3.931165E-1,-1.7536099E0,-9.548531E-1,5.114296E-1,2.7773483E-2,-6.925856E-2,-7.384124E-2,-2.7071932E-1,-2.6966006E-2,-1.00848824E-1],"categories":[],"categories_nodes":[],"categories_segments":[],"categories_sizes":[],"default_left":[0,0,0,0,0,0,0,0,0,0,0,0,0],"id":22,"left_children":[1,3,5,7,9,11,-1,-1,-1,-1,-1,-1,-1],"loss_changes":[5.6502705E1,8.55761E0,2.2511063E2,4.149128E0,1.0418386E1,2.2195415E0,0E0,0E0,0E0,0E0,0E0,0E0,0E0],"parents":[2147483647,0,0,1,1,2,2,3,3,4,4,5,5],"right_children":[2,4,6,8,10,12,-1,-1,-1,-1,-1,-1,-1],"split_conditions":[1.9E1,3E0,6E0,9E0,1.4E1,2.4E1,5.114296E-1,2.7773483E-2,-6.925856E-2,-7.384124E-2,-2.7071932E-1,-2.6966006E-2,-1.00848824E-1],"split_indices":[1,0,2,1,1,1,0,0,0,0,0,0,0],"split_type":[0,0,0,0,0,0,0,0,0,0,0,0,0],"sum_hessian":[3.7E1,1.9E1,1.8E1,1E1,9E0,1.3E1,5E0,4E0,6E0,7E0,2E0,5E0,8E0],"tree_param":{"num_deleted":"0","num_feature":"4","num_nodes":"13","size_leaf_vector":"1"}},{"base_weights":[7.5688384E-2,-1.0248798E0,1.2301977E0,-7.135998E-1,-2.5509336E0,-8.875943E-1,4.7733432E-1,-7.4830554E-2,1.2226787E-1,-5.994316E-2,-2.4616885E-1,-8.7095104E-2,-9.014854E-3],"categories":[],"categories_nodes":[],"categories_segments":[],"categories_sizes":[],"default_left":[0,0,0,0,0,0,0,0,0,0,0,0,0],"id":23,"left_children":[1,3,5,7,9,11,-1,-1,-1,-1,-1,-1,-1],"loss_changes":[4.9544216E1,7.680256E0,1.9588275E2,1.0379624E1,5.383053E-1,2.058939E0,0E0,0E0,0E0,0E0,0E0,0E0,0E0],"parents":[2147483647,0,0,1,1,2,2,3,3,4,4,5,5],"right_children":[2,4,6,8,10,12,-1,-1,-1,-1,-1,-1,-1],"split_conditions":[1.9E1,1.8E1,6E0,1.7E1,1E0,2.9E1,4.7733432E-1,-7.4830554E-2,1.2226787E-1,-5.994316E-2,-2.4616885E-1,-8.7095104E-2,-9.014854E-3],"split_indices":[1,1,2,1,0,1,0,0,0,0,0,0,0],"split_type":[0,0,0,0,0,0,0,0,0,0,0,0,0],"sum_hessian":[3.7E1,1.9E1,1.8E1,1.7E1,2E0,1.3E1,5E0,1.6E1,1E0,1E0,1E0,1E1,3E0],"tree_param":{"num_deleted":"0","num_feature":"4","num_nodes":"13","size_leaf_vector":"1"}},{"base_weights":[7.2858736E-2,-9.558228E-1,1.1518468E0,2.3090363E-1,-1.2669358E0,-8.234516E-1,4.4551212E-1,7.050365E-2,-1.2161464E-2,-7.385306E-2,-1.9591169E-1,-1.9361915E-2,-8.956603E-2],"categories":[],"categories_nodes":[],"categories_segments":[],"categories_sizes":[],"default_left":[0,0,0,0,0,0,0,0,0,0,0,0,0],"id":24,"left_children":[1,3,5,7,9,11,-1,-1,-1,-1,-1,-1,-1],"loss_changes":[4.3278496E1,7.6766605E0,1.7036073E2,1.37922E0,4.2404785E0,2.1394806E0,0E0,0E0,0E0,0E0,0E0,0E0,0E0],"parents":[2147483647,0,0,1,1,2,2,3,3,4,4,5,5],"right_children":[2,4,6,8,10,12,-1,-1,-1,-1,-1,-1,-1],"split_conditions":[1.9E1,5E0,6E0,1E0,1.8E1,2.4E1,4.4551212E-1,7.050365E-2,-1.2161464E-2,-7.385306E-2,-1.9591169E-1,-1.9361915E-2,-8.956603E-2],"split_indices":[1,1,2,0,1,1,0,0,0,0,0,0,0],"split_type":[0,0,0,0,0,0,0,0,0,0,0,0,0],"sum_hessian":[3.7E1,1.9E1,1.8E1,4E0,1.5E1,1.3E1,5E0,1E0,3E0,1.3E1,2E0,5E0,8E0],"tree_param":{"num_deleted":"0","num_feature":"4","num_nodes":"13","size_leaf_vector":"1"}},{"base_weights":[7.0324056E-2,-8.8992786E-1,1.0774143E0,-2.6278636E-1,-1.4907907E0,-7.6535606E-1,4.1581142E-1,3.1227905E-2,-5.5341642E-2,-5.888137E-2,-2.405272E-1,-7.67999E-2,-3.0999754E-3],"categories":[],"categories_nodes":[],"categories_segments":[],"categories_sizes":[],"default_left":[0,0,0,0,0,0,0,0,0,0,0,0,0],"id":25,"left_children":[1,3,5,7,9,11,-1,-1,-1,-1,-1,-1,-1],"loss_changes":[3.7707115E1,7.14476E0,1.4823811E2,3.352063E0,9.227951E0,1.9428015E0,0E0,0E0,0E0,0E0,0E0,0E0,0E0],"parents":[2147483647,0,0,1,1,2,2,3,3,4,4,5,5],"right_children":[2,4,6,8,10,12,-1,-1,-1,-1,-1,-1,-1],"split_conditions":[1.9E1,3E0,6E0,9E0,1.4E1,2.9E1,4.1581142E-1,3.1227905E-2,-5.5341642E-2,-5.888137E-2,-2.405272E-1,-7.67999E-2,-3.0999754E-3],"split_indices":[1,0,2,1,1,1,0,0,0,0,0,0,0],"split_type":[0,0,0,0,0,0,0,0,0,0,0,0,0],"sum_hessian":[3.7E1,1.9E1,1.8E1,1E1,9E0,1.3E1,5E0,4E0,6E0,7E0,2E0,1E1,3E0],"tree_param":{"num_deleted":"0","num_feature":"4","num_nodes":"13","size_leaf_vector":"1"}},{"base_weights":[6.5024614E-2,-8.349096E-1,1.0089015E0,-5.577331E-1,-2.2196653E0,-7.098343E-1,3.8809076E-1,-6.166033E-2,1.22544974E-1,-4.7495306E-2,-2.1886453E-1,-1.2951125E-2,-7.970085E-2],"categories":[],"categories_nodes":[],"categories_segments":[],"categories_sizes":[],"default_left":[0,0,0,0,0,0,0,0,0,0,0,0,0],"id":26,"left_children":[1,3,5,7,9,11,-1,-1,-1,-1,-1,-1,-1],"loss_changes":[3.312057E1,6.4384537E0,1.2891537E2,9.192759E0,8.934727E-1,2.0359592E0,0E0,0E0,0E0,0E0,0E0,0E0,0E0],"parents":[2147483647,0,0,1,1,2,2,3,3,4,4,5,5],"right_children":[2,4,6,8,10,12,-1,-1,-1,-1,-1,-1,-1],"split_conditions":[1.9E1,1.8E1,6E0,1.7E1,1E0,2.4E1,3.8809076E-1,-6.166033E-2,1.22544974E-1,-4.7495306E-2,-2.1886453E-1,-1.2951125E-2,-7.970085E-2],"split_indices":[1,1,2,1,0,1,0,0,0,0,0,0,0],"split_type":[0,0,0,0,0,0,0,0,0,0,0,0,0],"sum_hessian":[3.7E1,1.9E1,1.8E1,1.7E1,2E0,1.3E1,5E0,1.6E1,1E0,1E0,1E0,5E0,8E0],"tree_param":{"num_deleted":"0","num_feature":"4","num_nodes":"13","size_leaf_vector":"1"}},{"base_weights":[6.2189993E-2,-7.783903E-1,9.4373816E-1,-5.097316E-1,-2.130879E0,-6.596659E-1,3.6221796E-1,-5.7017636E-2,1.1764316E-1,-4.559551E-2,-2.1010995E-1,-6.784528E-2,1.8680763E-3],"categories":[],"categories_nodes":[],"categories_segments":[],"categories_sizes":[],"default_left":[0,0,0,0,0,0,0,0,0,0,0,0,0],"id":27,"left_children":[1,3,5,7,9,11,-1,-1,-1,-1,-1,-1,-1],"loss_changes":[2.8893055E1,6.1809797E0,1.1217177E2,8.283598E0,8.2342243E-1,1.8213291E0,0E0,0E0,0E0,0E0,0E0,0E0,0E0],"parents":[2147483647,0,0,1,1,2,2,3,3,4,4,5,5],"right_children":[2,4,6,8,10,12,-1,-1,-1,-1,-1,-1,-1],"split_conditions":[1.9E1,1.8E1,6E0,1.7E1,1E0,2.9E1,3.6221796E-1,-5.7017636E-2,1.1764316E-1,-4.559551E-2,-2.1010995E-1,-6.784528E-2,1.8680763E-3],"split_indices":[1,1,2,1,0,1,0,0,0,0,0,0,0],"split_type":[0,0,0,0,0,0,0,0,0,0,0,0,0],"sum_hessian":[3.7E1,1.9E1,1.8E1,1.7E1,2E0,1.3E1,5E0,1.6E1,1E0,1E0,1E0,1E1,3E0],"tree_param":{"num_deleted":"0","num_feature":"4","num_nodes":"13","size_leaf_vector":"1"}},{"base_weights":[5.987693E-2,-7.258733E-1,8.83831E-1,3.1208172E-1,-1.0048672E0,-6.116052E-1,3.3807018E-1,7.118153E-2,-4.382591E-3,-1.7587447E-1,-5.418618E-2,-7.5647095E-3,-7.1067736E-2],"categories":[],"categories_nodes":[],"categories_segments":[],"categories_sizes":[],"default_left":[0,0,0,0,0,0,0,0,0,0,0,0,0],"id":28,"left_children":[1,3,5,7,9,11,-1,-1,-1,-1,-1,-1,-1],"loss_changes":[2.524359E1,6.105262E0,9.754309E1,1.1084075E0,4.76598E0,1.9192328E0,0E0,0E0,0E0,0E0,0E0,0E0,0E0],"parents":[2147483647,0,0,1,1,2,2,3,3,4,4,5,5],"right_children":[2,4,6,8,10,12,-1,-1,-1,-1,-1,-1,-1],"split_conditions":[1.9E1,5E0,6E0,1E0,7E0,2.4E1,3.3807018E-1,7.118153E-2,-4.382591E-3,-1.7587447E-1,-5.418618E-2,-7.5647095E-3,-7.1067736E-2],"split_indices":[1,1,2,0,1,1,0,0,0,0,0,0,0],"split_type":[0,0,0,0,0,0,0,0,0,0,0,0,0],"sum_hessian":[3.7E1,1.9E1,1.8E1,4E0,1.5E1,1.3E1,5E0,1E0,3E0,2E0,1.3E1,5E0,8E0],"tree_param":{"num_deleted":"0","num_feature":"4","num_nodes":"13","size_leaf_vector":"1"}},{"base_weights":[5.7617653E-2,-6.7596674E-1,8.267792E-1,-4.1615418E-1,-2.0095198E0,-5.6829345E-1,3.1553215E-1,-4.8792455E-2,1.1510486E-1,-4.160427E-2,-1.995381E-1,-6.0051713E-2,6.02005E-3],"categories":[],"categories_nodes":[],"categories_segments":[],"categories_sizes":[],"default_left":[0,0,0,0,0,0,0,0,0,0,0,0,0],"id":29,"left_children":[1,3,5,7,9,11,-1,-1,-1,-1,-1,-1,-1],"loss_changes":[2.2000183E1,6.0932055E0,8.4871704E1,7.346781E0,8.6873055E-1,1.6994176E0,0E0,0E0,0E0,0E0,0E0,0E0,0E0],"parents":[2147483647,0,0,1,1,2,2,3,3,4,4,5,5],"right_children":[2,4,6,8,10,12,-1,-1,-1,-1,-1,-1,-1],"split_conditions":[1.9E1,1.8E1,6E0,1.7E1,1E0,2.9E1,3.1553215E-1,-4.8792455E-2,1.1510486E-1,-4.160427E-2,-1.995381E-1,-6.0051713E-2,6.02005E-3],"split_indices":[1,1,2,1,0,1,0,0,0,0,0,0,0],"split_type":[0,0,0,0,0,0,0,0,0,0,0,0,0],"sum_hessian":[3.7E1,1.9E1,1.8E1,1.7E1,2E0,1.3E1,5E0,1.6E1,1E0,1E0,1E0,1E1,3E0],"tree_param":{"num_deleted":"0","num_feature":"4","num_nodes":"13","size_leaf_vector":"1"}},{"base_weights":[5.528922E-2,-6.306306E-1,7.744001E-1,-3.7917748E-1,-1.929139E0,-5.266891E-1,2.9449666E-1,8.334745E-3,-9.2290364E-2,-3.9940108E-2,-1.9155656E-1,-3.0569457E-3,-6.3505575E-2],"categories":[],"categories_nodes":[],"categories_segments":[],"categories_sizes":[],"default_left":[0,0,0,0,0,0,0,0,0,0,0,0,0],"id":30,"left_children":[1,3,5,7,9,11,-1,-1,-1,-1,-1,-1,-1],"loss_changes":[1.9231953E1,5.798793E0,7.3797165E1,6.8583193E0,8.00622E-1,1.7964876E0,0E0,0E0,0E0,0E0,0E0,0E0,0E0],"parents":[2147483647,0,0,1,1,2,2,3,3,4,4,5,5],"right_children":[2,4,6,8,10,12,-1,-1,-1,-1,-1,-1,-1],"split_conditions":[1.9E1,1.8E1,6E0,4E0,1E0,2.4E1,2.9449666E-1,8.334745E-3,-9.2290364E-2,-3.9940108E-2,-1.9155656E-1,-3.0569457E-3,-6.3505575E-2],"split_indices":[1,1,2,0,0,1,0,0,0,0,0,0,0],"split_type":[0,0,0,0,0,0,0,0,0,0,0,0,0],"sum_hessian":[3.7E1,1.9E1,1.8E1,1.7E1,2E0,1.3E1,5E0,1.1E1,6E0,1E0,1E0,5E0,8E0],"tree_param":{"num_deleted":"0","num_feature":"4","num_nodes":"13","size_leaf_vector":"1"}},{"base_weights":[4.8562426E-2,-5.959531E-1,7.244439E-1,-3.5350785E-1,-1.8519735E0,-4.8930883E-1,2.7486342E-1,-4.2905048E-2,1.1016727E-1,-3.8342513E-2,-1.838943E-1,-5.3263873E-2,9.469185E-3],"categories":[],"categories_nodes":[],"categories_segments":[],"categories_sizes":[],"default_left":[0,0,0,0,0,0,0,0,0,0,0,0,0],"id":31,"left_children":[1,3,5,7,9,11,-1,-1,-1,-1,-1,-1,-1],"loss_changes":[1.6985147E1,5.435637E0,6.4208405E1,6.433079E0,7.378521E-1,1.5802801E0,0E0,0E0,0E0,0E0,0E0,0E0,0E0],"parents":[2147483647,0,0,1,1,2,2,3,3,4,4,5,5],"right_children":[2,4,6,8,10,12,-1,-1,-1,-1,-1,-1,-1],"split_conditions":[1.9E1,1.8E1,6E0,1.7E1,1E0,2.9E1,2.7486342E-1,-4.2905048E-2,1.1016727E-1,-3.8342513E-2,-1.838943E-1,-5.3263873E-2,9.469185E-3],"split_indices":[1,1,2,1,0,1,0,0,0,0,0,0,0],"split_type":[0,0,0,0,0,0,0,0,0,0,0,0,0],"sum_hessian":[3.7E1,1.9E1,1.8E1,1.7E1,2E0,1.3E1,5E0,1.6E1,1E0,1E0,1E0,1E1,3E0],"tree_param":{"num_deleted":"0","num_feature":"4","num_nodes":"13","size_leaf_vector":"1"}},{"base_weights":[4.667967E-2,-5.5602574E-1,6.786496E-1,-3.2149062E-1,-1.7778946E0,-4.5329243E-1,2.5653914E-1,9.849376E-3,-8.301985E-2,-3.6808815E-2,-1.7653854E-1,6.9773354E-4,-5.687488E-2],"categories":[],"categories_nodes":[],"categories_segments":[],"categories_sizes":[],"default_left":[0,0,0,0,0,0,0,0,0,0,0,0,0],"id":32,"left_children":[1,3,5,7,9,11,-1,-1,-1,-1,-1,-1,-1],"loss_changes":[1.4851231E1,5.1598473E0,5.582496E1,5.859932E0,6.800051E-1,1.6726899E0,0E0,0E0,0E0,0E0,0E0,0E0,0E0],"parents":[2147483647,0,0,1,1,2,2,3,3,4,4,5,5],"right_children":[2,4,6,8,10,12,-1,-1,-1,-1,-1,-1,-1],"split_conditions":[1.9E1,1.8E1,6E0,4E0,1E0,2.4E1,2.5653914E-1,9.849376E-3,-8.301985E-2,-3.6808815E-2,-1.7653854E-1,6.9773354E-4,-5.687488E-2],"split_indices":[1,1,2,0,0,1,0,0,0,0,0,0,0],"split_type":[0,0,0,0,0,0,0,0,0,0,0,0,0],"sum_hessian":[3.7E1,1.9E1,1.8E1,1.7E1,2E0,1.3E1,5E0,1.1E1,6E0,1E0,1E0,5E0,8E0],"tree_param":{"num_deleted":"0","num_feature":"4","num_nodes":"13","size_leaf_vector":"1"}},{"base_weights":[4.0678162E-2,-5.258696E-1,6.3490325E-1,-2.998364E-1,-1.7067789E0,-4.2104164E-1,2.3943658E-1,-3.7793975E-2,1.0536659E-1,-3.5336457E-2,-1.69477E-1,-4.734735E-2,1.2313557E-2],"categories":[],"categories_nodes":[],"categories_segments":[],"categories_sizes":[],"default_left":[0,0,0,0,0,0,0,0,0,0,0,0,0],"id":33,"left_children":[1,3,5,7,9,11,-1,-1,-1,-1,-1,-1,-1],"loss_changes":[1.3126837E1,4.8267393E0,4.856969E1,5.645325E0,6.266937E-1,1.4659448E0,0E0,0E0,0E0,0E0,0E0,0E0,0E0],"parents":[2147483647,0,0,1,1,2,2,3,3,4,4,5,5],"right_children":[2,4,6,8,10,12,-1,-1,-1,-1,-1,-1,-1],"split_conditions":[1.9E1,1.8E1,6E0,1.7E1,1E0,2.9E1,2.3943658E-1,-3.7793975E-2,1.0536659E-1,-3.5336457E-2,-1.69477E-1,-4.734735E-2,1.2313557E-2],"split_indices":[1,1,2,1,0,1,0,0,0,0,0,0,0],"split_type":[0,0,0,0,0,0,0,0,0,0,0,0,0],"sum_hessian":[3.7E1,1.9E1,1.8E1,1.7E1,2E0,1.3E1,5E0,1.6E1,1E0,1E0,1E0,1E1,3E0],"tree_param":{"num_deleted":"0","num_feature":"4","num_nodes":"13","size_leaf_vector":"1"}},{"base_weights":[3.919122E-2,-4.9066195E-1,5.948687E-1,3.8952047E-1,-7.350526E-1,-3.8986096E-1,2.2347412E-1,7.278656E-2,2.5587655E-3,-1.5023838E-1,-3.5010867E-2,3.8076653E-3,-5.1054478E-2],"categories":[],"categories_nodes":[],"categories_segments":[],"categories_sizes":[],"default_left":[0,0,0,0,0,0,0,0,0,0,0,0,0],"id":34,"left_children":[1,3,5,7,9,11,-1,-1,-1,-1,-1,-1,-1],"loss_changes":[1.1480124E1,4.5884843E0,4.2223766E1,9.010497E-1,4.6169415E0,1.5511847E0,0E0,0E0,0E0,0E0,0E0,0E0,0E0],"parents":[2147483647,0,0,1,1,2,2,3,3,4,4,5,5],"right_children":[2,4,6,8,10,12,-1,-1,-1,-1,-1,-1,-1],"split_conditions":[1.9E1,5E0,6E0,1E0,7E0,2.4E1,2.2347412E-1,7.278656E-2,2.5587655E-3,-1.5023838E-1,-3.5010867E-2,3.8076653E-3,-5.1054478E-2],"split_indices":[1,1,2,0,1,1,0,0,0,0,0,0,0],"split_type":[0,0,0,0,0,0,0,0,0,0,0,0,0],"sum_hessian":[3.7E1,1.9E1,1.8E1,4E0,1.5E1,1.3E1,5E0,1E0,3E0,2E0,1.3E1,5E0,8E0],"tree_param":{"num_deleted":"0","num_feature":"4","num_nodes":"13","size_leaf_vector":"1"}},{"base_weights":[3.7801456E-2,-4.56904E-1,5.565545E-1,-2.3847659E-1,-1.6151671E0,-3.620472E-1,2.0857595E-1,-3.2265354E-2,1.0255238E-1,-3.2522563E-2,-1.6129749E-1,-4.218589E-2,1.4637985E-2],"categories":[],"categories_nodes":[],"categories_segments":[],"categories_sizes":[],"default_left":[0,0,0,0,0,0,0,0,0,0,0,0,0],"id":35,"left_children":[1,3,5,7,9,11,-1,-1,-1,-1,-1,-1,-1],"loss_changes":[1.000623E1,4.6747484E0,3.673472E1,5.0281773E0,6.3451815E-1,1.3575971E0,0E0,0E0,0E0,0E0,0E0,0E0,0E0],"parents":[2147483647,0,0,1,1,2,2,3,3,4,4,5,5],"right_children":[2,4,6,8,10,12,-1,-1,-1,-1,-1,-1,-1],"split_conditions":[1.9E1,1.8E1,6E0,1.7E1,1E0,2.9E1,2.0857595E-1,-3.2265354E-2,1.0255238E-1,-3.2522563E-2,-1.6129749E-1,-4.218589E-2,1.4637985E-2],"split_indices":[1,1,2,1,0,1,0,0,0,0,0,0,0],"split_type":[0,0,0,0,0,0,0,0,0,0,0,0,0],"sum_hessian":[3.7E1,1.9E1,1.8E1,1.7E1,2E0,1.3E1,5E0,1.6E1,1E0,1E0,1E0,1E1,3E0],"tree_param":{"num_deleted":"0","num_feature":"4","num_nodes":"13","size_leaf_vector":"1"}},{"base_weights":[3.6290426E-2,-4.265281E-1,5.215578E-1,-2.1549338E-1,-1.5505604E0,-3.350512E-1,1.9467087E-1,-2.9835943E-2,9.845028E-2,-3.1221656E-2,-1.5484558E-1,6.366183E-3,-4.5939382E-2],"categories":[],"categories_nodes":[],"categories_segments":[],"categories_sizes":[],"default_left":[0,0,0,0,0,0,0,0,0,0,0,0,0],"id":36,"left_children":[1,3,5,7,9,11,-1,-1,-1,-1,-1,-1,-1],"loss_changes":[8.756907E0,4.4100614E0,3.1931402E1,4.55757E0,5.8477163E-1,1.4341528E0,0E0,0E0,0E0,0E0,0E0,0E0,0E0],"parents":[2147483647,0,0,1,1,2,2,3,3,4,4,5,5],"right_children":[2,4,6,8,10,12,-1,-1,-1,-1,-1,-1,-1],"split_conditions":[1.9E1,1.8E1,6E0,1.7E1,1E0,2.4E1,1.9467087E-1,-2.9835943E-2,9.845028E-2,-3.1221656E-2,-1.5484558E-1,6.366183E-3,-4.5939382E-2],"split_indices":[1,1,2,1,0,1,0,0,0,0,0,0,0],"split_type":[0,0,0,0,0,0,0,0,0,0,0,0,0],"sum_hessian":[3.7E1,1.9E1,1.8E1,1.7E1,2E0,1.3E1,5E0,1.6E1,1E0,1E0,1E0,5E0,8E0],"tree_param":{"num_deleted":"0","num_feature":"4","num_nodes":"13","size_leaf_vector":"1"}},{"base_weights":[3.4377713E-2,-3.9827868E-1,4.8799616E-1,-1.9444221E-1,-1.4885379E0,-3.1107357E-1,1.8169275E-1,1.4841753E-2,-6.544255E-2,-2.9972782E-2,-1.4865176E-1,-3.7678793E-2,1.6516075E-2],"categories":[],"categories_nodes":[],"categories_segments":[],"categories_sizes":[],"default_left":[0,0,0,0,0,0,0,0,0,0,0,0,0],"id":37,"left_children":[1,3,5,7,9,11,-1,-1,-1,-1,-1,-1,-1],"loss_changes":[7.652273E0,4.1552577E0,2.7779062E1,4.4167137E0,5.3892565E-1,1.2558476E0,0E0,0E0,0E0,0E0,0E0,0E0,0E0],"parents":[2147483647,0,0,1,1,2,2,3,3,4,4,5,5],"right_children":[2,4,6,8,10,12,-1,-1,-1,-1,-1,-1,-1],"split_conditions":[1.9E1,1.8E1,6E0,4E0,1E0,2.9E1,1.8169275E-1,1.4841753E-2,-6.544255E-2,-2.9972782E-2,-1.4865176E-1,-3.7678793E-2,1.6516075E-2],"split_indices":[1,1,2,0,0,1,0,0,0,0,0,0,0],"split_type":[0,0,0,0,0,0,0,0,0,0,0,0,0],"sum_hessian":[3.7E1,1.9E1,1.8E1,1.7E1,2E0,1.3E1,5E0,1.1E1,6E0,1E0,1E0,1E1,3E0],"tree_param":{"num_deleted":"0","num_feature":"4","num_nodes":"13","size_leaf_vector":"1"}},{"base_weights":[2.981942E-2,-3.7787795E-1,4.574051E-1,-1.8169829E-1,-1.4289964E0,-2.8769928E-1,1.6957983E-1,-3.9723933E-2,4.2460933E-2,-2.877388E-2,-1.427057E-1,8.453712E-3,-4.143839E-2],"categories":[],"categories_nodes":[],"categories_segments":[],"categories_sizes":[],"default_left":[0,0,0,0,0,0,0,0,0,0,0,0,0],"id":38,"left_children":[1,3,5,7,9,11,-1,-1,-1,-1,-1,-1,-1],"loss_changes":[6.7972136E0,3.864515E0,2.4143608E1,4.301285E0,4.9667358E-1,1.3229343E0,0E0,0E0,0E0,0E0,0E0,0E0,0E0],"parents":[2147483647,0,0,1,1,2,2,3,3,4,4,5,5],"right_children":[2,4,6,8,10,12,-1,-1,-1,-1,-1,-1,-1],"split_conditions":[1.9E1,1.8E1,6E0,1.3E1,1E0,2.4E1,1.6957983E-1,-3.9723933E-2,4.2460933E-2,-2.877388E-2,-1.427057E-1,8.453712E-3,-4.143839E-2],"split_indices":[1,1,2,1,0,1,0,0,0,0,0,0,0],"split_type":[0,0,0,0,0,0,0,0,0,0,0,0,0],"sum_hessian":[3.7E1,1.9E1,1.8E1,1.7E1,2E0,1.3E1,5E0,1.2E1,5E0,1E0,1E0,5E0,8E0],"tree_param":{"num_deleted":"0","num_feature":"4","num_nodes":"13","size_leaf_vector":"1"}},{"base_weights":[2.6588114E-2,-3.5608467E-1,4.280022E-1,-2.1215167E-2,-9.749545E-1,-2.6703945E-1,1.5827458E-1,-3.679044E-2,2.2725739E-1,-1.4886436E-2,-1.5718077E-1,-3.3739075E-2,1.8011417E-2],"categories":[],"categories_nodes":[],"categories_segments":[],"categories_sizes":[],"default_left":[0,0,0,0,0,0,0,0,0,0,0,0,0],"id":39,"left_children":[1,3,5,7,9,11,-1,-1,-1,-1,-1,-1,-1],"loss_changes":[5.9895945E0,4.1241293E0,2.1002975E1,1.888242E1,5.1002173E0,1.1609125E0,0E0,0E0,0E0,0E0,0E0,0E0,0E0],"parents":[2147483647,0,0,1,1,2,2,3,3,4,4,5,5],"right_children":[2,4,6,8,10,12,-1,-1,-1,-1,-1,-1,-1],"split_conditions":[1.9E1,1.4E1,6E0,1.3E1,3E0,2.9E1,1.5827458E-1,-3.679044E-2,2.2725739E-1,-1.4886436E-2,-1.5718077E-1,-3.3739075E-2,1.8011417E-2],"split_indices":[1,1,2,1,0,1,0,0,0,0,0,0,0],"split_type":[0,0,0,0,0,0,0,0,0,0,0,0,0],"sum_hessian":[3.7E1,1.9E1,1.8E1,1.3E1,6E0,1.3E1,5E0,1.2E1,1E0,4E0,2E0,1E1,3E0],"tree_param":{"num_deleted":"0","num_feature":"4","num_nodes":"13","size_leaf_vector":"1"}},{"base_weights":[2.869655E-2,-3.2667762E-1,4.0126428E-1,4.7244757E-1,-5.559869E-1,-2.467996E-1,1.4772289E-1,7.4826084E-2,9.831714E-3,-1.3134257E-1,-2.2688253E-2,1.0139427E-2,-3.7472457E-2],"categories":[],"categories_nodes":[],"categories_segments":[],"categories_sizes":[],"default_left":[0,0,0,0,0,0,0,0,0,0,0,0,0],"id":40,"left_children":[1,3,5,7,9,11,-1,-1,-1,-1,-1,-1,-1],"loss_changes":[5.16232E0,3.9276114E0,1.8251663E1,6.940502E-1,4.2664332E0,1.2182771E0,0E0,0E0,0E0,0E0,0E0,0E0,0E0],"parents":[2147483647,0,0,1,1,2,2,3,3,4,4,5,5],"right_children":[2,4,6,8,10,12,-1,-1,-1,-1,-1,-1,-1],"split_conditions":[1.9E1,5E0,6E0,1E0,7E0,2.4E1,1.4772289E-1,7.4826084E-2,9.831714E-3,-1.3134257E-1,-2.2688253E-2,1.0139427E-2,-3.7472457E-2],"split_indices":[1,1,2,0,1,1,0,0,0,0,0,0,0],"split_type":[0,0,0,0,0,0,0,0,0,0,0,0,0],"sum_hessian":[3.7E1,1.9E1,1.8E1,4E0,1.5E1,1.3E1,5E0,1E0,3E0,2E0,1.3E1,5E0,8E0],"tree_param":{"num_deleted":"0","num_feature":"4","num_nodes":"13","size_leaf_vector":"1"}},{"base_weights":[2.7743207E-2,-3.0401218E-1,3.7549922E-1,1.6742911E-2,-9.0209204E-1,-2.2900786E-1,1.378746E-1,-3.2261316E-2,2.1907459E-1,-1.2481651E-2,-1.4758775E-1,-3.0291388E-2,1.9179115E-2],"categories":[],"categories_nodes":[],"categories_segments":[],"categories_sizes":[],"default_left":[0,0,0,0,0,0,0,0,0,0,0,0,0],"id":41,"left_children":[1,3,5,7,9,11,-1,-1,-1,-1,-1,-1,-1],"loss_changes":[4.498214E0,3.851846E0,1.5876549E1,1.7108208E1,4.6357045E0,1.0727448E0,0E0,0E0,0E0,0E0,0E0,0E0,0E0],"parents":[2147483647,0,0,1,1,2,2,3,3,4,4,5,5],"right_children":[2,4,6,8,10,12,-1,-1,-1,-1,-1,-1,-1],"split_conditions":[1.9E1,1.4E1,6E0,1.3E1,3E0,2.9E1,1.378746E-1,-3.2261316E-2,2.1907459E-1,-1.2481651E-2,-1.4758775E-1,-3.0291388E-2,1.9179115E-2],"split_indices":[1,1,2,1,0,1,0,0,0,0,0,0,0],"split_type":[0,0,0,0,0,0,0,0,0,0,0,0,0],"sum_hessian":[3.7E1,1.9E1,1.8E1,1.3E1,6E0,1.3E1,5E0,1.2E1,1E0,4E0,2E0,1E1,3E0],"tree_param":{"num_deleted":"0","num_feature":"4","num_nodes":"13","size_leaf_vector":"1"}},{"base_weights":[2.9563295E-2,-2.7835423E-1,3.5213104E-1,2.8746946E-2,-8.5279167E-1,-2.1148089E-1,1.2868296E-1,-2.9878974E-2,2.1031162E-1,-1.1682822E-2,-1.397164E-1,1.14829E-2,-3.3972885E-2],"categories":[],"categories_nodes":[],"categories_segments":[],"categories_sizes":[],"default_left":[0,0,0,0,0,0,0,0,0,0,0,0,0],"id":42,"left_children":[1,3,5,7,9,11,-1,-1,-1,-1,-1,-1,-1],"loss_changes":[3.872339E0,3.5527234E0,1.3794557E1,1.5624017E1,4.166172E0,1.1205112E0,0E0,0E0,0E0,0E0,0E0,0E0,0E0],"parents":[2147483647,0,0,1,1,2,2,3,3,4,4,5,5],"right_children":[2,4,6,8,10,12,-1,-1,-1,-1,-1,-1,-1],"split_conditions":[1.9E1,1.4E1,6E0,1.3E1,3E0,2.4E1,1.2868296E-1,-2.9878974E-2,2.1031162E-1,-1.1682822E-2,-1.397164E-1,1.14829E-2,-3.3972885E-2],"split_indices":[1,1,2,1,0,1,0,0,0,0,0,0,0],"split_type":[0,0,0,0,0,0,0,0,0,0,0,0,0],"sum_hessian":[3.7E1,1.9E1,1.8E1,1.3E1,6E0,1.3E1,5E0,1.2E1,1E0,4E0,2E0,5E0,8E0],"tree_param":{"num_deleted":"0","num_feature":"4","num_nodes":"13","size_leaf_vector":"1"}},{"base_weights":[3.075685E-2,-2.5463447E-1,3.2955E-1,5.012951E-1,-4.749478E-1,-1.9616903E-1,1.20104216E-1,7.431862E-2,1.2970199E-2,-1.21023506E-1,-1.749019E-2,-2.7270563E-2,2.006672E-2],"categories":[],"categories_nodes":[],"categories_segments":[],"categories_sizes":[],"default_left":[0,0,0,0,0,0,0,0,0,0,0,0,0],"id":43,"left_children":[1,3,5,7,9,11,-1,-1,-1,-1,-1,-1,-1],"loss_changes":[3.3242874E0,3.5689158E0,1.1998752E1,5.746753E-1,3.9255996E0,9.9112487E-1,0E0,0E0,0E0,0E0,0E0,0E0,0E0],"parents":[2147483647,0,0,1,1,2,2,3,3,4,4,5,5],"right_children":[2,4,6,8,10,12,-1,-1,-1,-1,-1,-1,-1],"split_conditions":[1.9E1,5E0,6E0,1E0,7E0,2.9E1,1.20104216E-1,7.431862E-2,1.2970199E-2,-1.21023506E-1,-1.749019E-2,-2.7270563E-2,2.006672E-2],"split_indices":[1,1,2,0,1,1,0,0,0,0,0,0,0],"split_type":[0,0,0,0,0,0,0,0,0,0,0,0,0],"sum_hessian":[3.7E1,1.9E1,1.8E1,4E0,1.5E1,1.3E1,5E0,1E0,3E0,2E0,1.3E1,1E1,3E0],"tree_param":{"num_deleted":"0","num_feature":"4","num_nodes":"13","size_leaf_vector":"1"}},{"base_weights":[2.9919166E-2,-2.3682486E-1,3.0912766E-1,5.7281356E-2,-7.9120517E-1,-1.8099014E-1,1.1209717E-1,-2.623403E-2,2.0259875E-1,-9.81575E-3,-1.3133204E-1,1.2535375E-2,-3.0880136E-2],"categories":[],"categories_nodes":[],"categories_segments":[],"categories_sizes":[],"default_left":[0,0,0,0,0,0,0,0,0,0,0,0,0],"id":44,"left_children":[1,3,5,7,9,11,-1,-1,-1,-1,-1,-1,-1],"loss_changes":[2.9033427E0,3.3062549E0,1.042338E1,1.4178975E1,3.778283E0,1.0296863E0,0E0,0E0,0E0,0E0,0E0,0E0,0E0],"parents":[2147483647,0,0,1,1,2,2,3,3,4,4,5,5],"right_children":[2,4,6,8,10,12,-1,-1,-1,-1,-1,-1,-1],"split_conditions":[1.9E1,1.4E1,6E0,1.3E1,3E0,2.4E1,1.1209717E-1,-2.623403E-2,2.0259875E-1,-9.81575E-3,-1.3133204E-1,1.2535375E-2,-3.0880136E-2],"split_indices":[1,1,2,1,0,1,0,0,0,0,0,0,0],"split_type":[0,0,0,0,0,0,0,0,0,0,0,0,0],"sum_hessian":[3.7E1,1.9E1,1.8E1,1.3E1,6E0,1.3E1,5E0,1.2E1,1E0,4E0,2E0,5E0,8E0],"tree_param":{"num_deleted":"0","num_feature":"4","num_nodes":"13","size_leaf_vector":"1"}},{"base_weights":[3.091929E-2,-2.1611817E-1,2.8933138E-1,4.9963626E-1,-4.2628404E-1,-1.6782127E-1,1.04623914E-1,7.2395205E-2,1.37660215E-2,-1.1316981E-1,-1.4723867E-2,2.07732E-2,-2.4641149E-2],"categories":[],"categories_nodes":[],"categories_segments":[],"categories_sizes":[],"default_left":[0,0,0,0,0,0,0,0,0,0,0,0,0],"id":45,"left_children":[1,3,5,7,9,11,-1,-1,-1,-1,-1,-1,-1],"loss_changes":[2.4883535E0,3.22153E0,9.065785E0,5.0809073E-1,3.5702152E0,9.190092E-1,0E0,0E0,0E0,0E0,0E0,0E0,0E0],"parents":[2147483647,0,0,1,1,2,2,3,3,4,4,5,5],"right_children":[2,4,6,8,10,12,-1,-1,-1,-1,-1,-1,-1],"split_conditions":[1.9E1,5E0,6E0,1E0,7E0,2.2E1,1.04623914E-1,7.2395205E-2,1.37660215E-2,-1.1316981E-1,-1.4723867E-2,2.07732E-2,-2.4641149E-2],"split_indices":[1,1,2,0,1,1,0,0,0,0,0,0,0],"split_type":[0,0,0,0,0,0,0,0,0,0,0,0,0],"sum_hessian":[3.7E1,1.9E1,1.8E1,4E0,1.5E1,1.3E1,5E0,1E0,3E0,2E0,1.3E1,3E0,1E1],"tree_param":{"num_deleted":"0","num_feature":"4","num_nodes":"13","size_leaf_vector":"1"}},{"base_weights":[2.9998692E-2,-2.0091546E-1,2.7148733E-1,8.070401E-2,-7.354522E-1,-1.5467188E-1,9.7648874E-2,-2.3059925E-2,1.9508377E-1,-8.245201E-3,-1.235424E-1,-2.3818955E-2,2.2194004E-2],"categories":[],"categories_nodes":[],"categories_segments":[],"categories_sizes":[],"default_left":[0,0,0,0,0,0,0,0,0,0,0,0,0],"id":46,"left_children":[1,3,5,7,9,11,-1,-1,-1,-1,-1,-1,-1],"loss_changes":[2.1735454E0,3.070073E0,7.873872E0,1.2881979E1,3.421285E0,9.4805133E-1,0E0,0E0,0E0,0E0,0E0,0E0,0E0],"parents":[2147483647,0,0,1,1,2,2,3,3,4,4,5,5],"right_children":[2,4,6,8,10,12,-1,-1,-1,-1,-1,-1,-1],"split_conditions":[1.9E1,1.4E1,6E0,1.3E1,3E0,2.9E1,9.7648874E-2,-2.3059925E-2,1.9508377E-1,-8.245201E-3,-1.235424E-1,-2.3818955E-2,2.2194004E-2],"split_indices":[1,1,2,1,0,1,0,0,0,0,0,0,0],"split_type":[0,0,0,0,0,0,0,0,0,0,0,0,0],"sum_hessian":[3.7E1,1.9E1,1.8E1,1.3E1,6E0,1.3E1,5E0,1.2E1,1E0,4E0,2E0,1E1,3E0],"tree_param":{"num_deleted":"0","num_feature":"4","num_nodes":"13","size_leaf_vector":"1"}},{"base_weights":[3.1184623E-2,-1.8283042E-1,2.5482234E-1,4.953453E-1,-3.8333344E-1,-1.4241417E-1,9.113896E-2,7.042179E-2,1.4323635E-2,-1.0590424E-1,-1.23538645E-2,1.311381E-2,-2.646519E-2],"categories":[],"categories_nodes":[],"categories_segments":[],"categories_sizes":[],"default_left":[0,0,0,0,0,0,0,0,0,0,0,0,0],"id":47,"left_children":[1,3,5,7,9,11,-1,-1,-1,-1,-1,-1,-1],"loss_changes":[1.8653392E0,2.9094079E0,6.8373575E0,4.5115316E-1,3.2401023E0,8.622252E-1,0E0,0E0,0E0,0E0,0E0,0E0,0E0],"parents":[2147483647,0,0,1,1,2,2,3,3,4,4,5,5],"right_children":[2,4,6,8,10,12,-1,-1,-1,-1,-1,-1,-1],"split_conditions":[1.9E1,5E0,6E0,1E0,7E0,2.4E1,9.113896E-2,7.042179E-2,1.4323635E-2,-1.0590424E-1,-1.23538645E-2,1.311381E-2,-2.646519E-2],"split_indices":[1,1,2,0,1,1,0,0,0,0,0,0,0],"split_type":[0,0,0,0,0,0,0,0,0,0,0,0,0],"sum_hessian":[3.7E1,1.9E1,1.8E1,4E0,1.5E1,1.3E1,5E0,1E0,3E0,2E0,1.3E1,5E0,8E0],"tree_param":{"num_deleted":"0","num_feature":"4","num_nodes":"13","size_leaf_vector":"1"}},{"base_weights":[2.9854825E-2,-1.6987953E-1,2.385302E-1,-9.61468E-3,-1.0748421E0,-1.3197462E-1,8.506291E-2,-1.2249109E-2,9.719486E-2,-2.26482E-2,-1.0633285E-1,-2.160116E-2,2.2450294E-2],"categories":[],"categories_nodes":[],"categories_segments":[],"categories_sizes":[],"default_left":[0,0,0,0,0,0,0,0,0,0,0,0,0],"id":48,"left_children":[1,3,5,7,9,11,-1,-1,-1,-1,-1,-1,-1],"loss_changes":[1.6243479E0,2.8903396E0,5.9462743E0,3.3490195E0,2.2777343E-1,8.731538E-1,0E0,0E0,0E0,0E0,0E0,0E0,0E0],"parents":[2147483647,0,0,1,1,2,2,3,3,4,4,5,5],"right_children":[2,4,6,8,10,12,-1,-1,-1,-1,-1,-1,-1],"split_conditions":[1.9E1,1.8E1,6E0,1.7E1,1E0,2.9E1,8.506291E-2,-1.2249109E-2,9.719486E-2,-2.26482E-2,-1.0633285E-1,-2.160116E-2,2.2450294E-2],"split_indices":[1,1,2,1,0,1,0,0,0,0,0,0,0],"split_type":[0,0,0,0,0,0,0,0,0,0,0,0,0],"sum_hessian":[3.7E1,1.9E1,1.8E1,1.7E1,2E0,1.3E1,5E0,1.6E1,1E0,1E0,1E0,1E1,3E0],"tree_param":{"num_deleted":"0","num_feature":"4","num_nodes":"13","size_leaf_vector":"1"}},{"base_weights":[2.8568154E-2,6.8094864E-2,-1.6669776E-2,-4.0444693E-1,1.6294543E-1,1.8990401E-2,-1.08038455E-1,1.8826453E-1,-1.5041031E-3],"categories":[],"categories_nodes":[],"categories_segments":[],"categories_sizes":[],"default_left":[0,0,0,0,0,0,0,0,0],"id":49,"left_children":[1,-1,3,5,7,-1,-1,-1,-1],"loss_changes":[1.4283029E0,0E0,2.6429777E0,7.6068563E0,1.039461E1,0E0,0E0,0E0,0E0],"parents":[2147483647,0,0,2,2,3,3,4,4],"right_children":[2,-1,4,6,8,-1,-1,-1,-1],"split_conditions":[2E0,6.8094864E-2,1.3E1,4E0,1.4E1,1.8990401E-2,-1.08038455E-1,1.8826453E-1,-1.5041031E-3],"split_indices":[1,0,1,0,1,0,0,0,0],"split_type":[0,0,0,0,0,0,0,0,0],"sum_hessian":[3.7E1,1E0,3.6E1,1.1E1,2.5E1,7E0,4E0,1E0,2.4E1],"tree_param":{"num_deleted":"0","num_feature":"4","num_nodes":"9","size_leaf_vector":"1"}},{"base_weights":[3.0645842E-2,-1.5589672E-1,2.2539349E-1,1.1417743E-1,-6.7377406E-1,-1.1995983E-1,7.949219E-2,-1.7968398E-2,1.8073395E-1,-7.6313703E-3,-1.13052204E-1,1.3779855E-2,-2.4114903E-2],"categories":[],"categories_nodes":[],"categories_segments":[],"categories_sizes":[],"default_left":[0,0,0,0,0,0,0,0,0,0,0,0,0],"id":50,"left_children":[1,3,5,7,9,11,-1,-1,-1,-1,-1,-1,-1],"loss_changes":[1.4156296E0,2.8742356E0,5.1602926E0,1.0681044E1,2.8586988E0,7.9432625E-1,0E0,0E0,0E0,0E0,0E0,0E0,0E0],"parents":[2147483647,0,0,1,1,2,2,3,3,4,4,5,5],"right_children":[2,4,6,8,10,12,-1,-1,-1,-1,-1,-1,-1],"split_conditions":[1.9E1,1.4E1,6E0,1.3E1,3E0,2.4E1,7.949219E-2,-1.7968398E-2,1.8073395E-1,-7.6313703E-3,-1.13052204E-1,1.3779855E-2,-2.4114903E-2],"split_indices":[1,1,2,1,0,1,0,0,0,0,0,0,0],"split_type":[0,0,0,0,0,0,0,0,0,0,0,0,0],"sum_hessian":[3.7E1,1.9E1,1.8E1,1.3E1,6E0,1.3E1,5E0,1.2E1,1E0,4E0,2E0,5E0,8E0],"tree_param":{"num_deleted":"0","num_feature":"4","num_nodes":"13","size_leaf_vector":"1"}},{"base_weights":[3.1121617E-2,6.608978E-2,-1.2692516E-2,-3.6304092E-1,1.4949492E-1,1.8918838E-2,-9.9974E-2,1.7350459E-1,-1.4423904E-3],"categories":[],"categories_nodes":[],"categories_segments":[],"categories_sizes":[],"default_left":[0,0,0,0,0,0,0,0,0],"id":51,"left_children":[1,-1,3,5,7,-1,-1,-1,-1],"loss_changes":[1.3341117E0,0E0,2.1566908E0,6.674257E0,8.834512E0,0E0,0E0,0E0,0E0],"parents":[2147483647,0,0,2,2,3,3,4,4],"right_children":[2,-1,4,6,8,-1,-1,-1,-1],"split_conditions":[2E0,6.608978E-2,1.3E1,4E0,1.4E1,1.8918838E-2,-9.9974E-2,1.7350459E-1,-1.4423904E-3],"split_indices":[1,0,1,0,1,0,0,0,0],"split_type":[0,0,0,0,0,0,0,0,0],"sum_hessian":[3.7E1,1E0,3.6E1,1.1E1,2.5E1,7E0,4E0,1E0,2.4E1],"tree_param":{"num_deleted":"0","num_feature":"4","num_nodes":"9","size_leaf_vector":"1"}},{"base_weights":[3.2765716E-2,6.3446194E-2,-9.217778E-3,-3.4075245E-1,1.4415275E-1,1.7594509E-2,-9.3575686E-2,1.665644E-1,-1.3316436E-3],"categories":[],"categories_nodes":[],"categories_segments":[],"categories_sizes":[],"default_left":[0,0,0,0,0,0,0,0,0],"id":52,"left_children":[1,-1,3,5,7,-1,-1,-1,-1],"loss_changes":[1.220291E0,0E0,1.9304833E0,5.8345556E0,8.136553E0,0E0,0E0,0E0,0E0],"parents":[2147483647,0,0,2,2,3,3,4,4],"right_children":[2,-1,4,6,8,-1,-1,-1,-1],"split_conditions":[2E0,6.3446194E-2,1.3E1,4E0,1.4E1,1.7594509E-2,-9.3575686E-2,1.665644E-1,-1.3316436E-3],"split_indices":[1,0,1,0,1,0,0,0,0],"split_type":[0,0,0,0,0,0,0,0,0],"sum_hessian":[3.7E1,1E0,3.6E1,1.1E1,2.5E1,7E0,4E0,1E0,2.4E1],"tree_param":{"num_deleted":"0","num_feature":"4","num_nodes":"9","size_leaf_vector":"1"}},{"base_weights":[3.4162678E-2,-1.3803896E-1,2.1362953E-1,1.20169096E-1,-6.347352E-1,-1.0852616E-1,7.437769E-2,-1.4247254E-2,1.5990184E-1,-6.9654617E-3,-1.06874794E-1,-1.9343311E-2,2.2806777E-2],"categories":[],"categories_nodes":[],"categories_segments":[],"categories_sizes":[],"default_left":[0,0,0,0,0,0,0,0,0,0,0,0,0],"id":53,"left_children":[1,3,5,7,9,11,-1,-1,-1,-1,-1,-1,-1],"loss_changes":[1.2038597E0,2.6412947E0,4.484066E0,8.200331E0,2.5718503E0,8.0329597E-1,0E0,0E0,0E0,0E0,0E0,0E0,0E0],"parents":[2147483647,0,0,1,1,2,2,3,3,4,4,5,5],"right_children":[2,4,6,8,10,12,-1,-1,-1,-1,-1,-1,-1],"split_conditions":[1.9E1,1.4E1,6E0,1.3E1,3E0,2.9E1,7.437769E-2,-1.4247254E-2,1.5990184E-1,-6.9654617E-3,-1.06874794E-1,-1.9343311E-2,2.2806777E-2],"split_indices":[1,1,2,1,0,1,0,0,0,0,0,0,0],"split_type":[0,0,0,0,0,0,0,0,0,0,0,0,0],"sum_hessian":[3.7E1,1.9E1,1.8E1,1.3E1,6E0,1.3E1,5E0,1.2E1,1E0,4E0,2E0,1E1,3E0],"tree_param":{"num_deleted":"0","num_feature":"4","num_nodes":"13","size_leaf_vector":"1"}},{"base_weights":[3.4315083E-2,6.147823E-2,-6.296828E-3,-2.1289796E-1,2.0063572E-1,-5.612216E-3,-7.6065734E-2,-7.967736E-3,6.941909E-2],"categories":[],"categories_nodes":[],"categories_segments":[],"categories_sizes":[],"default_left":[0,0,0,0,0,0,0,0,0],"id":54,"left_children":[1,-1,3,5,7,-1,-1,-1,-1],"loss_changes":[1.1378378E0,0E0,1.6245571E0,1.9346645E0,3.8918567E0,0E0,0E0,0E0,0E0],"parents":[2147483647,0,0,2,2,3,3,4,4],"right_children":[2,-1,4,6,8,-1,-1,-1,-1],"split_conditions":[2E0,6.147823E-2,1.9E1,1.8E1,6E0,-5.612216E-3,-7.6065734E-2,-7.967736E-3,6.941909E-2],"split_indices":[1,0,1,1,2,0,0,0,0],"split_type":[0,0,0,0,0,0,0,0,0],"sum_hessian":[3.7E1,1E0,3.6E1,1.8E1,1.8E1,1.6E1,2E0,1.3E1,5E0],"tree_param":{"num_deleted":"0","num_feature":"4","num_nodes":"9","size_leaf_vector":"1"}},{"base_weights":[3.265547E-2,5.901909E-2,-6.339711E-3,-3.0161962E-1,1.3018715E-1,1.7753057E-2,-8.6315855E-2,1.5373027E-1,-1.4668511E-3],"categories":[],"categories_nodes":[],"categories_segments":[],"categories_sizes":[],"default_left":[0,0,0,0,0,0,0,0,0],"id":55,"left_children":[1,-1,3,5,7,-1,-1,-1,-1],"loss_changes":[1.0494812E0,0E0,1.5308716E0,5.122917E0,6.9530506E0,0E0,0E0,0E0,0E0],"parents":[2147483647,0,0,2,2,3,3,4,4],"right_children":[2,-1,4,6,8,-1,-1,-1,-1],"split_conditions":[2E0,5.901909E-2,1.3E1,4E0,1.4E1,1.7753057E-2,-8.6315855E-2,1.5373027E-1,-1.4668511E-3],"split_indices":[1,0,1,0,1,0,0,0,0],"split_type":[0,0,0,0,0,0,0,0,0],"sum_hessian":[3.7E1,1E0,3.6E1,1.1E1,2.5E1,7E0,4E0,1E0,2.4E1],"tree_param":{"num_deleted":"0","num_feature":"4","num_nodes":"9","size_leaf_vector":"1"}},{"base_weights":[3.379908E-2,1.22613855E-1,-2.6600564E-1,-1.0376819E-2,1.058391E-1,-5.823787E-1,2.750554E-1,5.3553306E-3,-5.4160893E-2,1.6061096E-2,-8.193126E-2,8.532852E-2,-2.7546436E-2],"categories":[],"categories_nodes":[],"categories_segments":[],"categories_sizes":[],"default_left":[0,0,0,0,0,0,0,0,0,0,0,0,0],"id":56,"left_children":[1,3,5,7,-1,9,11,-1,-1,-1,-1,-1,-1],"loss_changes":[1.0444453E0,4.802889E0,1.7007805E0,1.4885281E0,0E0,2.2813866E0,2.3283675E0,0E0,0E0,0E0,0E0,0E0,0E0],"parents":[2147483647,0,0,1,1,2,2,3,3,5,5,6,6],"right_children":[2,4,6,8,-1,10,12,-1,-1,-1,-1,-1,-1],"split_conditions":[2.4E1,2.3E1,2.9E1,2.2E1,1.058391E-1,2E0,5E0,5.3553306E-3,-5.4160893E-2,1.6061096E-2,-8.193126E-2,8.532852E-2,-2.7546436E-2],"split_indices":[1,1,1,1,0,0,0,0,0,0,0,0,0],"split_type":[0,0,0,0,0,0,0,0,0,0,0,0,0],"sum_hessian":[3.7E1,2.9E1,8E0,2.7E1,2E0,5E0,3E0,2.5E1,2E0,2E0,3E0,1E0,2E0],"tree_param":{"num_deleted":"0","num_feature":"4","num_nodes":"13","size_leaf_vector":"1"}},{"base_weights":[3.2383412E-2,5.6444127E-2,-4.879288E-3,-2.0123458E-1,1.9173281E-1,-5.2486868E-3,-7.2216295E-2,-6.6057583E-3,6.398575E-2],"categories":[],"categories_nodes":[],"categories_segments":[],"categories_sizes":[],"default_left":[0,0,0,0,0,0,0,0,0],"id":57,"left_children":[1,-1,3,5,7,-1,-1,-1,-1],"loss_changes":[9.56637E-1,0E0,1.4669988E0,1.7483864E0,3.2352757E0,0E0,0E0,0E0,0E0],"parents":[2147483647,0,0,2,2,3,3,4,4],"right_children":[2,-1,4,6,8,-1,-1,-1,-1],"split_conditions":[2E0,5.6444127E-2,1.9E1,1.8E1,6E0,-5.2486868E-3,-7.2216295E-2,-6.6057583E-3,6.398575E-2],"split_indices":[1,0,1,1,2,0,0,0,0],"split_type":[0,0,0,0,0,0,0,0,0],"sum_hessian":[3.7E1,1E0,3.6E1,1.8E1,1.8E1,1.6E1,2E0,1.3E1,5E0],"tree_param":{"num_deleted":"0","num_feature":"4","num_nodes":"9","size_leaf_vector":"1"}},{"base_weights":[3.0750023E-2,5.4186363E-2,-5.031302E-3,-2.8330055E-1,1.2359417E-1,1.6502962E-2,-8.079844E-2,1.4757682E-1,-1.523111E-3],"categories":[],"categories_nodes":[],"categories_segments":[],"categories_sizes":[],"default_left":[0,0,0,0,0,0,0,0,0],"id":58,"left_children":[1,-1,3,5,7,-1,-1,-1,-1],"loss_changes":[8.8255584E-1,0E0,1.3593373E0,4.477628E0,6.417811E0,0E0,0E0,0E0,0E0],"parents":[2147483647,0,0,2,2,3,3,4,4],"right_children":[2,-1,4,6,8,-1,-1,-1,-1],"split_conditions":[2E0,5.4186363E-2,1.3E1,4E0,1.4E1,1.6502962E-2,-8.079844E-2,1.4757682E-1,-1.523111E-3],"split_indices":[1,0,1,0,1,0,0,0,0],"split_type":[0,0,0,0,0,0,0,0,0],"sum_hessian":[3.7E1,1E0,3.6E1,1.1E1,2.5E1,7E0,4E0,1E0,2.4E1],"tree_param":{"num_deleted":"0","num_feature":"4","num_nodes":"9","size_leaf_vector":"1"}},{"base_weights":[3.186723E-2,1.118845E-1,-2.383978E-1,-1.2372187E-2,9.8745495E-2,-5.399925E-1,2.7359366E-1,5.0173006E-3,-5.2721176E-2,1.563807E-2,-7.652765E-2,8.224056E-2,-2.5643717E-2],"categories":[],"categories_nodes":[],"categories_segments":[],"categories_sizes":[],"default_left":[0,0,0,0,0,0,0,0,0,0,0,0,0],"id":59,"left_children":[1,3,5,7,-1,9,11,-1,-1,-1,-1,-1,-1],"loss_changes":[8.484561E-1,4.19937E0,1.5374637E0,1.4008818E0,0E0,2.025382E0,2.1224332E0,0E0,0E0,0E0,0E0,0E0,0E0],"parents":[2147483647,0,0,1,1,2,2,3,3,5,5,6,6],"right_children":[2,4,6,8,-1,10,12,-1,-1,-1,-1,-1,-1],"split_conditions":[2.4E1,2.3E1,2.9E1,2.2E1,9.8745495E-2,2E0,5E0,5.0173006E-3,-5.2721176E-2,1.563807E-2,-7.652765E-2,8.224056E-2,-2.5643717E-2],"split_indices":[1,1,1,1,0,0,0,0,0,0,0,0,0],"split_type":[0,0,0,0,0,0,0,0,0,0,0,0,0],"sum_hessian":[3.7E1,2.9E1,8E0,2.7E1,2E0,5E0,3E0,2.5E1,2E0,2E0,3E0,1E0,2E0],"tree_param":{"num_deleted":"0","num_feature":"4","num_nodes":"13","size_leaf_vector":"1"}},{"base_weights":[3.0548146E-2,-1.16033316E-1,1.8323663E-1,1.13225326E-1,-5.579744E-1,-6.743234E-2,5.9007313E-2,-1.2010287E-2,1.4147304E-1,-4.0982817E-3,-9.732475E-2,2.2487124E-2,-1.5042974E-2],"categories":[],"categories_nodes":[],"categories_segments":[],"categories_sizes":[],"default_left":[0,0,0,0,0,0,0,0,0,0,0,0,0],"id":60,"left_children":[1,3,5,7,9,11,-1,-1,-1,-1,-1,-1,-1],"loss_changes":[8.7175095E-1,2.089553E0,2.6899688E0,6.3680916E0,2.273824E0,6.413224E-1,0E0,0E0,0E0,0E0,0E0,0E0,0E0],"parents":[2147483647,0,0,1,1,2,2,3,3,4,4,5,5],"right_children":[2,4,6,8,10,12,-1,-1,-1,-1,-1,-1,-1],"split_conditions":[1.9E1,1.4E1,6E0,1.3E1,3E0,2.2E1,5.9007313E-2,-1.2010287E-2,1.4147304E-1,-4.0982817E-3,-9.732475E-2,2.2487124E-2,-1.5042974E-2],"split_indices":[1,1,2,1,0,1,0,0,0,0,0,0,0],"split_type":[0,0,0,0,0,0,0,0,0,0,0,0,0],"sum_hessian":[3.7E1,1.9E1,1.8E1,1.3E1,6E0,1.3E1,5E0,1.2E1,1E0,4E0,2E0,3E0,1E1],"tree_param":{"num_deleted":"0","num_feature":"4","num_nodes":"13","size_leaf_vector":"1"}},{"base_weights":[3.0591274E-2,5.229862E-2,-3.918841E-3,-1.797072E-1,1.7207578E-1,-4.447968E-3,-6.5846495E-2,-4.920458E-3,5.50736E-2],"categories":[],"categories_nodes":[],"categories_segments":[],"categories_sizes":[],"default_left":[0,0,0,0,0,0,0,0,0],"id":61,"left_children":[1,-1,3,5,7,-1,-1,-1,-1],"loss_changes":[8.1973994E-1,0E0,1.175622E0,1.4713416E0,2.3339024E0,0E0,0E0,0E0,0E0],"parents":[2147483647,0,0,2,2,3,3,4,4],"right_children":[2,-1,4,6,8,-1,-1,-1,-1],"split_conditions":[2E0,5.229862E-2,1.9E1,1.8E1,6E0,-4.447968E-3,-6.5846495E-2,-4.920458E-3,5.50736E-2],"split_indices":[1,0,1,1,2,0,0,0,0],"split_type":[0,0,0,0,0,0,0,0,0],"sum_hessian":[3.7E1,1E0,3.6E1,1.8E1,1.8E1,1.6E1,2E0,1.3E1,5E0],"tree_param":{"num_deleted":"0","num_feature":"4","num_nodes":"9","size_leaf_vector":"1"}},{"base_weights":[2.8990155E-2,5.020668E-2,-4.149759E-3,-2.55507E-1,1.1202088E-1,1.6148614E-2,-7.489512E-2,1.3599205E-1,-1.5592269E-3],"categories":[],"categories_nodes":[],"categories_segments":[],"categories_sizes":[],"default_left":[0,0,0,0,0,0,0,0,0],"id":62,"left_children":[1,-1,3,5,7,-1,-1,-1,-1],"loss_changes":[7.56423E-1,0E0,1.1090343E0,3.9248161E0,5.462555E0,0E0,0E0,0E0,0E0],"parents":[2147483647,0,0,2,2,3,3,4,4],"right_children":[2,-1,4,6,8,-1,-1,-1,-1],"split_conditions":[2E0,5.020668E-2,1.3E1,4E0,1.4E1,1.6148614E-2,-7.489512E-2,1.3599205E-1,-1.5592269E-3],"split_indices":[1,0,1,0,1,0,0,0,0],"split_type":[0,0,0,0,0,0,0,0,0],"sum_hessian":[3.7E1,1E0,3.6E1,1.1E1,2.5E1,7E0,4E0,1E0,2.4E1],"tree_param":{"num_deleted":"0","num_feature":"4","num_nodes":"9","size_leaf_vector":"1"}},{"base_weights":[2.9984035E-2,-5.688872E-2,2.4838886E-1,-1.3289557E-1,7.9811856E-2,6.3879114E-1,-5.9451294E-1,5.8516674E-3,-8.4328555E-2,-7.099169E-2,7.86871E-2,-8.785838E-2,3.6665495E-2],"categories":[],"categories_nodes":[],"categories_segments":[],"categories_sizes":[],"default_left":[0,0,0,0,0,0,0,0,0,0,0,0,0],"id":63,"left_children":[1,3,5,7,-1,9,11,-1,-1,-1,-1,-1,-1],"loss_changes":[7.351208E-1,2.37684E0,3.9995482E0,5.201912E0,0E0,5.0826387E0,2.6246548E0,0E0,0E0,0E0,0E0,0E0,0E0],"parents":[2147483647,0,0,1,1,2,2,3,3,5,5,6,6],"right_children":[2,4,6,8,-1,10,12,-1,-1,-1,-1,-1,-1],"split_conditions":[5E0,2.9E1,2.4E1,4E0,7.9811856E-2,7E0,3.1E1,5.8516674E-3,-8.4328555E-2,-7.099169E-2,7.86871E-2,-8.785838E-2,3.6665495E-2],"split_indices":[0,1,1,0,0,1,1,0,0,0,0,0,0],"split_type":[0,0,0,0,0,0,0,0,0,0,0,0,0],"sum_hessian":[3.7E1,2.7E1,1E1,2.6E1,1E0,7E0,3E0,2.2E1,4E0,1E0,6E0,2E0,1E0],"tree_param":{"num_deleted":"0","num_feature":"4","num_nodes":"13","size_leaf_vector":"1"}},{"base_weights":[2.6475782E-2,4.7964323E-2,-5.216985E-3,-2.019659E-1,1.3811027E-1,2.6189422E-3,-7.314065E-2,9.437133E-2,2.5872092E-3],"categories":[],"categories_nodes":[],"categories_segments":[],"categories_sizes":[],"default_left":[0,0,0,0,0,0,0,0,0],"id":64,"left_children":[1,-1,3,5,7,-1,-1,-1,-1],"loss_changes":[6.933004E-1,0E0,1.0712743E0,2.70476E0,2.385435E0,0E0,0E0,0E0,0E0],"parents":[2147483647,0,0,2,2,3,3,4,4],"right_children":[2,-1,4,6,8,-1,-1,-1,-1],"split_conditions":[2E0,4.7964323E-2,1.7E1,1.4E1,1.8E1,2.6189422E-3,-7.314065E-2,9.437133E-2,2.5872092E-3],"split_indices":[1,0,1,1,1,0,0,0,0],"split_type":[0,0,0,0,0,0,0,0,0],"sum_hessian":[3.7E1,1E0,3.6E1,1.5E1,2.1E1,1.2E1,3E0,1E0,2E1],"tree_param":{"num_deleted":"0","num_feature":"4","num_nodes":"9","size_leaf_vector":"1"}},{"base_weights":[2.6315777E-2,4.604576E-2,-4.0849866E-3,-1.6472924E-1,1.5677427E-1,-3.6637427E-3,-6.2701605E-2,3.4688186E-2,-1.591924E-2],"categories":[],"categories_nodes":[],"categories_segments":[],"categories_sizes":[],"default_left":[0,0,0,0,0,0,0,0,0],"id":65,"left_children":[1,-1,3,5,7,-1,-1,-1,-1],"loss_changes":[6.36868E-1,0E0,9.819465E-1,1.3629627E0,1.9575105E0,0E0,0E0,0E0,0E0],"parents":[2147483647,0,0,2,2,3,3,4,4],"right_children":[2,-1,4,6,8,-1,-1,-1,-1],"split_conditions":[2E0,4.604576E-2,1.9E1,1.8E1,2.4E1,-3.6637427E-3,-6.2701605E-2,3.4688186E-2,-1.591924E-2],"split_indices":[1,0,1,1,1,0,0,0,0],"split_type":[0,0,0,0,0,0,0,0,0],"sum_hessian":[3.7E1,1E0,3.6E1,1.8E1,1.8E1,1.6E1,2E0,1E1,8E0],"tree_param":{"num_deleted":"0","num_feature":"4","num_nodes":"9","size_leaf_vector":"1"}},{"base_weights":[2.4170069E-2,-5.5709008E-2,2.2530136E-1,-1.2920997E-1,7.715267E-2,5.846649E-1,-5.4975104E-1,5.27656E-3,-8.009088E-2,-6.8110235E-2,7.2915144E-2,-8.246154E-2,3.5732154E-2],"categories":[],"categories_nodes":[],"categories_segments":[],"categories_sizes":[],"default_left":[0,0,0,0,0,0,0,0,0,0,0,0,0],"id":66,"left_children":[1,3,5,7,-1,9,11,-1,-1,-1,-1,-1,-1],"loss_changes":[6.230662E-1,2.22404E0,3.3852015E0,4.6606536E0,0E0,4.530076E0,2.3775473E0,0E0,0E0,0E0,0E0,0E0,0E0],"parents":[2147483647,0,0,1,1,2,2,3,3,5,5,6,6],"right_children":[2,4,6,8,-1,10,12,-1,-1,-1,-1,-1,-1],"split_conditions":[5E0,2.9E1,2.4E1,4E0,7.715267E-2,7E0,3.1E1,5.27656E-3,-8.009088E-2,-6.8110235E-2,7.2915144E-2,-8.246154E-2,3.5732154E-2],"split_indices":[0,1,1,0,0,1,1,0,0,0,0,0,0],"split_type":[0,0,0,0,0,0,0,0,0,0,0,0,0],"sum_hessian":[3.7E1,2.7E1,1E1,2.6E1,1E0,7E0,3E0,2.2E1,4E0,1E0,6E0,2E0,1E0],"tree_param":{"num_deleted":"0","num_feature":"4","num_nodes":"13","size_leaf_vector":"1"}},{"base_weights":[2.119472E-2,4.399288E-2,-7.957368E-3,-1.891526E-1,1.2418268E-1,2.9762764E-3,-7.020173E-2,9.053196E-2,1.7855999E-3],"categories":[],"categories_nodes":[],"categories_segments":[],"categories_sizes":[],"default_left":[0,0,0,0,0,0,0,0,0],"id":67,"left_children":[1,-1,3,5,7,-1,-1,-1,-1],"loss_changes":[5.9007686E-1,0E0,9.093859E-1,2.5257108E0,2.2324536E0,0E0,0E0,0E0,0E0],"parents":[2147483647,0,0,2,2,3,3,4,4],"right_children":[2,-1,4,6,8,-1,-1,-1,-1],"split_conditions":[2E0,4.399288E-2,1.7E1,1.4E1,1.8E1,2.9762764E-3,-7.020173E-2,9.053196E-2,1.7855999E-3],"split_indices":[1,0,1,1,1,0,0,0,0],"split_type":[0,0,0,0,0,0,0,0,0],"sum_hessian":[3.7E1,1E0,3.6E1,1.5E1,2.1E1,1.2E1,3E0,1E0,2E1],"tree_param":{"num_deleted":"0","num_feature":"4","num_nodes":"9","size_leaf_vector":"1"}},{"base_weights":[2.1317272E-2,4.223316E-2,-6.642506E-3,-1.9225611E-1,1.1469864E-1,2.7564797E-3,-8.884719E-2,-5.859515E-3,3.321536E-2],"categories":[],"categories_nodes":[],"categories_segments":[],"categories_sizes":[],"default_left":[0,0,0,0,0,0,0,0,0],"id":68,"left_children":[1,-1,3,5,7,-1,-1,-1,-1],"loss_changes":[5.4175186E-1,0E0,8.5538644E-1,3.1612272E0,1.3293467E0,0E0,0E0,0E0,0E0],"parents":[2147483647,0,0,2,2,3,3,4,4],"right_children":[2,-1,4,6,8,-1,-1,-1,-1],"split_conditions":[2E0,4.223316E-2,1.6E1,1.4E1,6E0,2.7564797E-3,-8.884719E-2,-5.859515E-3,3.321536E-2],"split_indices":[1,0,1,1,2,0,0,0,0],"split_type":[0,0,0,0,0,0,0,0,0],"sum_hessian":[3.7E1,1E0,3.6E1,1.4E1,2.2E1,1.2E1,2E0,1.4E1,8E0],"tree_param":{"num_deleted":"0","num_feature":"4","num_nodes":"9","size_leaf_vector":"1"}},{"base_weights":[1.9177757E-2,-5.705429E-2,2.1147953E-1,-1.2789847E-1,7.4229546E-2,5.479833E-1,-5.1439786E-1,4.432873E-3,-7.564335E-2,-6.561514E-2,6.8848506E-2,-7.784632E-2,3.4465827E-2],"categories":[],"categories_nodes":[],"categories_segments":[],"categories_sizes":[],"default_left":[0,0,0,0,0,0,0,0,0,0,0,0,0],"id":69,"left_children":[1,3,5,7,-1,9,11,-1,-1,-1,-1,-1,-1],"loss_changes":[5.6912905E-1,2.0724041E0,2.9687467E0,4.0992002E0,0E0,4.1276393E0,2.1534443E0,0E0,0E0,0E0,0E0,0E0,0E0],"parents":[2147483647,0,0,1,1,2,2,3,3,5,5,6,6],"right_children":[2,4,6,8,-1,10,12,-1,-1,-1,-1,-1,-1],"split_conditions":[5E0,2.9E1,2.4E1,4E0,7.4229546E-2,7E0,3.1E1,4.432873E-3,-7.564335E-2,-6.561514E-2,6.8848506E-2,-7.784632E-2,3.4465827E-2],"split_indices":[0,1,1,0,0,1,1,0,0,0,0,0,0],"split_type":[0,0,0,0,0,0,0,0,0,0,0,0,0],"sum_hessian":[3.7E1,2.7E1,1E1,2.6E1,1E0,7E0,3E0,2.2E1,4E0,1E0,6E0,2E0,1E0],"tree_param":{"num_deleted":"0","num_feature":"4","num_nodes":"13","size_leaf_vector":"1"}},{"base_weights":[1.6666614E-2,-9.50829E-2,1.334205E-1,1.0515662E-1,-4.8197868E-1,-5.2474637E-2,4.3595124E-2,-9.639869E-3,1.2154686E-1,-2.7503204E-4,-8.951096E-2,-2.7694823E-2,7.970253E-3],"categories":[],"categories_nodes":[],"categories_segments":[],"categories_sizes":[],"default_left":[0,0,0,0,0,0,0,0,0,0,0,0,0],"id":70,"left_children":[1,3,5,7,9,11,-1,-1,-1,-1,-1,-1,-1],"loss_changes":[5.084792E-1,1.6001198E0,1.482082E0,4.650709E0,2.1296601E0,6.5992886E-1,0E0,0E0,0E0,0E0,0E0,0E0,0E0],"parents":[2147483647,0,0,1,1,2,2,3,3,4,4,5,5],"right_children":[2,4,6,8,10,12,-1,-1,-1,-1,-1,-1,-1],"split_conditions":[1.9E1,1.4E1,6E0,1.3E1,3E0,2.3E1,4.3595124E-2,-9.639869E-3,1.2154686E-1,-2.7503204E-4,-8.951096E-2,-2.7694823E-2,7.970253E-3],"split_indices":[1,1,2,1,0,1,0,0,0,0,0,0,0],"split_type":[0,0,0,0,0,0,0,0,0,0,0,0,0],"sum_hessian":[3.7E1,1.9E1,1.8E1,1.3E1,6E0,1.3E1,5E0,1.2E1,1E0,4E0,2E0,4E0,9E0],"tree_param":{"num_deleted":"0","num_feature":"4","num_nodes":"13","size_leaf_vector":"1"}},{"base_weights":[1.6543701E-2,4.0752105E-2,-1.0544377E-2,-1.7933671E-1,9.999603E-2,2.753971E-3,-8.366855E-2,5.680822E-2,6.4609706E-4],"categories":[],"categories_nodes":[],"categories_segments":[],"categories_sizes":[],"default_left":[0,0,0,0,0,0,0,0,0],"id":71,"left_children":[1,-1,3,5,7,-1,-1,-1,-1],"loss_changes":[5.1269287E-1,0E0,7.082928E-1,2.8144312E0,1.2841256E0,0E0,0E0,0E0,0E0],"parents":[2147483647,0,0,2,2,3,3,4,4],"right_children":[2,-1,4,6,8,-1,-1,-1,-1],"split_conditions":[2E0,4.0752105E-2,1.6E1,1.4E1,1.8E1,2.753971E-3,-8.366855E-2,5.680822E-2,6.4609706E-4],"split_indices":[1,0,1,1,1,0,0,0,0],"split_type":[0,0,0,0,0,0,0,0,0],"sum_hessian":[3.7E1,1E0,3.6E1,1.4E1,2.2E1,1.2E1,2E0,2E0,2E1],"tree_param":{"num_deleted":"0","num_feature":"4","num_nodes":"9","size_leaf_vector":"1"}},{"base_weights":[1.5675532E-2,3.9122008E-2,-1.0334595E-2,-2.0832498E-1,8.144307E-2,1.4082813E-2,-6.25309E-2,1.1657482E-1,-2.549922E-3],"categories":[],"categories_nodes":[],"categories_segments":[],"categories_sizes":[],"default_left":[0,0,0,0,0,0,0,0,0],"id":72,"left_children":[1,-1,3,5,7,-1,-1,-1,-1],"loss_changes":[4.729054E-1,0E0,6.892972E-1,2.7818913E0,4.0997195E0,0E0,0E0,0E0,0E0],"parents":[2147483647,0,0,2,2,3,3,4,4],"right_children":[2,-1,4,6,8,-1,-1,-1,-1],"split_conditions":[2E0,3.9122008E-2,1.3E1,4E0,1.4E1,1.4082813E-2,-6.25309E-2,1.1657482E-1,-2.549922E-3],"split_indices":[1,0,1,0,1,0,0,0,0],"split_type":[0,0,0,0,0,0,0,0,0],"sum_hessian":[3.7E1,1E0,3.6E1,1.1E1,2.5E1,7E0,4E0,1E0,2.4E1],"tree_param":{"num_deleted":"0","num_feature":"4","num_nodes":"9","size_leaf_vector":"1"}},{"base_weights":[1.717656E-2,7.573326E-2,-1.7992094E-1,-2.6901033E-2,1.0084089E0,-4.485682E-1,2.6803017E-1,3.392094E-3,-4.9484253E-2,1.8569794E-2,1.0243927E-1,1.5726827E-2,-6.56233E-2,7.101776E-2,-1.8755289E-2],"categories":[],"categories_nodes":[],"categories_segments":[],"categories_sizes":[],"default_left":[0,0,0,0,0,0,0,0,0,0,0,0,0,0,0],"id":73,"left_children":[1,3,5,7,9,11,13,-1,-1,-1,-1,-1,-1,-1,-1],"loss_changes":[4.5219836E-1,2.8988621E0,1.2032973E0,1.1743058E0,3.3641028E-1,1.6001681E0,1.453628E0,0E0,0E0,0E0,0E0,0E0,0E0,0E0,0E0],"parents":[2147483647,0,0,1,1,2,2,3,3,4,4,5,5,6,6],"right_children":[2,4,6,8,10,12,14,-1,-1,-1,-1,-1,-1,-1,-1],"split_conditions":[2.4E1,2.3E1,2.9E1,2.2E1,2E0,2E0,5E0,3.392094E-3,-4.9484253E-2,1.8569794E-2,1.0243927E-1,1.5726827E-2,-6.56233E-2,7.101776E-2,-1.8755289E-2],"split_indices":[1,1,1,1,0,0,0,0,0,0,0,0,0,0,0],"split_type":[0,0,0,0,0,0,0,0,0,0,0,0,0,0,0],"sum_hessian":[3.7E1,2.9E1,8E0,2.7E1,2E0,5E0,3E0,2.5E1,2E0,1E0,1E0,2E0,3E0,1E0,2E0],"tree_param":{"num_deleted":"0","num_feature":"4","num_nodes":"15","size_leaf_vector":"1"}},{"base_weights":[1.7836154E-2,-9.010433E-2,1.3051896E-1,2.1519847E-2,-7.298146E-1,3.606583E-1,-1.6526455E-1,-7.954755E-3,8.31097E-2,-1.05945775E-2,-7.698317E-2,9.449098E-3,7.7445805E-2,-3.367991E-2,2.0772247E-2],"categories":[],"categories_nodes":[],"categories_segments":[],"categories_sizes":[],"default_left":[0,0,0,0,0,0,0,0,0,0,0,0,0,0,0],"id":74,"left_children":[1,3,5,7,9,11,13,-1,-1,-1,-1,-1,-1,-1,-1],"loss_changes":[4.7395572E-1,1.443848E0,1.352961E0,2.3182538E0,2.8919125E-1,1.5062329E0,1.087308E0,0E0,0E0,0E0,0E0,0E0,0E0,0E0,0E0],"parents":[2147483647,0,0,1,1,2,2,3,3,4,4,5,5,6,6],"right_children":[2,4,6,8,10,12,14,-1,-1,-1,-1,-1,-1,-1,-1],"split_conditions":[1.9E1,1.8E1,2.4E1,1.7E1,1E0,2.3E1,2.9E1,-7.954755E-3,8.31097E-2,-1.05945775E-2,-7.698317E-2,9.449098E-3,7.7445805E-2,-3.367991E-2,2.0772247E-2],"split_indices":[1,1,1,1,0,1,1,0,0,0,0,0,0,0,0],"split_type":[0,0,0,0,0,0,0,0,0,0,0,0,0,0,0],"sum_hessian":[3.7E1,1.9E1,1.8E1,1.7E1,2E0,1E1,8E0,1.6E1,1E0,1E0,1E0,8E0,2E0,5E0,3E0],"tree_param":{"num_deleted":"0","num_feature":"4","num_nodes":"15","size_leaf_vector":"1"}},{"base_weights":[1.8029341E-2,3.773964E-2,-6.9831354E-3,-1.3757032E-1,1.2397159E-1,-2.4092707E-3,-5.604976E-2,-3.492677E-3,3.9555714E-2],"categories":[],"categories_nodes":[],"categories_segments":[],"categories_sizes":[],"default_left":[0,0,0,0,0,0,0,0,0],"id":75,"left_children":[1,-1,3,5,7,-1,-1,-1,-1],"loss_changes":[4.345397E-1,0E0,6.4979213E-1,1.1284459E0,1.2015383E0,0E0,0E0,0E0,0E0],"parents":[2147483647,0,0,2,2,3,3,4,4],"right_children":[2,-1,4,6,8,-1,-1,-1,-1],"split_conditions":[2E0,3.773964E-2,1.9E1,1.8E1,6E0,-2.4092707E-3,-5.604976E-2,-3.492677E-3,3.9555714E-2],"split_indices":[1,0,1,1,2,0,0,0,0],"split_type":[0,0,0,0,0,0,0,0,0],"sum_hessian":[3.7E1,1E0,3.6E1,1.8E1,1.8E1,1.6E1,2E0,1.3E1,5E0],"tree_param":{"num_deleted":"0","num_feature":"4","num_nodes":"9","size_leaf_vector":"1"}},{"base_weights":[1.6990725E-2,3.623005E-2,-7.02983E-3,-1.5440416E-1,1.0047104E-1,3.2805868E-3,-6.0071237E-2,7.988167E-2,8.1265223E-4],"categories":[],"categories_nodes":[],"categories_segments":[],"categories_sizes":[],"default_left":[0,0,0,0,0,0,0,0,0],"id":76,"left_children":[1,-1,3,5,7,-1,-1,-1,-1],"loss_changes":[4.010511E-1,0E0,6.016993E-1,1.8957566E0,1.7741773E0,0E0,0E0,0E0,0E0],"parents":[2147483647,0,0,2,2,3,3,4,4],"right_children":[2,-1,4,6,8,-1,-1,-1,-1],"split_conditions":[2E0,3.623005E-2,1.7E1,1.4E1,1.8E1,3.2805868E-3,-6.0071237E-2,7.988167E-2,8.1265223E-4],"split_indices":[1,0,1,1,1,0,0,0,0],"split_type":[0,0,0,0,0,0,0,0,0],"sum_hessian":[3.7E1,1E0,3.6E1,1.5E1,2.1E1,1.2E1,3E0,1E0,2E1],"tree_param":{"num_deleted":"0","num_feature":"4","num_nodes":"9","size_leaf_vector":"1"}},{"base_weights":[1.7213969E-2,-4.6776604E-2,1.7853417E-1,-1.1096588E-1,6.745335E-2,4.7689092E-1,-4.628129E-1,4.540619E-3,-6.8824105E-2,-6.0066205E-2,6.076323E-2,-7.128077E-2,3.2871094E-2],"categories":[],"categories_nodes":[],"categories_segments":[],"categories_sizes":[],"default_left":[0,0,0,0,0,0,0,0,0,0,0,0,0],"id":77,"left_children":[1,3,5,7,-1,9,11,-1,-1,-1,-1,-1,-1],"loss_changes":[4.0062413E-1,1.6930575E0,2.325564E0,3.442222E0,0E0,3.3463948E0,1.8625705E0,0E0,0E0,0E0,0E0,0E0,0E0],"parents":[2147483647,0,0,1,1,2,2,3,3,5,5,6,6],"right_children":[2,4,6,8,-1,10,12,-1,-1,-1,-1,-1,-1],"split_conditions":[5E0,2.9E1,2.4E1,4E0,6.745335E-2,7E0,3.1E1,4.540619E-3,-6.8824105E-2,-6.0066205E-2,6.076323E-2,-7.128077E-2,3.2871094E-2],"split_indices":[0,1,1,0,0,1,1,0,0,0,0,0,0],"split_type":[0,0,0,0,0,0,0,0,0,0,0,0,0],"sum_hessian":[3.7E1,2.7E1,1E1,2.6E1,1E0,7E0,3E0,2.2E1,4E0,1E0,6E0,2E0,1E0],"tree_param":{"num_deleted":"0","num_feature":"4","num_nodes":"13","size_leaf_vector":"1"}},{"base_weights":[1.4927896E-2,3.4599226E-2,-8.046505E-3,-1.2857442E-1,1.129049E-1,-2.0820752E-3,-5.334594E-2,2.5316197E-2,-1.18736345E-2],"categories":[],"categories_nodes":[],"categories_segments":[],"categories_sizes":[],"default_left":[0,0,0,0,0,0,0,0,0],"id":78,"left_children":[1,-1,3,5,7,-1,-1,-1,-1],"loss_changes":[3.680234E-1,0E0,5.539034E-1,1.0313824E0,1.0576186E0,0E0,0E0,0E0,0E0],"parents":[2147483647,0,0,2,2,3,3,4,4],"right_children":[2,-1,4,6,8,-1,-1,-1,-1],"split_conditions":[2E0,3.4599226E-2,1.9E1,1.8E1,2.4E1,-2.0820752E-3,-5.334594E-2,2.5316197E-2,-1.18736345E-2],"split_indices":[1,0,1,1,1,0,0,0,0],"split_type":[0,0,0,0,0,0,0,0,0],"sum_hessian":[3.7E1,1E0,3.6E1,1.8E1,1.8E1,1.6E1,2E0,1E1,8E0],"tree_param":{"num_deleted":"0","num_feature":"4","num_nodes":"9","size_leaf_vector":"1"}},{"base_weights":[1.3539365E-2,2.582926E-1,-2.2851972E-2,-4.0925663E-2,3.7713062E-2,-4.893093E-2,3.3060715E-2,3.3215255E-2,-3.8126335E-2,-7.369099E-3,2.541247E-2],"categories":[],"categories_nodes":[],"categories_segments":[],"categories_sizes":[],"default_left":[0,0,0,0,0,0,0,0,0,0,0],"id":79,"left_children":[1,3,5,7,-1,-1,9,-1,-1,-1,-1],"loss_changes":[3.4436458E-1,3.3814093E-1,1.1395192E0,7.9399735E-1,0E0,0E0,1.1692299E0,0E0,0E0,0E0,0E0],"parents":[2147483647,0,0,1,1,2,2,3,3,6,6],"right_children":[2,4,6,8,-1,-1,10,-1,-1,-1,-1],"split_conditions":[5E0,2E0,7E0,1E0,3.7713062E-2,-4.893093E-2,5E0,3.3215255E-2,-3.8126335E-2,-7.369099E-3,2.541247E-2],"split_indices":[1,0,1,0,0,0,0,0,0,0,0],"split_type":[0,0,0,0,0,0,0,0,0,0,0],"sum_hessian":[3.7E1,4E0,3.3E1,2E0,2E0,2E0,3.1E1,1E0,1E0,2.2E1,9E0],"tree_param":{"num_deleted":"0","num_feature":"4","num_nodes":"11","size_leaf_vector":"1"}},{"base_weights":[1.250656E-2,3.1886633E-2,-8.700448E-3,-1.5336895E-1,8.6026855E-2,3.7519806E-3,-7.7606164E-2,5.1591467E-2,1.6738164E-4],"categories":[],"categories_nodes":[],"categories_segments":[],"categories_sizes":[],"default_left":[0,0,0,0,0,0,0,0,0],"id":80,"left_children":[1,-1,3,5,7,-1,-1,-1,-1],"loss_changes":[3.145938E-1,0E0,5.20244E-1,2.4989128E0,1.0775398E0,0E0,0E0,0E0,0E0],"parents":[2147483647,0,0,2,2,3,3,4,4],"right_children":[2,-1,4,6,8,-1,-1,-1,-1],"split_conditions":[2E0,3.1886633E-2,1.6E1,1.4E1,1.8E1,3.7519806E-3,-7.7606164E-2,5.1591467E-2,1.6738164E-4],"split_indices":[1,0,1,1,1,0,0,0,0],"split_type":[0,0,0,0,0,0,0,0,0],"sum_hessian":[3.7E1,1E0,3.6E1,1.4E1,2.2E1,1.2E1,2E0,2E0,2E1],"tree_param":{"num_deleted":"0","num_feature":"4","num_nodes":"9","size_leaf_vector":"1"}},{"base_weights":[1.1763522E-2,-8.869867E-3,3.1007957E-2,3.1611577E-2,-5.864807E-2,-1.1427155E-3,6.5518185E-2],"categories":[],"categories_nodes":[],"categories_segments":[],"categories_sizes":[],"default_left":[0,0,0,0,0,0,0],"id":81,"left_children":[1,3,-1,5,-1,-1,-1],"loss_changes":[2.981192E-1,1.1079373E0,0E0,1.3126144E0,0E0,0E0,0E0],"parents":[2147483647,0,0,1,1,3,3],"right_children":[2,4,-1,6,-1,-1,-1],"split_conditions":[3.1E1,3E1,3.1007957E-2,2.9E1,-5.864807E-2,-1.1427155E-3,6.5518185E-2],"split_indices":[1,1,0,1,0,0,0],"split_type":[0,0,0,0,0,0,0],"sum_hessian":[3.7E1,3.6E1,1E0,3.5E1,1E0,3.4E1,1E0],"tree_param":{"num_deleted":"0","num_feature":"4","num_nodes":"7","size_leaf_vector":"1"}},{"base_weights":[1.1789228E-2,-4.3264482E-2,1.508542E-1,-1.03105254E-1,6.289745E-2,4.266621E-1,-4.3847513E-1,4.247175E-3,-6.407847E-2,-5.5727404E-2,5.493122E-2,-6.6615775E-2,2.9767646E-2],"categories":[],"categories_nodes":[],"categories_segments":[],"categories_sizes":[],"default_left":[0,0,0,0,0,0,0,0,0,0,0,0,0],"id":82,"left_children":[1,3,5,7,-1,9,11,-1,-1,-1,-1,-1,-1],"loss_changes":[2.9745623E-1,1.470896E0,1.9750392E0,2.9856496E0,0E0,2.814482E0,1.5880227E0,0E0,0E0,0E0,0E0,0E0,0E0],"parents":[2147483647,0,0,1,1,2,2,3,3,5,5,6,6],"right_children":[2,4,6,8,-1,10,12,-1,-1,-1,-1,-1,-1],"split_conditions":[5E0,2.9E1,2.4E1,4E0,6.289745E-2,7E0,3.1E1,4.247175E-3,-6.407847E-2,-5.5727404E-2,5.493122E-2,-6.6615775E-2,2.9767646E-2],"split_indices":[0,1,1,0,0,1,1,0,0,0,0,0,0],"split_type":[0,0,0,0,0,0,0,0,0,0,0,0,0],"sum_hessian":[3.7E1,2.7E1,1E1,2.6E1,1E0,7E0,3E0,2.2E1,4E0,1E0,6E0,2E0,1E0],"tree_param":{"num_deleted":"0","num_feature":"4","num_nodes":"13","size_leaf_vector":"1"}},{"base_weights":[9.9363895E-3,3.0486984E-2,-1.0394374E-2,-1.394574E-1,8.394212E-2,3.831875E-3,-5.7079963E-2,7.4694976E-2,-7.8658144E-5],"categories":[],"categories_nodes":[],"categories_segments":[],"categories_sizes":[],"default_left":[0,0,0,0,0,0,0,0,0],"id":83,"left_children":[1,-1,3,5,7,-1,-1,-1,-1],"loss_changes":[2.9070085E-1,0E0,4.6219444E-1,1.754978E0,1.5885458E0,0E0,0E0,0E0,0E0],"parents":[2147483647,0,0,2,2,3,3,4,4],"right_children":[2,-1,4,6,8,-1,-1,-1,-1],"split_conditions":[2E0,3.0486984E-2,1.7E1,1.4E1,1.8E1,3.831875E-3,-5.7079963E-2,7.4694976E-2,-7.8658144E-5],"split_indices":[1,0,1,1,1,0,0,0,0],"split_type":[0,0,0,0,0,0,0,0,0],"sum_hessian":[3.7E1,1E0,3.6E1,1.5E1,2.1E1,1.2E1,3E0,1E0,2E1],"tree_param":{"num_deleted":"0","num_feature":"4","num_nodes":"9","size_leaf_vector":"1"}},{"base_weights":[1.0506147E-2,-7.3356114E-2,9.822926E-2,9.345607E-2,-3.9650103E-1,2.868954E-1,-1.4327706E-1,-8.293134E-3,1.06240764E-1,1.0936584E-3,-7.5836286E-2,5.64671E-3,6.721585E-2,-4.5248665E-2,4.6552164E-3],"categories":[],"categories_nodes":[],"categories_segments":[],"categories_sizes":[],"default_left":[0,0,0,0,0,0,0,0,0,0,0,0,0,0,0],"id":84,"left_children":[1,3,5,7,9,11,13,-1,-1,-1,-1,-1,-1,-1,-1],"loss_changes":[2.8675875E-1,1.1151456E0,9.068228E-1,3.5446439E0,1.5962912E0,1.257239E0,7.9868627E-1,0E0,0E0,0E0,0E0,0E0,0E0,0E0,0E0],"parents":[2147483647,0,0,1,1,2,2,3,3,4,4,5,5,6,6],"right_children":[2,4,6,8,10,12,14,-1,-1,-1,-1,-1,-1,-1,-1],"split_conditions":[1.9E1,1.4E1,2.4E1,1.3E1,3E0,2.3E1,2.6E1,-8.293134E-3,1.06240764E-1,1.0936584E-3,-7.5836286E-2,5.64671E-3,6.721585E-2,-4.5248665E-2,4.6552164E-3],"split_indices":[1,1,1,1,0,1,1,0,0,0,0,0,0,0,0],"split_type":[0,0,0,0,0,0,0,0,0,0,0,0,0,0,0],"sum_hessian":[3.7E1,1.9E1,1.8E1,1.3E1,6E0,1E1,8E0,1.2E1,1E0,4E0,2E0,8E0,2E0,2E0,6E0],"tree_param":{"num_deleted":"0","num_feature":"4","num_nodes":"15","size_leaf_vector":"1"}},{"base_weights":[1.1125649E-2,2.3131561E-1,-2.1582453E-2,-5.914879E-2,3.5573985E-2,-5.378459E-1,2.74917E-2,2.9599227E-2,-3.6697082E-2,-1.1221657E-2,-5.3319853E-2,-6.7197573E-3,2.2493316E-2],"categories":[],"categories_nodes":[],"categories_segments":[],"categories_sizes":[],"default_left":[0,0,0,0,0,0,0,0,0,0,0,0,0],"id":85,"left_children":[1,3,5,7,-1,9,11,-1,-1,-1,-1,-1,-1],"loss_changes":[2.786682E-1,3.3616823E-1,8.761829E-1,6.841262E-1,0E0,5.995667E-2,9.286366E-1,0E0,0E0,0E0,0E0,0E0,0E0],"parents":[2147483647,0,0,1,1,2,2,3,3,5,5,6,6],"right_children":[2,4,6,8,-1,10,12,-1,-1,-1,-1,-1,-1],"split_conditions":[5E0,2E0,7E0,1E0,3.5573985E-2,5E0,5E0,2.9599227E-2,-3.6697082E-2,-1.1221657E-2,-5.3319853E-2,-6.7197573E-3,2.2493316E-2],"split_indices":[1,0,1,0,0,0,0,0,0,0,0,0,0],"split_type":[0,0,0,0,0,0,0,0,0,0,0,0,0],"sum_hessian":[3.7E1,4E0,3.3E1,2E0,2E0,2E0,3.1E1,1E0,1E0,1E0,1E0,2.2E1,9E0],"tree_param":{"num_deleted":"0","num_feature":"4","num_nodes":"13","size_leaf_vector":"1"}},{"base_weights":[9.701779E-3,5.431582E-2,-1.4008968E-1,-2.646133E-2,7.901306E-1,-3.48639E-1,2.0775676E-1,3.0150015E-3,-4.588781E-2,9.667816E-3,8.514786E-2,1.8881887E-2,-5.5998094E-2,6.046726E-2,-1.8150788E-2],"categories":[],"categories_nodes":[],"categories_segments":[],"categories_sizes":[],"default_left":[0,0,0,0,0,0,0,0,0,0,0,0,0,0,0],"id":86,"left_children":[1,3,5,7,9,11,13,-1,-1,-1,-1,-1,-1,-1,-1],"loss_changes":[2.6155558E-1,1.8040186E0,7.253204E-1,1.004366E0,4.2196357E-1,1.3976932E0,1.1243691E0,0E0,0E0,0E0,0E0,0E0,0E0,0E0,0E0],"parents":[2147483647,0,0,1,1,2,2,3,3,4,4,5,5,6,6],"right_children":[2,4,6,8,10,12,14,-1,-1,-1,-1,-1,-1,-1,-1],"split_conditions":[2.4E1,2.3E1,2.9E1,2.2E1,2E0,2E0,5E0,3.0150015E-3,-4.588781E-2,9.667816E-3,8.514786E-2,1.8881887E-2,-5.5998094E-2,6.046726E-2,-1.8150788E-2],"split_indices":[1,1,1,1,0,0,0,0,0,0,0,0,0,0,0],"split_type":[0,0,0,0,0,0,0,0,0,0,0,0,0,0,0],"sum_hessian":[3.7E1,2.9E1,8E0,2.7E1,2E0,5E0,3E0,2.5E1,2E0,1E0,1E0,2E0,3E0,1E0,2E0],"tree_param":{"num_deleted":"0","num_feature":"4","num_nodes":"15","size_leaf_vector":"1"}},{"base_weights":[1.0429671E-2,-6.918101E-2,9.368146E-2,8.9398146E-2,-3.7645632E-1,-4.5099635E-2,4.0189043E-1,-7.831975E-3,1.009708E-1,1.260765E-3,-7.237312E-2,-2.4323195E-2,7.1104392E-3,4.007301E-2,1.0871786E-2],"categories":[],"categories_nodes":[],"categories_segments":[],"categories_sizes":[],"default_left":[0,0,0,0,0,0,0,0,0,0,0,0,0,0,0],"id":87,"left_children":[1,3,5,7,9,11,13,-1,-1,-1,-1,-1,-1,-1,-1],"loss_changes":[2.583348E-1,1.0082036E0,8.308231E-1,3.1986778E0,1.4644573E0,5.1272315E-1,8.996266E-2,0E0,0E0,0E0,0E0,0E0,0E0,0E0,0E0],"parents":[2147483647,0,0,1,1,2,2,3,3,4,4,5,5,6,6],"right_children":[2,4,6,8,10,12,14,-1,-1,-1,-1,-1,-1,-1,-1],"split_conditions":[1.9E1,1.4E1,6E0,1.3E1,3E0,2.3E1,5E0,-7.831975E-3,1.009708E-1,1.260765E-3,-7.237312E-2,-2.4323195E-2,7.1104392E-3,4.007301E-2,1.0871786E-2],"split_indices":[1,1,2,1,0,1,0,0,0,0,0,0,0,0,0],"split_type":[0,0,0,0,0,0,0,0,0,0,0,0,0,0,0],"sum_hessian":[3.7E1,1.9E1,1.8E1,1.3E1,6E0,1.3E1,5E0,1.2E1,1E0,4E0,2E0,4E0,9E0,3E0,2E0],"tree_param":{"num_deleted":"0","num_feature":"4","num_nodes":"15","size_leaf_vector":"1"}},{"base_weights":[1.1062478E-2,2.2235927E-1,-2.0335948E-2,-5.3571384E-2,3.3933613E-2,-5.1312065E-1,2.6498117E-2,2.860794E-2,-3.5036504E-2,-1.0580101E-2,-5.0994378E-2,4.2874504E-2,-2.0262774E-3],"categories":[],"categories_nodes":[],"categories_segments":[],"categories_sizes":[],"default_left":[0,0,0,0,0,0,0,0,0,0,0,0,0],"id":88,"left_children":[1,3,5,7,-1,9,11,-1,-1,-1,-1,-1,-1],"loss_changes":[2.5662857E-1,3.0115244E-1,7.982865E-1,6.307563E-1,0E0,5.7735622E-2,8.584441E-1,0E0,0E0,0E0,0E0,0E0,0E0],"parents":[2147483647,0,0,1,1,2,2,3,3,5,5,6,6],"right_children":[2,4,6,8,-1,10,12,-1,-1,-1,-1,-1,-1],"split_conditions":[5E0,2E0,7E0,1E0,3.3933613E-2,5E0,9E0,2.860794E-2,-3.5036504E-2,-1.0580101E-2,-5.0994378E-2,4.2874504E-2,-2.0262774E-3],"split_indices":[1,0,1,0,0,0,1,0,0,0,0,0,0],"split_type":[0,0,0,0,0,0,0,0,0,0,0,0,0],"sum_hessian":[3.7E1,4E0,3.3E1,2E0,2E0,2E0,3.1E1,1E0,1E0,1E0,1E0,2E0,2.9E1],"tree_param":{"num_deleted":"0","num_feature":"4","num_nodes":"13","size_leaf_vector":"1"}},{"base_weights":[1.0355887E-2,-8.753413E-2,7.8003034E-2,8.350726E-2,-6.8523936E-2,6.048091E-1,-9.6940994E-4,-7.7306074E-3,9.701301E-2,7.348251E-4,7.184227E-2,-4.6083007E-2,7.1905474E-3],"categories":[],"categories_nodes":[],"categories_segments":[],"categories_sizes":[],"default_left":[0,0,0,0,0,0,0,0,0,0,0,0,0],"id":89,"left_children":[1,3,5,7,-1,9,11,-1,-1,-1,-1,-1,-1],"loss_changes":[2.5846317E-1,2.176063E0,9.574591E-1,2.9648652E0,0E0,5.156964E-1,1.1489342E0,0E0,0E0,0E0,0E0,0E0,0E0],"parents":[2147483647,0,0,1,1,2,2,3,3,5,5,6,6],"right_children":[2,4,6,8,-1,10,12,-1,-1,-1,-1,-1,-1],"split_conditions":[1.6E1,1.4E1,1.8E1,1.3E1,-6.8523936E-2,2E0,1.9E1,-7.7306074E-3,9.701301E-2,7.348251E-4,7.184227E-2,-4.6083007E-2,7.1905474E-3],"split_indices":[1,1,1,1,0,0,1,0,0,0,0,0,0],"split_type":[0,0,0,0,0,0,0,0,0,0,0,0,0],"sum_hessian":[3.7E1,1.5E1,2.2E1,1.3E1,2E0,2E0,2E1,1.2E1,1E0,1E0,1E0,2E0,1.8E1],"tree_param":{"num_deleted":"0","num_feature":"4","num_nodes":"13","size_leaf_vector":"1"}},{"base_weights":[1.09600015E-2,5.5647407E-2,-1.3921578E-1,-1.9594362E-2,7.393548E-1,-4.2920914E-2,5.094174E-2,1.0211704E-2,-2.0700186E-2,7.4716187E-3,8.125095E-2,5.1917076E-2,-1.255113E-2],"categories":[],"categories_nodes":[],"categories_segments":[],"categories_sizes":[],"default_left":[0,0,0,0,0,0,0,0,0,0,0,0,0],"id":90,"left_children":[1,3,5,7,9,-1,11,-1,-1,-1,-1,-1,-1],"loss_changes":[2.627637E-1,1.5577878E0,7.0726955E-1,1.0190147E0,4.4054556E-1,0E0,9.718269E-1,0E0,0E0,0E0,0E0,0E0,0E0],"parents":[2147483647,0,0,1,1,2,2,3,3,4,4,6,6],"right_children":[2,4,6,8,10,-1,12,-1,-1,-1,-1,-1,-1],"split_conditions":[2.4E1,2.3E1,2.6E1,4E0,2E0,-4.2920914E-2,2E0,1.0211704E-2,-2.0700186E-2,7.4716187E-3,8.125095E-2,5.1917076E-2,-1.255113E-2],"split_indices":[1,1,1,0,0,0,0,0,0,0,0,0,0],"split_type":[0,0,0,0,0,0,0,0,0,0,0,0,0],"sum_hessian":[3.7E1,2.9E1,8E0,2.7E1,2E0,2E0,6E0,1.7E1,1E1,1E0,1E0,1E0,5E0],"tree_param":{"num_deleted":"0","num_feature":"4","num_nodes":"13","size_leaf_vector":"1"}},{"base_weights":[1.2048213E-2,-6.7012953E-3,2.82312E-2,3.0600913E-2,-5.398323E-2,-7.996744E-4,5.8059614E-2],"categories":[],"categories_nodes":[],"categories_segments":[],"categories_sizes":[],"default_left":[0,0,0,0,0,0,0],"id":91,"left_children":[1,3,-1,5,-1,-1,-1],"loss_changes":[2.4520826E-1,9.4273347E-1,0E0,1.0231984E0,0E0,0E0,0E0],"parents":[2147483647,0,0,1,1,3,3],"right_children":[2,4,-1,6,-1,-1,-1],"split_conditions":[3.1E1,3E1,2.82312E-2,2.9E1,-5.398323E-2,-7.996744E-4,5.8059614E-2],"split_indices":[1,1,0,1,0,0,0],"split_type":[0,0,0,0,0,0,0],"sum_hessian":[3.7E1,3.6E1,1E0,3.5E1,1E0,3.4E1,1E0],"tree_param":{"num_deleted":"0","num_feature":"4","num_nodes":"7","size_leaf_vector":"1"}},{"base_weights":[1.1913958E-2,5.4576613E-2,-1.3161866E-1,-1.763011E-2,7.103138E-1,-3.2665834E-1,1.9384551E-1,3.5365054E-3,-4.3813527E-2,7.204742E-3,7.803291E-2,1.7022984E-2,-5.1966235E-2,5.5737227E-2,-1.6481297E-2],"categories":[],"categories_nodes":[],"categories_segments":[],"categories_sizes":[],"default_left":[0,0,0,0,0,0,0,0,0,0,0,0,0,0,0],"id":92,"left_children":[1,3,5,7,9,11,13,-1,-1,-1,-1,-1,-1,-1,-1],"loss_changes":[2.3987563E-1,1.4329818E0,6.3462704E-1,9.419305E-1,4.0543914E-1,1.1834074E0,9.478483E-1,0E0,0E0,0E0,0E0,0E0,0E0,0E0,0E0],"parents":[2147483647,0,0,1,1,2,2,3,3,4,4,5,5,6,6],"right_children":[2,4,6,8,10,12,14,-1,-1,-1,-1,-1,-1,-1,-1],"split_conditions":[2.4E1,2.3E1,2.9E1,2.2E1,2E0,2E0,5E0,3.5365054E-3,-4.3813527E-2,7.204742E-3,7.803291E-2,1.7022984E-2,-5.1966235E-2,5.5737227E-2,-1.6481297E-2],"split_indices":[1,1,1,1,0,0,0,0,0,0,0,0,0,0,0],"split_type":[0,0,0,0,0,0,0,0,0,0,0,0,0,0,0],"sum_hessian":[3.7E1,2.9E1,8E0,2.7E1,2E0,5E0,3E0,2.5E1,2E0,1E0,1E0,2E0,3E0,1E0,2E0],"tree_param":{"num_deleted":"0","num_feature":"4","num_nodes":"15","size_leaf_vector":"1"}},{"base_weights":[1.2257576E-2,-6.1687008E-3,2.7761191E-2,2.9190937E-2,-5.1164627E-2,-6.555873E-4,5.3507727E-2],"categories":[],"categories_nodes":[],"categories_segments":[],"categories_sizes":[],"default_left":[0,0,0,0,0,0,0],"id":93,"left_children":[1,3,-1,5,-1,-1,-1],"loss_changes":[2.3653722E-1,8.473365E-1,0E0,8.66386E-1,0E0,0E0,0E0],"parents":[2147483647,0,0,1,1,3,3],"right_children":[2,4,-1,6,-1,-1,-1],"split_conditions":[3.1E1,3E1,2.7761191E-2,2.9E1,-5.1164627E-2,-6.555873E-4,5.3507727E-2],"split_indices":[1,1,0,1,0,0,0],"split_type":[0,0,0,0,0,0,0],"sum_hessian":[3.7E1,3.6E1,1E0,3.5E1,1E0,3.4E1,1E0],"tree_param":{"num_deleted":"0","num_feature":"4","num_nodes":"7","size_leaf_vector":"1"}},{"base_weights":[1.2051768E-2,2.7281113E-2,-6.055693E-3,-1.5577944E-1,6.3280486E-2,1.2183237E-2,-4.9402833E-2,9.3877256E-2,-2.245244E-3],"categories":[],"categories_nodes":[],"categories_segments":[],"categories_sizes":[],"default_left":[0,0,0,0,0,0,0,0,0],"id":94,"left_children":[1,-1,3,5,7,-1,-1,-1,-1],"loss_changes":[2.284185E-1,0E0,3.939649E-1,1.8010821E0,2.6696205E0,0E0,0E0,0E0,0E0],"parents":[2147483647,0,0,2,2,3,3,4,4],"right_children":[2,-1,4,6,8,-1,-1,-1,-1],"split_conditions":[2E0,2.7281113E-2,1.3E1,4E0,1.4E1,1.2183237E-2,-4.9402833E-2,9.3877256E-2,-2.245244E-3],"split_indices":[1,0,1,0,1,0,0,0,0],"split_type":[0,0,0,0,0,0,0,0,0],"sum_hessian":[3.7E1,1E0,3.6E1,1.1E1,2.5E1,7E0,4E0,1E0,2.4E1],"tree_param":{"num_deleted":"0","num_feature":"4","num_nodes":"9","size_leaf_vector":"1"}},{"base_weights":[1.3237593E-2,-7.943788E-2,7.713194E-2,8.219838E-2,-6.4580895E-2,5.7391804E-1,2.4895498E-3,-6.7832447E-3,9.0122186E-2,3.034973E-4,6.8566665E-2,-4.416112E-2,7.192937E-3],"categories":[],"categories_nodes":[],"categories_segments":[],"categories_sizes":[],"default_left":[0,0,0,0,0,0,0,0,0,0,0,0,0],"id":95,"left_children":[1,3,5,7,-1,9,11,-1,-1,-1,-1,-1,-1],"loss_changes":[2.311419E-1,1.9486377E0,8.514411E-1,2.5369983E0,0E0,4.8106676E-1,1.0676264E0,0E0,0E0,0E0,0E0,0E0,0E0],"parents":[2147483647,0,0,1,1,2,2,3,3,5,5,6,6],"right_children":[2,4,6,8,-1,10,12,-1,-1,-1,-1,-1,-1],"split_conditions":[1.6E1,1.4E1,1.8E1,1.3E1,-6.4580895E-2,2E0,1.9E1,-6.7832447E-3,9.0122186E-2,3.034973E-4,6.8566665E-2,-4.416112E-2,7.192937E-3],"split_indices":[1,1,1,1,0,0,1,0,0,0,0,0,0],"split_type":[0,0,0,0,0,0,0,0,0,0,0,0,0],"sum_hessian":[3.7E1,1.5E1,2.2E1,1.3E1,2E0,2E0,2E1,1.2E1,1E0,1E0,1E0,2E0,1.8E1],"tree_param":{"num_deleted":"0","num_feature":"4","num_nodes":"13","size_leaf_vector":"1"}},{"base_weights":[1.3511692E-2,5.5511437E-2,-1.2798876E-1,-1.3277705E-2,6.7903966E-1,-3.9886232E-2,4.9119268E-2,3.6682768E-3,-4.1705754E-2,6.7448425E-3,7.473991E-2,4.9019773E-2,-1.175546E-2],"categories":[],"categories_nodes":[],"categories_segments":[],"categories_sizes":[],"default_left":[0,0,0,0,0,0,0,0,0,0,0,0,0],"id":96,"left_children":[1,3,5,7,9,-1,11,-1,-1,-1,-1,-1,-1],"loss_changes":[2.3293822E-1,1.2957752E0,6.1519855E-1,8.6505944E-1,3.7657416E-1,0E0,8.6358327E-1,0E0,0E0,0E0,0E0,0E0,0E0],"parents":[2147483647,0,0,1,1,2,2,3,3,4,4,6,6],"right_children":[2,4,6,8,10,-1,12,-1,-1,-1,-1,-1,-1],"split_conditions":[2.4E1,2.3E1,2.6E1,2.2E1,2E0,-3.9886232E-2,2E0,3.6682768E-3,-4.1705754E-2,6.7448425E-3,7.473991E-2,4.9019773E-2,-1.175546E-2],"split_indices":[1,1,1,1,0,0,0,0,0,0,0,0,0],"split_type":[0,0,0,0,0,0,0,0,0,0,0,0,0],"sum_hessian":[3.7E1,2.9E1,8E0,2.7E1,2E0,2E0,6E0,2.5E1,2E0,1E0,1E0,1E0,5E0],"tree_param":{"num_deleted":"0","num_feature":"4","num_nodes":"13","size_leaf_vector":"1"}},{"base_weights":[1.3505154E-2,-4.321076E-3,2.6923027E-2,2.9479554E-2,-4.884575E-2,-5.2509445E-4,5.163971E-2],"categories":[],"categories_nodes":[],"categories_segments":[],"categories_sizes":[],"default_left":[0,0,0,0,0,0,0],"id":97,"left_children":[1,3,-1,5,-1,-1,-1],"loss_changes":[2.2027549E-1,7.761907E-1,0E0,8.035534E-1,0E0,0E0,0E0],"parents":[2147483647,0,0,1,1,3,3],"right_children":[2,4,-1,6,-1,-1,-1],"split_conditions":[3.1E1,3E1,2.6923027E-2,2.9E1,-4.884575E-2,-5.2509445E-4,5.163971E-2],"split_indices":[1,1,0,1,0,0,0],"split_type":[0,0,0,0,0,0,0],"sum_hessian":[3.7E1,3.6E1,1E0,3.5E1,1E0,3.4E1,1E0],"tree_param":{"num_deleted":"0","num_feature":"4","num_nodes":"7","size_leaf_vector":"1"}},{"base_weights":[1.3193319E-2,2.6335524E-2,-4.2443792E-3,-3.415924E-2,1.9359417E-2,3.1424914E-2,-1.1329303E-3],"categories":[],"categories_nodes":[],"categories_segments":[],"categories_sizes":[],"default_left":[0,0,0,0,0,0,0],"id":98,"left_children":[1,-1,3,-1,5,-1,-1],"loss_changes":[2.1078959E-1,0E0,3.7746757E-1,0E0,4.5622894E-1,0E0,0E0],"parents":[2147483647,0,0,2,2,4,4],"right_children":[2,-1,4,-1,6,-1,-1],"split_conditions":[2E0,2.6335524E-2,3E0,-3.415924E-2,5E0,3.1424914E-2,-1.1329303E-3],"split_indices":[1,0,1,0,1,0,0],"split_type":[0,0,0,0,0,0,0],"sum_hessian":[3.7E1,1E0,3.6E1,1E0,3.5E1,2E0,3.3E1],"tree_param":{"num_deleted":"0","num_feature":"4","num_nodes":"7","size_leaf_vector":"1"}},{"base_weights":[1.272918E-2,-7.7516735E-2,7.495551E-2,7.5455256E-2,-6.1243765E-2,5.496219E-1,3.5767101E-3,-6.797227E-3,8.643692E-2,2.109909E-4,6.574363E-2,-4.191307E-2,6.9341096E-3],"categories":[],"categories_nodes":[],"categories_segments":[],"categories_sizes":[],"default_left":[0,0,0,0,0,0,0,0,0,0,0,0,0],"id":99,"left_children":[1,3,5,7,-1,9,11,-1,-1,-1,-1,-1,-1],"loss_changes":[2.1920583E-1,1.7417547E0,7.7729976E-1,2.3489335E0,0E0,4.4445688E-1,9.6593016E-1,0E0,0E0,0E0,0E0,0E0,0E0],"parents":[2147483647,0,0,1,1,2,2,3,3,5,5,6,6],"right_children":[2,4,6,8,-1,10,12,-1,-1,-1,-1,-1,-1],"split_conditions":[1.6E1,1.4E1,1.8E1,1.3E1,-6.1243765E-2,2E0,1.9E1,-6.797227E-3,8.643692E-2,2.109909E-4,6.574363E-2,-4.191307E-2,6.9341096E-3],"split_indices":[1,1,1,1,0,0,1,0,0,0,0,0,0],"split_type":[0,0,0,0,0,0,0,0,0,0,0,0,0],"sum_hessian":[3.7E1,1.5E1,2.2E1,1.3E1,2E0,2E0,2E1,1.2E1,1E0,1E0,1E0,2E0,1.8E1],"tree_param":{"num_deleted":"0","num_feature":"4","num_nodes":"13","size_leaf_vector":"1"}}]},"name":"gbtree"},"learner_model_param":{"base_score":"[1.5E1]","boost_from_average":"1","num_class":"0","num_feature":"4","num_target":"1"},"objective":{"name":"reg:squarederror","reg_loss_param":{"scale_pos_weight":"1"}}},"version":[3,2,0]}