{"learner":{"attributes":{"scikit_learn":"{\"_estimator_type\": \"regressor\"}"},"feature_names":["day_of_week","day_of_month","month","is_weekend"],"feature_types":["int","int","int","int"],"gradient_booster":{"model":{"cats":{"enc":[],"feature_segments":[],"sorted_idx":[]},"gbtree_model_param":{"num_parallel_tree":"1","num_trees":"100"},"iteration_indptr":[0,1,2,3,4,5,6,7,8,9,10,11,12,13,14,15,16,17,18,19,20,21,22,23,24,25,26,27,28,29,30,31,32,33,34,35,36,37,38,39,40,41,42,43,44,45,46,47,48,49,50,51,52,53,54,55,56,57,58,59,60,61,62,63,64,65,66,67,68,69,70,71,72,73,74,75,76,77,78,79,80,81,82,83,84,85,86,87,88,89,90,91,92,93,94,95,96,97,98,99,100],"tree_info":[0,0,0,0,0,0,0,0,0,0,0,0,0,0,0,0,0,0,0,0,0,0,0,0,0,0,0,0,0,0,0,0,0,0,0,0,0,0,0,0,0,0,0,0,0,0,0,0,0,0,0,0,0,0,0,0,0,0,0,0,0,0,0,0,0,0,0,0,0,0,0,0,0,0,0,0,0,0,0,0,0,0,0,0,0,0,0,0,0,0,0,0,0,0,0,0,0,0,0,0],"trees":[{"base_weights":[-2.0077354E-7,-4.406757E0,4.638691E0,2.9189186E-2,-4.6770983E0,-3.965251E0,1.9153152E0,-2.6745945E-1,-4.4345945E-1,-1.646847E-1,-3.8366365E-1],"categories":[],"categories_nodes":[],"categories_segments":[],"categories_sizes":[],"default_left":[0,0,0,0,0,0,0,0,0,0,0],"id":0,"left_children":[1,3,5,-1,7,9,-1,-1,-1,-1,-1],"loss_changes":[7.9722174E2,2.750586E1,3.250449E3,0E0,3.418518E0,1.2297882E1,0E0,0E0,0E0,0E0,0E0],"parents":[2147483647,0,0,1,1,2,2,4,4,5,5],"right_children":[2,4,6,-1,8,10,-1,-1,-1,-1,-1],"split_conditions":[1.9E1,2E0,6E0,2.9189186E-2,3E0,2.4E1,1.9153152E0,-2.6745945E-1,-4.4345945E-1,-1.646847E-1,-3.8366365E-1],"split_indices":[1,1,2,0,0,1,0,0,0,0,0],"split_type":[0,0,0,0,0,0,0,0,0,0,0],"sum_hessian":[3.7E1,1.9E1,1.8E1,1E0,1.8E1,1.3E1,5E0,9E0,9E0,5E0,8E0],"tree_param":{"num_deleted":"0","num_feature":"4","num_nodes":"11","size_leaf_vector":"1"}},{"base_weights":[1.8032726E-2,-4.0883026E0,4.339542E0,2.802162E-2,-4.340347E0,-3.6871986E0,1.7876277E0,-2.4820235E-1,-4.1153038E-1,-1.5370573E-1,-3.5638088E-1],"categories":[],"categories_nodes":[],"categories_segments":[],"categories_sizes":[],"default_left":[0,0,0,0,0,0,0,0,0,0,0],"id":1,"left_children":[1,3,5,-1,7,9,-1,-1,-1,-1,-1],"loss_changes":[6.920729E2,2.3894653E1,2.8284219E3,0E0,2.9439697E0,1.041687E1,0E0,0E0,0E0,0E0,0E0],"parents":[2147483647,0,0,1,1,2,2,4,4,5,5],"right_children":[2,4,6,-1,8,10,-1,-1,-1,-1,-1],"split_conditions":[1.9E1,2E0,6E0,2.802162E-2,3E0,2.4E1,1.7876277E0,-2.4820235E-1,-4.1153038E-1,-1.5370573E-1,-3.5638088E-1],"split_indices":[1,1,2,0,0,1,0,0,0,0,0],"split_type":[0,0,0,0,0,0,0,0,0,0,0],"sum_hessian":[3.7E1,1.9E1,1.8E1,1E0,1.8E1,1.3E1,5E0,9E0,9E0,5E0,8E0],"tree_param":{"num_deleted":"0","num_feature":"4","num_nodes":"11","size_leaf_vector":"1"}},{"base_weights":[3.3585474E-2,-3.7928238E0,4.059617E0,2.6900748E-2,-4.027842E0,-3.4286578E0,1.6684524E0,-2.3033178E-1,-3.8190016E-1,-1.434587E-1,-3.3103827E-1],"categories":[],"categories_nodes":[],"categories_segments":[],"categories_sizes":[],"default_left":[0,0,0,0,0,0,0,0,0,0,0],"id":2,"left_children":[1,3,5,-1,7,9,-1,-1,-1,-1,-1],"loss_changes":[6.0079675E2,2.0762573E1,2.4612007E3,0E0,2.5353088E0,8.820206E0,0E0,0E0,0E0,0E0,0E0],"parents":[2147483647,0,0,1,1,2,2,4,4,5,5],"right_children":[2,4,6,-1,8,10,-1,-1,-1,-1,-1],"split_conditions":[1.9E1,2E0,6E0,2.6900748E-2,3E0,2.4E1,1.6684524E0,-2.3033178E-1,-3.8190016E-1,-1.434587E-1,-3.3103827E-1],"split_indices":[1,1,2,0,0,1,0,0,0,0,0],"split_type":[0,0,0,0,0,0,0,0,0,0,0],"sum_hessian":[3.7E1,1.9E1,1.8E1,1E0,1.8E1,1.3E1,5E0,9E0,9E0,5E0,8E0],"tree_param":{"num_deleted":"0","num_feature":"4","num_nodes":"11","size_leaf_vector":"1"}},{"base_weights":[4.6914805E-2,-3.5186648E0,3.7976873E0,2.5824737E-2,-3.7378376E0,-3.1882577E0,1.5572222E0,-2.1374792E-1,-3.5440338E-1,-1.338948E-1,-3.0749777E-1],"categories":[],"categories_nodes":[],"categories_segments":[],"categories_sizes":[],"default_left":[0,0,0,0,0,0,0,0,0,0,0],"id":3,"left_children":[1,3,5,-1,7,9,-1,-1,-1,-1,-1],"loss_changes":[5.2156256E2,1.8045547E1,2.141666E3,0E0,2.1833496E0,7.4652863E0,0E0,0E0,0E0,0E0,0E0],"parents":[2147483647,0,0,1,1,2,2,4,4,5,5],"right_children":[2,4,6,-1,8,10,-1,-1,-1,-1,-1],"split_conditions":[1.9E1,2E0,6E0,2.5824737E-2,3E0,2.4E1,1.5572222E0,-2.1374792E-1,-3.5440338E-1,-1.338948E-1,-3.0749777E-1],"split_indices":[1,1,2,0,0,1,0,0,0,0,0],"split_type":[0,0,0,0,0,0,0,0,0,0,0],"sum_hessian":[3.7E1,1.9E1,1.8E1,1E0,1.8E1,1.3E1,5E0,9E0,9E0,5E0,8E0],"tree_param":{"num_deleted":"0","num_feature":"4","num_nodes":"11","size_leaf_vector":"1"}},{"base_weights":[5.825389E-2,-3.264288E0,3.5526004E0,2.4791755E-2,-3.4687133E0,-2.964725E0,1.4534074E0,-1.9835807E-1,-3.2888633E-1,-6.264145E-2,-2.610473E-1],"categories":[],"categories_nodes":[],"categories_segments":[],"categories_sizes":[],"default_left":[0,0,0,0,0,0,0,0,0,0,0],"id":4,"left_children":[1,3,5,-1,7,9,-1,-1,-1,-1,-1],"loss_changes":[4.5278094E2,1.5688049E1,1.8636244E3,0E0,1.8802795E0,6.5582123E0,0E0,0E0,0E0,0E0,0E0],"parents":[2147483647,0,0,1,1,2,2,4,4,5,5],"right_children":[2,4,6,-1,8,10,-1,-1,-1,-1,-1],"split_conditions":[1.9E1,2E0,6E0,2.4791755E-2,3E0,2.1E1,1.4534074E0,-1.9835807E-1,-3.2888633E-1,-6.264145E-2,-2.610473E-1],"split_indices":[1,1,2,0,0,1,0,0,0,0,0],"split_type":[0,0,0,0,0,0,0,0,0,0,0],"sum_hessian":[3.7E1,1.9E1,1.8E1,1E0,1.8E1,1.3E1,5E0,9E0,9E0,2E0,1.1E1],"tree_param":{"num_deleted":"0","num_feature":"4","num_nodes":"11","size_leaf_vector":"1"}},{"base_weights":[7.0100635E-2,-3.0282674E0,3.3278513E0,2.3800086E-2,-3.2189658E0,-2.7506676E0,1.3565136E0,-1.8407625E-1,-3.0520654E-1,-1.1285615E-1,-2.6706788E-1],"categories":[],"categories_nodes":[],"categories_segments":[],"categories_sizes":[],"default_left":[0,0,0,0,0,0,0,0,0,0,0],"id":5,"left_children":[1,3,5,-1,7,9,-1,-1,-1,-1,-1],"loss_changes":[3.936386E2,1.3642044E1,1.6206302E3,0E0,1.6192474E0,6.315193E0,0E0,0E0,0E0,0E0,0E0],"parents":[2147483647,0,0,1,1,2,2,4,4,5,5],"right_children":[2,4,6,-1,8,10,-1,-1,-1,-1,-1],"split_conditions":[1.9E1,2E0,6E0,2.3800086E-2,3E0,2.4E1,1.3565136E0,-1.8407625E-1,-3.0520654E-1,-1.1285615E-1,-2.6706788E-1],"split_indices":[1,1,2,0,0,1,0,0,0,0,0],"split_type":[0,0,0,0,0,0,0,0,0,0,0],"sum_hessian":[3.7E1,1.9E1,1.8E1,1E0,1.8E1,1.3E1,5E0,9E0,9E0,5E0,8E0],"tree_param":{"num_deleted":"0","num_feature":"4","num_nodes":"11","size_leaf_vector":"1"}},{"base_weights":[7.794265E-2,-2.8092802E0,3.1130223E0,2.284809E-2,-2.9872005E0,-2.5577517E0,1.2660793E0,-2.0133565E-1,-3.7261274E-1,-1.0533242E-1,-2.4807638E-1],"categories":[],"categories_nodes":[],"categories_segments":[],"categories_sizes":[],"default_left":[0,0,0,0,0,0,0,0,0,0,0],"id":6,"left_children":[1,3,5,-1,7,9,-1,-1,-1,-1,-1],"loss_changes":[3.4173752E2,1.1865982E1,1.4102341E3,0E0,3.2113037E0,5.355461E0,0E0,0E0,0E0,0E0,0E0],"parents":[2147483647,0,0,1,1,2,2,4,4,5,5],"right_children":[2,4,6,-1,8,10,-1,-1,-1,-1,-1],"split_conditions":[1.9E1,2E0,6E0,2.284809E-2,1.8E1,2.4E1,1.2660793E0,-2.0133565E-1,-3.7261274E-1,-1.0533242E-1,-2.4807638E-1],"split_indices":[1,1,2,0,1,1,0,0,0,0,0],"split_type":[0,0,0,0,0,0,0,0,0,0,0],"sum_hessian":[3.7E1,1.9E1,1.8E1,1E0,1.8E1,1.3E1,5E0,1.6E1,2E0,5E0,8E0],"tree_param":{"num_deleted":"0","num_feature":"4","num_nodes":"11","size_leaf_vector":"1"}},{"base_weights":[8.122241E-2,-2.6120927E0,2.912016E0,2.1934165E-2,-2.778432E0,-2.378375E0,1.181674E0,-2.9517382E-1,-1.6592304E-1,-2.041954E-1,-4.6199034E-3],"categories":[],"categories_nodes":[],"categories_segments":[],"categories_sizes":[],"default_left":[0,0,0,0,0,0,0,0,0,0,0],"id":7,"left_children":[1,3,5,-1,7,9,-1,-1,-1,-1,-1],"loss_changes":[2.9732675E2,1.0363785E1,1.2271578E3,0E0,4.5430603E0,5.5078278E0,0E0,0E0,0E0,0E0,0E0],"parents":[2147483647,0,0,1,1,2,2,4,4,5,5],"right_children":[2,4,6,-1,8,10,-1,-1,-1,-1,-1],"split_conditions":[1.9E1,2E0,6E0,2.1934165E-2,8E0,3.1E1,1.181674E0,-2.9517382E-1,-1.6592304E-1,-2.041954E-1,-4.6199034E-3],"split_indices":[1,1,2,0,1,1,0,0,0,0,0],"split_type":[0,0,0,0,0,0,0,0,0,0,0],"sum_hessian":[3.7E1,1.9E1,1.8E1,1E0,1.8E1,1.3E1,5E0,6E0,1.2E1,1.2E1,1E0],"tree_param":{"num_deleted":"0","num_feature":"4","num_nodes":"11","size_leaf_vector":"1"}},{"base_weights":[8.8769235E-2,-2.4250834E0,2.7302577E0,2.1056784E-2,-2.5804257E0,-2.2030208E0,1.1028959E0,-1.700338E-1,-3.4389085E-1,-8.469726E-2,-2.1768884E-1],"categories":[],"categories_nodes":[],"categories_segments":[],"categories_sizes":[],"default_left":[0,0,0,0,0,0,0,0,0,0,0],"id":8,"left_children":[1,3,5,-1,7,9,-1,-1,-1,-1,-1],"loss_changes":[2.58953E2,9.031303E0,1.0666699E3,0E0,5.717621E0,5.419052E0,0E0,0E0,0E0,0E0,0E0],"parents":[2147483647,0,0,1,1,2,2,4,4,5,5],"right_children":[2,4,6,-1,8,10,-1,-1,-1,-1,-1],"split_conditions":[1.9E1,2E0,6E0,2.1056784E-2,1.8E1,2.4E1,1.1028959E0,-1.700338E-1,-3.4389085E-1,-8.469726E-2,-2.1768884E-1],"split_indices":[1,1,2,0,1,1,0,0,0,0,0],"split_type":[0,0,0,0,0,0,0,0,0,0,0],"sum_hessian":[3.7E1,1.9E1,1.8E1,1E0,1.8E1,1.3E1,5E0,1.6E1,2E0,5E0,8E0],"tree_param":{"num_deleted":"0","num_feature":"4","num_nodes":"11","size_leaf_vector":"1"}},{"base_weights":[8.976342E-2,-2.2557204E0,2.5539694E0,-1.8281269E0,-3.2554996E-1,-2.0483782E0,1.0293695E0,-1.7654344E-1,1.8436794E-1,-1.7713295E-1,4.2724228E-3],"categories":[],"categories_nodes":[],"categories_segments":[],"categories_sizes":[],"default_left":[0,0,0,0,0,0,0,0,0,0,0],"id":9,"left_children":[1,3,5,7,-1,9,-1,-1,-1,-1,-1],"loss_changes":[2.2539172E2,8.070801E0,9.28186E2,3.3254395E1,0E0,4.9964256E0,0E0,0E0,0E0,0E0,0E0],"parents":[2147483647,0,0,1,1,2,2,3,3,5,5],"right_children":[2,4,6,8,-1,10,-1,-1,-1,-1,-1],"split_conditions":[1.9E1,1.8E1,6E0,1.7E1,-3.2554996E-1,3.1E1,1.0293695E0,-1.7654344E-1,1.8436794E-1,-1.7713295E-1,4.2724228E-3],"split_indices":[1,1,2,1,0,1,0,0,0,0,0],"split_type":[0,0,0,0,0,0,0,0,0,0,0],"sum_hessian":[3.7E1,1.9E1,1.8E1,1.7E1,2E0,1.3E1,5E0,1.6E1,1E0,1.2E1,1E0],"tree_param":{"num_deleted":"0","num_feature":"4","num_nodes":"11","size_leaf_vector":"1"}},{"base_weights":[9.6760675E-2,-2.091149E0,2.394731E0,-1.259517E0,-2.7968297E0,-1.8968554E0,9.6074486E-1,-1.3980252E-1,2.5112915E-3,-1.580034E-1,-3.2447883E-1,-6.724191E-2,-1.9122516E-1],"categories":[],"categories_nodes":[],"categories_segments":[],"categories_sizes":[],"default_left":[0,0,0,0,0,0,0,0,0,0,0,0,0],"id":10,"left_children":[1,3,5,7,9,11,-1,-1,-1,-1,-1,-1,-1],"loss_changes":[1.9606232E2,8.214676E0,8.067541E2,6.984659E0,2.3368378E0,5.2884827E0,0E0,0E0,0E0,0E0,0E0,0E0,0E0],"parents":[2147483647,0,0,1,1,2,2,3,3,4,4,5,5],"right_children":[2,4,6,8,10,12,-1,-1,-1,-1,-1,-1,-1],"split_conditions":[1.9E1,3E0,6E0,2E0,1.4E1,2.4E1,9.6074486E-1,-1.3980252E-1,2.5112915E-3,-1.580034E-1,-3.2447883E-1,-6.724191E-2,-1.9122516E-1],"split_indices":[1,0,2,0,1,1,0,0,0,0,0,0,0],"split_type":[0,0,0,0,0,0,0,0,0,0,0,0,0],"sum_hessian":[3.7E1,1.9E1,1.8E1,1E1,9E0,1.3E1,5E0,7E0,3E0,7E0,2E0,5E0,8E0],"tree_param":{"num_deleted":"0","num_feature":"4","num_nodes":"13","size_leaf_vector":"1"}},{"base_weights":[9.1191106E-2,-1.9548455E0,2.2401145E0,-1.5557872E0,-2.9580647E-1,-1.763569E0,8.9669514E-1,-1.5259524E-1,1.7689277E-1,-6.275913E-2,-1.7762695E-1],"categories":[],"categories_nodes":[],"categories_segments":[],"categories_sizes":[],"default_left":[0,0,0,0,0,0,0,0,0,0,0],"id":11,"left_children":[1,3,5,7,-1,9,-1,-1,-1,-1,-1],"loss_changes":[1.7145656E2,8.156418E0,7.020067E2,2.8061523E1,0E0,4.519142E0,0E0,0E0,0E0,0E0,0E0],"parents":[2147483647,0,0,1,1,2,2,3,3,5,5],"right_children":[2,4,6,8,-1,10,-1,-1,-1,-1,-1],"split_conditions":[1.9E1,1.8E1,6E0,1.7E1,-2.9580647E-1,2.4E1,8.9669514E-1,-1.5259524E-1,1.7689277E-1,-6.275913E-2,-1.7762695E-1],"split_indices":[1,1,2,1,0,1,0,0,0,0,0],"split_type":[0,0,0,0,0,0,0,0,0,0,0],"sum_hessian":[3.7E1,1.9E1,1.8E1,1.7E1,2E0,1.3E1,5E0,1.6E1,1E0,5E0,8E0],"tree_param":{"num_deleted":"0","num_feature":"4","num_nodes":"11","size_leaf_vector":"1"}},{"base_weights":[9.402229E-2,-1.8120333E0,2.095448E0,-1.4299743E0,-2.800301E-1,-1.639654E0,8.3691555E-1,-1.4110571E-1,1.6981705E-1,-1.4416336E-1,1.885559E-2],"categories":[],"categories_nodes":[],"categories_segments":[],"categories_sizes":[],"default_left":[0,0,0,0,0,0,0,0,0,0,0],"id":12,"left_children":[1,3,5,7,-1,9,-1,-1,-1,-1,-1],"loss_changes":[1.4876051E2,7.8954773E0,6.108623E2,2.5093067E1,0E0,4.6882057E0,0E0,0E0,0E0,0E0,0E0],"parents":[2147483647,0,0,1,1,2,2,3,3,5,5],"right_children":[2,4,6,8,-1,10,-1,-1,-1,-1,-1],"split_conditions":[1.9E1,1.8E1,6E0,1.7E1,-2.800301E-1,3.1E1,8.3691555E-1,-1.4110571E-1,1.6981705E-1,-1.4416336E-1,1.885559E-2],"split_indices":[1,1,2,1,0,1,0,0,0,0,0],"split_type":[0,0,0,0,0,0,0,0,0,0,0],"sum_hessian":[3.7E1,1.9E1,1.8E1,1.7E1,2E0,1.3E1,5E0,1.6E1,1E0,1.2E1,1E0],"tree_param":{"num_deleted":"0","num_feature":"4","num_nodes":"11","size_leaf_vector":"1"}},{"base_weights":[9.8613225E-2,-1.6796366E0,1.9652649E0,4.4616394E-2,-1.8267443E0,-1.5174325E0,7.811212E-1,-2.2223653E-1,-9.3922734E-2,-8.187103E-3,-1.3958025E-1],"categories":[],"categories_nodes":[],"categories_segments":[],"categories_sizes":[],"default_left":[0,0,0,0,0,0,0,0,0,0,0],"id":13,"left_children":[1,3,5,-1,7,9,-1,-1,-1,-1,-1],"loss_changes":[1.294371E2,7.601387E0,5.3086926E2,0E0,8.535038E0,4.3249626E0,0E0,0E0,0E0,0E0,0E0],"parents":[2147483647,0,0,1,1,2,2,4,4,5,5],"right_children":[2,4,6,-1,8,10,-1,-1,-1,-1,-1],"split_conditions":[1.9E1,2E0,6E0,4.4616394E-2,8E0,2.1E1,7.811212E-1,-2.2223653E-1,-9.3922734E-2,-8.187103E-3,-1.3958025E-1],"split_indices":[1,1,2,0,1,1,0,0,0,0,0],"split_type":[0,0,0,0,0,0,0,0,0,0,0],"sum_hessian":[3.7E1,1.9E1,1.8E1,1E0,1.8E1,1.3E1,5E0,6E0,1.2E1,2E0,1.1E1],"tree_param":{"num_deleted":"0","num_feature":"4","num_nodes":"11","size_leaf_vector":"1"}},{"base_weights":[1.00245625E-1,-1.5588429E0,1.8413785E0,-1.1902019E0,-2.6008597E-1,-1.4065926E0,7.2904646E-1,-1.2043842E-1,1.6678128E-1,-4.316274E-2,-1.4626747E-1],"categories":[],"categories_nodes":[],"categories_segments":[],"categories_sizes":[],"default_left":[0,0,0,0,0,0,0,0,0,0,0],"id":14,"left_children":[1,3,5,7,-1,9,-1,-1,-1,-1,-1],"loss_changes":[1.1264078E2,8.607086E0,4.6156577E2,2.1724052E1,0E0,4.1331043E0,0E0,0E0,0E0,0E0,0E0],"parents":[2147483647,0,0,1,1,2,2,3,3,5,5],"right_children":[2,4,6,8,-1,10,-1,-1,-1,-1,-1],"split_conditions":[1.9E1,1.8E1,6E0,1.7E1,-2.6008597E-1,2.4E1,7.2904646E-1,-1.2043842E-1,1.6678128E-1,-4.316274E-2,-1.4626747E-1],"split_indices":[1,1,2,1,0,1,0,0,0,0,0],"split_type":[0,0,0,0,0,0,0,0,0,0,0],"sum_hessian":[3.7E1,1.9E1,1.8E1,1.7E1,2E0,1.3E1,5E0,1.6E1,1E0,5E0,8E0],"tree_param":{"num_deleted":"0","num_feature":"4","num_nodes":"11","size_leaf_vector":"1"}},{"base_weights":[1.00801684E-1,-1.4448224E0,1.7224691E0,-1.092411E0,-2.4621469E-1,-1.3075961E0,6.804434E-1,-1.1137012E-1,1.6011001E-1,-1.2806901E-1,-1.393713E-2],"categories":[],"categories_nodes":[],"categories_segments":[],"categories_sizes":[],"default_left":[0,0,0,0,0,0,0,0,0,0,0],"id":15,"left_children":[1,3,5,7,-1,9,-1,-1,-1,-1,-1],"loss_changes":[9.773522E1,8.146687E0,4.016318E2,1.9476763E1,0E0,4.3744698E0,0E0,0E0,0E0,0E0,0E0],"parents":[2147483647,0,0,1,1,2,2,3,3,5,5],"right_children":[2,4,6,8,-1,10,-1,-1,-1,-1,-1],"split_conditions":[1.9E1,1.8E1,6E0,1.7E1,-2.4621469E-1,2.9E1,6.804434E-1,-1.1137012E-1,1.6011001E-1,-1.2806901E-1,-1.393713E-2],"split_indices":[1,1,2,1,0,1,0,0,0,0,0],"split_type":[0,0,0,0,0,0,0,0,0,0,0],"sum_hessian":[3.7E1,1.9E1,1.8E1,1.7E1,2E0,1.3E1,5E0,1.6E1,1E0,1E1,3E0],"tree_param":{"num_deleted":"0","num_feature":"4","num_nodes":"11","size_leaf_vector":"1"}},{"base_weights":[1.0171028E-1,-1.3391105E0,1.6130105E0,-1.0023104E0,-2.3308325E-1,-1.2131318E0,6.350806E-1,-1.029846E-1,1.537056E-1,-3.1747323E-2,-1.2980263E-1],"categories":[],"categories_nodes":[],"categories_segments":[],"categories_sizes":[],"default_left":[0,0,0,0,0,0,0,0,0,0,0],"id":16,"left_children":[1,3,5,7,-1,9,-1,-1,-1,-1,-1],"loss_changes":[8.490548E1,7.685089E0,3.4928876E2,1.7471401E1,0E0,4.034773E0,0E0,0E0,0E0,0E0,0E0],"parents":[2147483647,0,0,1,1,2,2,3,3,5,5],"right_children":[2,4,6,8,-1,10,-1,-1,-1,-1,-1],"split_conditions":[1.9E1,1.8E1,6E0,1.7E1,-2.3308325E-1,2.4E1,6.350806E-1,-1.029846E-1,1.537056E-1,-3.1747323E-2,-1.2980263E-1],"split_indices":[1,1,2,1,0,1,0,0,0,0,0],"split_type":[0,0,0,0,0,0,0,0,0,0,0],"sum_hessian":[3.7E1,1.9E1,1.8E1,1.7E1,2E0,1.3E1,5E0,1.6E1,1E0,5E0,8E0],"tree_param":{"num_deleted":"0","num_feature":"4","num_nodes":"11","size_leaf_vector":"1"}},{"base_weights":[1.012357E-1,-1.2410998E0,1.5088923E0,-9.193079E-1,-2.2065213E-1,-1.1276206E0,5.9274185E-1,-9.5230475E-2,1.4755736E-1,-1.1288037E-1,-5.312748E-3],"categories":[],"categories_nodes":[],"categories_segments":[],"categories_sizes":[],"default_left":[0,0,0,0,0,0,0,0,0,0,0],"id":17,"left_children":[1,3,5,7,-1,9,-1,-1,-1,-1,-1],"loss_changes":[7.367549E1,7.227913E0,3.0392706E2,1.5680949E1,0E0,4.116522E0,0E0,0E0,0E0,0E0,0E0],"parents":[2147483647,0,0,1,1,2,2,3,3,5,5],"right_children":[2,4,6,8,-1,10,-1,-1,-1,-1,-1],"split_conditions":[1.9E1,1.8E1,6E0,1.7E1,-2.2065213E-1,2.9E1,5.9274185E-1,-9.5230475E-2,1.4755736E-1,-1.1288037E-1,-5.312748E-3],"split_indices":[1,1,2,1,0,1,0,0,0,0,0],"split_type":[0,0,0,0,0,0,0,0,0,0,0],"sum_hessian":[3.7E1,1.9E1,1.8E1,1.7E1,2E0,1.3E1,5E0,1.6E1,1E0,1E1,3E0],"tree_param":{"num_deleted":"0","num_feature":"4","num_nodes":"11","size_leaf_vector":"1"}},{"base_weights":[1.0119548E-1,-1.1502283E0,1.4131575E0,-4.9777097E-1,-1.7529083E0,-1.0458533E0,5.532258E-1,-6.28119E-2,4.2422917E-2,-8.457527E-2,-2.4190816E-1,-2.2105483E-2,-1.15413636E-1],"categories":[],"categories_nodes":[],"categories_segments":[],"categories_sizes":[],"default_left":[0,0,0,0,0,0,0,0,0,0,0,0,0],"id":18,"left_children":[1,3,5,7,9,11,-1,-1,-1,-1,-1,-1,-1],"loss_changes":[6.4014626E1,6.991913E0,2.643002E2,3.6662047E0,5.6453876E0,3.8764668E0,0E0,0E0,0E0,0E0,0E0,0E0,0E0],"parents":[2147483647,0,0,1,1,2,2,3,3,4,4,5,5],"right_children":[2,4,6,8,10,12,-1,-1,-1,-1,-1,-1,-1],"split_conditions":[1.9E1,3E0,6E0,1.7E1,1.4E1,2.4E1,5.532258E-1,-6.28119E-2,4.2422917E-2,-8.457527E-2,-2.4190816E-1,-2.2105483E-2,-1.15413636E-1],"split_indices":[1,0,2,1,1,1,0,0,0,0,0,0,0],"split_type":[0,0,0,0,0,0,0,0,0,0,0,0,0],"sum_hessian":[3.7E1,1.9E1,1.8E1,1E1,9E0,1.3E1,5E0,8E0,2E0,7E0,2E0,5E0,8E0],"tree_param":{"num_deleted":"0","num_feature":"4","num_nodes":"13","size_leaf_vector":"1"}},{"base_weights":[9.491136E-2,-1.0755537E0,1.3219844E0,-7.7096707E-1,-2.035644E-1,-9.720079E-1,5.163442E-1,-8.177111E-2,1.3995814E-1,-9.96702E-2,1.9308472E-3],"categories":[],"categories_nodes":[],"categories_segments":[],"categories_sizes":[],"default_left":[0,0,0,0,0,0,0,0,0,0,0],"id":19,"left_children":[1,3,5,7,-1,9,-1,-1,-1,-1,-1],"loss_changes":[5.5999218E1,6.9869957E0,2.2997011E2,1.3183369E1,0E0,3.8494587E0,0E0,0E0,0E0,0E0,0E0],"parents":[2147483647,0,0,1,1,2,2,3,3,5,5],"right_children":[2,4,6,8,-1,10,-1,-1,-1,-1,-1],"split_conditions":[1.9E1,1.8E1,6E0,1.7E1,-2.035644E-1,2.9E1,5.163442E-1,-8.177111E-2,1.3995814E-1,-9.96702E-2,1.9308472E-3],"split_indices":[1,1,2,1,0,1,0,0,0,0,0],"split_type":[0,0,0,0,0,0,0,0,0,0,0],"sum_hessian":[3.7E1,1.9E1,1.8E1,1.7E1,2E0,1.3E1,5E0,1.6E1,1E0,1E1,3E0],"tree_param":{"num_deleted":"0","num_feature":"4","num_nodes":"11","size_leaf_vector":"1"}},{"base_weights":[9.450839E-2,-9.967784E-1,1.2382572E0,-7.060573E-1,-1.9270764E-1,-9.012284E-1,4.819211E-1,-1.2932186E-1,1.6229457E-3,-1.3987108E-2,-1.0282813E-1],"categories":[],"categories_nodes":[],"categories_segments":[],"categories_sizes":[],"default_left":[0,0,0,0,0,0,0,0,0,0,0],"id":20,"left_children":[1,3,5,7,-1,9,-1,-1,-1,-1,-1],"loss_changes":[4.8664272E1,6.509571E0,1.9997112E2,1.1936405E1,0E0,3.681594E0,0E0,0E0,0E0,0E0,0E0],"parents":[2147483647,0,0,1,1,2,2,3,3,5,5],"right_children":[2,4,6,8,-1,10,-1,-1,-1,-1,-1],"split_conditions":[1.9E1,1.8E1,6E0,8E0,-1.9270764E-1,2.4E1,4.819211E-1,-1.2932186E-1,1.6229457E-3,-1.3987108E-2,-1.0282813E-1],"split_indices":[1,1,2,1,0,1,0,0,0,0,0],"split_type":[0,0,0,0,0,0,0,0,0,0,0],"sum_hessian":[3.7E1,1.9E1,1.8E1,1.7E1,2E0,1.3E1,5E0,7E0,1E1,5E0,8E0],"tree_param":{"num_deleted":"0","num_feature":"4","num_nodes":"11","size_leaf_vector":"1"}},{"base_weights":[8.812389E-2,-9.3305653E-1,1.1584126E0,7.098884E-2,-1.0755712E0,-8.37474E-1,4.4979298E-1,-1.5773317E-1,-4.0825833E-2,-8.81736E-2,7.984686E-3],"categories":[],"categories_nodes":[],"categories_segments":[],"categories_sizes":[],"default_left":[0,0,0,0,0,0,0,0,0,0,0],"id":21,"left_children":[1,3,5,-1,7,9,-1,-1,-1,-1,-1],"loss_changes":[4.2613262E1,6.143139E0,1.7399173E2,0E0,8.617607E0,3.5833368E0,0E0,0E0,0E0,0E0,0E0],"parents":[2147483647,0,0,1,1,2,2,4,4,5,5],"right_children":[2,4,6,-1,8,10,-1,-1,-1,-1,-1],"split_conditions":[1.9E1,2E0,6E0,7.098884E-2,8E0,2.9E1,4.4979298E-1,-1.5773317E-1,-4.0825833E-2,-8.81736E-2,7.984686E-3],"split_indices":[1,1,2,0,1,1,0,0,0,0,0],"split_type":[0,0,0,0,0,0,0,0,0,0,0],"sum_hessian":[3.7E1,1.9E1,1.8E1,1E0,1.8E1,1.3E1,5E0,6E0,1.2E1,1E1,3E0],"tree_param":{"num_deleted":"0","num_feature":"4","num_nodes":"11","size_leaf_vector":"1"}},{"base_weights":[8.744304E-2,-8.6479056E-1,1.085192E0,-5.853523E-1,-1.8025252E-1,-7.762038E-1,4.1980666E-1,3.4846368E-3,-1.2638898E-1,-7.1763485E-3,-9.1810025E-2],"categories":[],"categories_nodes":[],"categories_segments":[],"categories_sizes":[],"default_left":[0,0,0,0,0,0,0,0,0,0,0],"id":22,"left_children":[1,3,5,7,-1,9,-1,-1,-1,-1,-1],"loss_changes":[3.7041885E1,6.440361E0,1.512825E2,1.1327053E1,0E0,3.4667826E0,0E0,0E0,0E0,0E0,0E0],"parents":[2147483647,0,0,1,1,2,2,3,3,5,5],"right_children":[2,4,6,8,-1,10,-1,-1,-1,-1,-1],"split_conditions":[1.9E1,1.8E1,6E0,4E0,-1.8025252E-1,2.4E1,4.1980666E-1,3.4846368E-3,-1.2638898E-1,-7.1763485E-3,-9.1810025E-2],"split_indices":[1,1,2,0,0,1,0,0,0,0,0],"split_type":[0,0,0,0,0,0,0,0,0,0,0],"sum_hessian":[3.7E1,1.9E1,1.8E1,1.7E1,2E0,1.3E1,5E0,1.1E1,6E0,5E0,8E0],"tree_param":{"num_deleted":"0","num_feature":"4","num_nodes":"11","size_leaf_vector":"1"}},{"base_weights":[8.091235E-2,-8.107652E-1,1.0152618E0,-5.4535216E-1,-1.7063905E-1,-7.211779E-1,3.9181948E-1,-6.2169656E-2,1.3578853E-1,-7.816146E-2,1.3014221E-2],"categories":[],"categories_nodes":[],"categories_segments":[],"categories_sizes":[],"default_left":[0,0,0,0,0,0,0,0,0,0,0],"id":23,"left_children":[1,3,5,7,-1,9,-1,-1,-1,-1,-1],"loss_changes":[3.2482395E1,5.8554764E0,1.3162437E2,1.0675261E1,0E0,3.3247027E0,0E0,0E0,0E0,0E0,0E0],"parents":[2147483647,0,0,1,1,2,2,3,3,5,5],"right_children":[2,4,6,8,-1,10,-1,-1,-1,-1,-1],"split_conditions":[1.9E1,1.8E1,6E0,1.7E1,-1.7063905E-1,2.9E1,3.9181948E-1,-6.2169656E-2,1.3578853E-1,-7.816146E-2,1.3014221E-2],"split_indices":[1,1,2,1,0,1,0,0,0,0,0],"split_type":[0,0,0,0,0,0,0,0,0,0,0],"sum_hessian":[3.7E1,1.9E1,1.8E1,1.7E1,2E0,1.3E1,5E0,1.6E1,1E0,1E1,3E0],"tree_param":{"num_deleted":"0","num_feature":"4","num_nodes":"11","size_leaf_vector":"1"}},{"base_weights":[8.048286E-2,-7.5075495E-1,9.512341E-1,-3.2501277E-1,-1.4949886E0,-6.681372E-1,3.6569825E-1,-1.0351107E-1,6.6296324E-2,-4.759523E-2,-1.9973914E-1,-1.4871723E-3,-8.215451E-2],"categories":[],"categories_nodes":[],"categories_segments":[],"categories_sizes":[],"default_left":[0,0,0,0,0,0,0,0,0,0,0,0,0],"id":24,"left_children":[1,3,5,7,9,11,-1,-1,-1,-1,-1,-1,-1],"loss_changes":[2.8218596E1,5.851142E0,1.1443437E2,1.6721565E1,4.8259563E0,3.2436643E0,0E0,0E0,0E0,0E0,0E0,0E0,0E0],"parents":[2147483647,0,0,1,1,2,2,3,3,4,4,5,5],"right_children":[2,4,6,8,10,12,-1,-1,-1,-1,-1,-1,-1],"split_conditions":[1.9E1,1.4E1,6E0,8E0,3E0,2.4E1,3.6569825E-1,-1.0351107E-1,6.6296324E-2,-4.759523E-2,-1.9973914E-1,-1.4871723E-3,-8.215451E-2],"split_indices":[1,1,2,1,0,1,0,0,0,0,0,0,0],"split_type":[0,0,0,0,0,0,0,0,0,0,0,0,0],"sum_hessian":[3.7E1,1.9E1,1.8E1,1.3E1,6E0,1.3E1,5E0,7E0,6E0,4E0,2E0,5E0,8E0],"tree_param":{"num_deleted":"0","num_feature":"4","num_nodes":"13","size_leaf_vector":"1"}},{"base_weights":[7.39783E-2,-7.0492214E-1,8.899799E-1,-3.0167007E-1,-1.4107231E0,-6.206608E-1,3.4131825E-1,-9.6265316E-2,6.1750293E-2,-4.454915E-2,-1.8908639E-1,-6.9435515E-2,1.7162647E-2],"categories":[],"categories_nodes":[],"categories_segments":[],"categories_sizes":[],"default_left":[0,0,0,0,0,0,0,0,0,0,0,0,0],"id":25,"left_children":[1,3,5,7,9,11,-1,-1,-1,-1,-1,-1,-1],"loss_changes":[2.477956E1,5.266741E0,9.9560875E1,1.4480273E1,4.3790426E0,3.0776143E0,0E0,0E0,0E0,0E0,0E0,0E0,0E0],"parents":[2147483647,0,0,1,1,2,2,3,3,4,4,5,5],"right_children":[2,4,6,8,10,12,-1,-1,-1,-1,-1,-1,-1],"split_conditions":[1.9E1,1.4E1,6E0,8E0,3E0,2.9E1,3.4131825E-1,-9.6265316E-2,6.1750293E-2,-4.454915E-2,-1.8908639E-1,-6.9435515E-2,1.7162647E-2],"split_indices":[1,1,2,1,0,1,0,0,0,0,0,0,0],"split_type":[0,0,0,0,0,0,0,0,0,0,0,0,0],"sum_hessian":[3.7E1,1.9E1,1.8E1,1.3E1,6E0,1.3E1,5E0,7E0,6E0,4E0,2E0,1E1,3E0],"tree_param":{"num_deleted":"0","num_feature":"4","num_nodes":"13","size_leaf_vector":"1"}},{"base_weights":[6.860959E-2,-6.619359E-1,8.3399385E-1,7.8487776E-2,-8.0004805E-1,-5.7474184E-1,3.1856358E-1,-1.2474135E-1,-2.637566E-2,3.240954E-3,-7.368406E-2],"categories":[],"categories_nodes":[],"categories_segments":[],"categories_sizes":[],"default_left":[0,0,0,0,0,0,0,0,0,0,0],"id":26,"left_children":[1,3,5,-1,7,9,-1,-1,-1,-1,-1],"loss_changes":[2.1799677E1,5.3233795E0,8.654931E1,0E0,6.2708244E0,3.0202641E0,0E0,0E0,0E0,0E0,0E0],"parents":[2147483647,0,0,1,1,2,2,4,4,5,5],"right_children":[2,4,6,-1,8,10,-1,-1,-1,-1,-1],"split_conditions":[1.9E1,2E0,6E0,7.8487776E-2,8E0,2.4E1,3.1856358E-1,-1.2474135E-1,-2.637566E-2,3.240954E-3,-7.368406E-2],"split_indices":[1,1,2,0,1,1,0,0,0,0,0],"split_type":[0,0,0,0,0,0,0,0,0,0,0],"sum_hessian":[3.7E1,1.9E1,1.8E1,1E0,1.8E1,1.3E1,5E0,6E0,1.2E1,5E0,8E0],"tree_param":{"num_deleted":"0","num_feature":"4","num_nodes":"11","size_leaf_vector":"1"}},{"base_weights":[6.7738935E-2,-6.1261237E-1,7.8033304E-1,-3.7379345E-1,-1.841322E0,-5.337939E-1,2.9732588E-1,-4.7556356E-2,1.3509777E-1,-4.345726E-2,-1.7750137E-1,-6.1824083E-2,2.0553932E-2],"categories":[],"categories_nodes":[],"categories_segments":[],"categories_sizes":[],"default_left":[0,0,0,0,0,0,0,0,0,0,0,0,0],"id":27,"left_children":[1,3,5,7,9,11,-1,-1,-1,-1,-1,-1,-1],"loss_changes":[1.8900986E1,5.1805086E0,7.529716E1,9.1959715E0,2.6462364E-1,2.8443723E0,0E0,0E0,0E0,0E0,0E0,0E0,0E0],"parents":[2147483647,0,0,1,1,2,2,3,3,4,4,5,5],"right_children":[2,4,6,8,10,12,-1,-1,-1,-1,-1,-1,-1],"split_conditions":[1.9E1,1.8E1,6E0,1.7E1,1E0,2.9E1,2.9732588E-1,-4.7556356E-2,1.3509777E-1,-4.345726E-2,-1.7750137E-1,-6.1824083E-2,2.0553932E-2],"split_indices":[1,1,2,1,0,1,0,0,0,0,0,0,0],"split_type":[0,0,0,0,0,0,0,0,0,0,0,0,0],"sum_hessian":[3.7E1,1.9E1,1.8E1,1.7E1,2E0,1.3E1,5E0,1.6E1,1E0,1E0,1E0,1E1,3E0],"tree_param":{"num_deleted":"0","num_feature":"4","num_nodes":"13","size_leaf_vector":"1"}},{"base_weights":[6.554714E-2,-5.7027435E-1,7.31383E-1,-1.7668414E-1,-1.2759869E0,-4.940385E-1,2.775042E-1,-7.949817E-2,6.258559E-2,-3.9954405E-2,-1.7159355E-1,7.1465042E-3,-6.624468E-2],"categories":[],"categories_nodes":[],"categories_segments":[],"categories_sizes":[],"default_left":[0,0,0,0,0,0,0,0,0,0,0,0,0],"id":28,"left_children":[1,3,5,7,9,11,-1,-1,-1,-1,-1,-1,-1],"loss_changes":[1.6504496E1,5.3297844E0,6.54491E1,1.174708E1,3.6521912E0,2.8019726E0,0E0,0E0,0E0,0E0,0E0,0E0,0E0],"parents":[2147483647,0,0,1,1,2,2,3,3,4,4,5,5],"right_children":[2,4,6,8,10,12,-1,-1,-1,-1,-1,-1,-1],"split_conditions":[1.9E1,1.4E1,6E0,8E0,3E0,2.4E1,2.775042E-1,-7.949817E-2,6.258559E-2,-3.9954405E-2,-1.7159355E-1,7.1465042E-3,-6.624468E-2],"split_indices":[1,1,2,1,0,1,0,0,0,0,0,0,0],"split_type":[0,0,0,0,0,0,0,0,0,0,0,0,0],"sum_hessian":[3.7E1,1.9E1,1.8E1,1.3E1,6E0,1.3E1,5E0,7E0,6E0,4E0,2E0,5E0,8E0],"tree_param":{"num_deleted":"0","num_feature":"4","num_nodes":"13","size_leaf_vector":"1"}},{"base_weights":[6.003873E-2,-5.360755E-1,6.843674E-1,8.043045E-2,-6.7011946E-1,-4.5873687E-1,2.5900397E-1,-1.07475325E-1,-2.0481104E-2,-4.788455E-2,5.4356918E-2],"categories":[],"categories_nodes":[],"categories_segments":[],"categories_sizes":[],"default_left":[0,0,0,0,0,0,0,0,0,0,0],"id":29,"left_children":[1,3,5,-1,7,9,-1,-1,-1,-1,-1],"loss_changes":[1.45093775E1,4.8061857E0,5.6937702E1,0E0,4.953764E0,2.6346965E0,0E0,0E0,0E0,0E0,0E0],"parents":[2147483647,0,0,1,1,2,2,4,4,5,5],"right_children":[2,4,6,-1,8,10,-1,-1,-1,-1,-1],"split_conditions":[1.9E1,2E0,6E0,8.043045E-2,8E0,3.1E1,2.5900397E-1,-1.07475325E-1,-2.0481104E-2,-4.788455E-2,5.4356918E-2],"split_indices":[1,1,2,0,1,1,0,0,0,0,0],"split_type":[0,0,0,0,0,0,0,0,0,0,0],"sum_hessian":[3.7E1,1.9E1,1.8E1,1E0,1.8E1,1.3E1,5E0,6E0,1.2E1,1.2E1,1E0],"tree_param":{"num_deleted":"0","num_feature":"4","num_nodes":"11","size_leaf_vector":"1"}},{"base_weights":[6.097137E-2,-4.955657E-1,6.4359087E-1,-1.1466401E-1,-1.186574E0,-4.2157552E-1,2.4173711E-1,-3.4140225E-2,1.5769961E-1,-3.6086548E-2,-1.6134956E-1,9.862378E-3,-5.9037644E-2],"categories":[],"categories_nodes":[],"categories_segments":[],"categories_sizes":[],"default_left":[0,0,0,0,0,0,0,0,0,0,0,0,0],"id":30,"left_children":[1,3,5,7,9,11,-1,-1,-1,-1,-1,-1,-1],"loss_changes":[1.2640416E1,5.1280665E0,4.9402718E1,9.95508E0,3.3649578E0,2.5044305E0,0E0,0E0,0E0,0E0,0E0,0E0,0E0],"parents":[2147483647,0,0,1,1,2,2,3,3,4,4,5,5],"right_children":[2,4,6,8,10,12,-1,-1,-1,-1,-1,-1,-1],"split_conditions":[1.9E1,1.4E1,6E0,1.3E1,3E0,2.4E1,2.4173711E-1,-3.4140225E-2,1.5769961E-1,-3.6086548E-2,-1.6134956E-1,9.862378E-3,-5.9037644E-2],"split_indices":[1,1,2,1,0,1,0,0,0,0,0,0,0],"split_type":[0,0,0,0,0,0,0,0,0,0,0,0,0],"sum_hessian":[3.7E1,1.9E1,1.8E1,1.3E1,6E0,1.3E1,5E0,1.2E1,1E0,4E0,2E0,5E0,8E0],"tree_param":{"num_deleted":"0","num_feature":"4","num_nodes":"13","size_leaf_vector":"1"}},{"base_weights":[5.9216995E-2,-4.5961428E-1,6.022385E-1,-9.666518E-2,-1.1198533E0,-3.913618E-1,2.2562128E-1,-6.589927E-2,5.984702E-2,-3.3777013E-2,-1.5274425E-1,-4.990806E-2,2.7665863E-2],"categories":[],"categories_nodes":[],"categories_segments":[],"categories_sizes":[],"default_left":[0,0,0,0,0,0,0,0,0,0,0,0,0],"id":31,"left_children":[1,3,5,7,9,11,-1,-1,-1,-1,-1,-1,-1],"loss_changes":[1.0982784E1,4.6844115E0,4.297657E1,9.21502E0,3.0491343E0,2.6151657E0,0E0,0E0,0E0,0E0,0E0,0E0,0E0],"parents":[2147483647,0,0,1,1,2,2,3,3,4,4,5,5],"right_children":[2,4,6,8,10,12,-1,-1,-1,-1,-1,-1,-1],"split_conditions":[1.9E1,1.4E1,6E0,8E0,3E0,2.9E1,2.2562128E-1,-6.589927E-2,5.984702E-2,-3.3777013E-2,-1.5274425E-1,-4.990806E-2,2.7665863E-2],"split_indices":[1,1,2,1,0,1,0,0,0,0,0,0,0],"split_type":[0,0,0,0,0,0,0,0,0,0,0,0,0],"sum_hessian":[3.7E1,1.9E1,1.8E1,1.3E1,6E0,1.3E1,5E0,7E0,6E0,4E0,2E0,1E1,3E0],"tree_param":{"num_deleted":"0","num_feature":"4","num_nodes":"13","size_leaf_vector":"1"}},{"base_weights":[5.4764125E-2,-4.324737E-1,5.647637E-1,-2.2127411E-1,-1.5555133E0,-3.6164173E-1,2.1057993E-1,-3.4614492E-2,1.3490582E-1,-3.6507014E-2,-1.5015458E-1,1.25320945E-2,-5.3359035E-2],"categories":[],"categories_nodes":[],"categories_segments":[],"categories_sizes":[],"default_left":[0,0,0,0,0,0,0,0,0,0,0,0,0],"id":32,"left_children":[1,3,5,7,9,11,-1,-1,-1,-1,-1,-1,-1],"loss_changes":[9.686907E0,4.399515E0,3.7343197E1,7.9886694E0,2.0337296E-1,2.3201075E0,0E0,0E0,0E0,0E0,0E0,0E0,0E0],"parents":[2147483647,0,0,1,1,2,2,3,3,4,4,5,5],"right_children":[2,4,6,8,10,12,-1,-1,-1,-1,-1,-1,-1],"split_conditions":[1.9E1,1.8E1,6E0,1.7E1,1E0,2.4E1,2.1057993E-1,-3.4614492E-2,1.3490582E-1,-3.6507014E-2,-1.5015458E-1,1.25320945E-2,-5.3359035E-2],"split_indices":[1,1,2,1,0,1,0,0,0,0,0,0,0],"split_type":[0,0,0,0,0,0,0,0,0,0,0,0,0],"sum_hessian":[3.7E1,1.9E1,1.8E1,1.7E1,2E0,1.3E1,5E0,1.6E1,1E0,1E0,1E0,5E0,8E0],"tree_param":{"num_deleted":"0","num_feature":"4","num_nodes":"13","size_leaf_vector":"1"}},{"base_weights":[5.2577425E-2,-4.0219426E-1,5.2851725E-1,-5.7222094E-2,-1.0346823E0,-3.3562666E-1,1.9654134E-1,-2.8065648E-2,1.5038234E-1,-3.2081984E-2,-1.396707E-1,-4.479378E-2,2.9207438E-2],"categories":[],"categories_nodes":[],"categories_segments":[],"categories_sizes":[],"default_left":[0,0,0,0,0,0,0,0,0,0,0,0,0],"id":33,"left_children":[1,3,5,7,9,11,-1,-1,-1,-1,-1,-1,-1],"loss_changes":[8.437436E0,4.3046083E0,3.2483974E1,8.621276E0,2.4544654E0,2.4047806E0,0E0,0E0,0E0,0E0,0E0,0E0,0E0],"parents":[2147483647,0,0,1,1,2,2,3,3,4,4,5,5],"right_children":[2,4,6,8,10,12,-1,-1,-1,-1,-1,-1,-1],"split_conditions":[1.9E1,1.4E1,6E0,1.3E1,3E0,2.9E1,1.9654134E-1,-2.8065648E-2,1.5038234E-1,-3.2081984E-2,-1.396707E-1,-4.479378E-2,2.9207438E-2],"split_indices":[1,1,2,1,0,1,0,0,0,0,0,0,0],"split_type":[0,0,0,0,0,0,0,0,0,0,0,0,0],"sum_hessian":[3.7E1,1.9E1,1.8E1,1.3E1,6E0,1.3E1,5E0,1.2E1,1E0,4E0,2E0,1E1,3E0],"tree_param":{"num_deleted":"0","num_feature":"4","num_nodes":"13","size_leaf_vector":"1"}},{"base_weights":[5.1832363E-2,-3.724905E-1,4.9576E-1,-2.4418559E-2,-1.0154215E0,-3.0988976E-1,1.8343861E-1,4.4435337E-2,-7.1211144E-2,-1.475657E-1,5.6397475E-2,1.4682884E-2,-4.8352648E-2],"categories":[],"categories_nodes":[],"categories_segments":[],"categories_sizes":[],"default_left":[0,0,0,0,0,0,0,0,0,0,0,0,0],"id":34,"left_children":[1,3,5,7,9,11,-1,-1,-1,-1,-1,-1,-1],"loss_changes":[7.3426743E0,4.450929E0,2.822128E1,7.52238E0,1.1285589E1,2.145452E0,0E0,0E0,0E0,0E0,0E0,0E0,0E0],"parents":[2147483647,0,0,1,1,2,2,3,3,4,4,5,5],"right_children":[2,4,6,8,10,12,-1,-1,-1,-1,-1,-1,-1],"split_conditions":[1.9E1,4E0,6E0,1.2E1,1.3E1,2.4E1,1.8343861E-1,4.4435337E-2,-7.1211144E-2,-1.475657E-1,5.6397475E-2,1.4682884E-2,-4.8352648E-2],"split_indices":[1,0,2,1,1,1,0,0,0,0,0,0,0],"split_type":[0,0,0,0,0,0,0,0,0,0,0,0,0],"sum_hessian":[3.7E1,1.9E1,1.8E1,1.3E1,6E0,1.3E1,5E0,8E0,5E0,4E0,2E0,5E0,8E0],"tree_param":{"num_deleted":"0","num_feature":"4","num_nodes":"13","size_leaf_vector":"1"}},{"base_weights":[4.8523456E-2,-3.4858847E-1,4.6398216E-1,8.1944615E-2,-4.747571E-1,-2.8750348E-1,1.7120947E-1,-8.5411765E-2,-9.519109E-3,-4.0311687E-2,3.0356169E-2],"categories":[],"categories_nodes":[],"categories_segments":[],"categories_sizes":[],"default_left":[0,0,0,0,0,0,0,0,0,0,0],"id":35,"left_children":[1,3,5,-1,7,9,-1,-1,-1,-1,-1],"loss_changes":[6.431116E0,3.9506266E0,2.4547543E1,0E0,3.8806586E0,2.2117443E0,0E0,0E0,0E0,0E0,0E0],"parents":[2147483647,0,0,1,1,2,2,4,4,5,5],"right_children":[2,4,6,-1,8,10,-1,-1,-1,-1,-1],"split_conditions":[1.9E1,2E0,6E0,8.1944615E-2,8E0,2.9E1,1.7120947E-1,-8.5411765E-2,-9.519109E-3,-4.0311687E-2,3.0356169E-2],"split_indices":[1,1,2,0,1,1,0,0,0,0,0],"split_type":[0,0,0,0,0,0,0,0,0,0,0],"sum_hessian":[3.7E1,1.9E1,1.8E1,1E0,1.8E1,1.3E1,5E0,6E0,1.2E1,1E1,3E0],"tree_param":{"num_deleted":"0","num_feature":"4","num_nodes":"11","size_leaf_vector":"1"}},{"base_weights":[4.8543196E-2,-3.213507E-1,4.3535027E-1,-1.2668604E-1,-1.3822216E0,-2.6521417E-1,1.5979537E-1,-2.6498355E-2,1.3402206E-1,-3.0534228E-2,-1.3533236E-1,3.9892934E-2,-3.4726556E-2],"categories":[],"categories_nodes":[],"categories_segments":[],"categories_sizes":[],"default_left":[0,0,0,0,0,0,0,0,0,0,0,0,0],"id":36,"left_children":[1,3,5,7,9,11,-1,-1,-1,-1,-1,-1,-1],"loss_changes":[5.5768476E0,3.955173E0,2.1322325E1,7.1893296E0,2.8313637E-1,2.0223765E0,0E0,0E0,0E0,0E0,0E0,0E0,0E0],"parents":[2147483647,0,0,1,1,2,2,3,3,4,4,5,5],"right_children":[2,4,6,8,10,12,-1,-1,-1,-1,-1,-1,-1],"split_conditions":[1.9E1,1.8E1,6E0,1.7E1,1E0,2.1E1,1.5979537E-1,-2.6498355E-2,1.3402206E-1,-3.0534228E-2,-1.3533236E-1,3.9892934E-2,-3.4726556E-2],"split_indices":[1,1,2,1,0,1,0,0,0,0,0,0,0],"split_type":[0,0,0,0,0,0,0,0,0,0,0,0,0],"sum_hessian":[3.7E1,1.9E1,1.8E1,1.7E1,2E0,1.3E1,5E0,1.6E1,1E0,1E0,1E0,2E0,1.1E1],"tree_param":{"num_deleted":"0","num_feature":"4","num_nodes":"13","size_leaf_vector":"1"}},{"base_weights":[4.746571E-2,-2.985597E-1,4.0920478E-1,2.8271368E-2,-9.095704E-1,-2.436281E-1,1.4914246E-1,-1.9649211E-2,1.4355184E-1,-2.5669847E-2,-1.270034E-1,-3.9220963E-2,2.3869233E-2],"categories":[],"categories_nodes":[],"categories_segments":[],"categories_sizes":[],"default_left":[0,0,0,0,0,0,0,0,0,0,0,0,0],"id":37,"left_children":[1,3,5,7,9,11,-1,-1,-1,-1,-1,-1,-1],"loss_changes":[4.8786664E0,4.019661E0,1.8502697E1,7.212787E0,2.2844424E0,2.0177133E0,0E0,0E0,0E0,0E0,0E0,0E0,0E0],"parents":[2147483647,0,0,1,1,2,2,3,3,4,4,5,5],"right_children":[2,4,6,8,10,12,-1,-1,-1,-1,-1,-1,-1],"split_conditions":[1.9E1,1.4E1,6E0,1.3E1,3E0,2.8E1,1.4914246E-1,-1.9649211E-2,1.4355184E-1,-2.5669847E-2,-1.270034E-1,-3.9220963E-2,2.3869233E-2],"split_indices":[1,1,2,1,0,1,0,0,0,0,0,0,0],"split_type":[0,0,0,0,0,0,0,0,0,0,0,0,0],"sum_hessian":[3.7E1,1.9E1,1.8E1,1.3E1,6E0,1.3E1,5E0,1.2E1,1E0,4E0,2E0,9E0,4E0],"tree_param":{"num_deleted":"0","num_feature":"4","num_nodes":"13","size_leaf_vector":"1"}},{"base_weights":[4.6432037E-2,-2.7611342E-1,3.8350978E-1,4.302742E-2,-8.7495035E-1,-2.2523443E-1,1.3919957E-1,4.6444822E-2,-6.1635446E-2,-1.3091598E-1,5.4869246E-2,1.9331437E-2,-4.09168E-2],"categories":[],"categories_nodes":[],"categories_segments":[],"categories_sizes":[],"default_left":[0,0,0,0,0,0,0,0,0,0,0,0,0],"id":38,"left_children":[1,3,5,7,9,11,-1,-1,-1,-1,-1,-1,-1],"loss_changes":[4.2373624E0,3.8599136E0,1.6081202E1,6.569028E0,9.442308E0,1.994442E0,0E0,0E0,0E0,0E0,0E0,0E0,0E0],"parents":[2147483647,0,0,1,1,2,2,3,3,4,4,5,5],"right_children":[2,4,6,8,10,12,-1,-1,-1,-1,-1,-1,-1],"split_conditions":[1.9E1,4E0,6E0,1.2E1,1.3E1,2.4E1,1.3919957E-1,4.6444822E-2,-6.1635446E-2,-1.3091598E-1,5.4869246E-2,1.9331437E-2,-4.09168E-2],"split_indices":[1,0,2,1,1,1,0,0,0,0,0,0,0],"split_type":[0,0,0,0,0,0,0,0,0,0,0,0,0],"sum_hessian":[3.7E1,1.9E1,1.8E1,1.3E1,6E0,1.3E1,5E0,8E0,5E0,4E0,2E0,5E0,8E0],"tree_param":{"num_deleted":"0","num_feature":"4","num_nodes":"13","size_leaf_vector":"1"}},{"base_weights":[4.341185E-2,-2.5858623E-1,3.5901973E-1,4.1805267E-2,-8.2242835E-1,-2.0875727E-1,1.299197E-1,-2.8604295E-2,9.036729E-2,-1.0711959E-1,-8.020377E-3,-3.5860963E-2,2.4960296E-2],"categories":[],"categories_nodes":[],"categories_segments":[],"categories_sizes":[],"default_left":[0,0,0,0,0,0,0,0,0,0,0,0,0],"id":39,"left_children":[1,3,5,7,9,11,-1,-1,-1,-1,-1,-1,-1],"loss_changes":[3.7147307E0,3.421849E0,1.3985288E1,6.485728E0,2.4771147E0,1.8860056E0,0E0,0E0,0E0,0E0,0E0,0E0,0E0],"parents":[2147483647,0,0,1,1,2,2,3,3,4,4,5,5],"right_children":[2,4,6,8,10,12,-1,-1,-1,-1,-1,-1,-1],"split_conditions":[1.9E1,1.4E1,6E0,1.1E1,1.7E1,2.8E1,1.299197E-1,-2.8604295E-2,9.036729E-2,-1.0711959E-1,-8.020377E-3,-3.5860963E-2,2.4960296E-2],"split_indices":[1,1,2,1,1,1,0,0,0,0,0,0,0],"split_type":[0,0,0,0,0,0,0,0,0,0,0,0,0],"sum_hessian":[3.7E1,1.9E1,1.8E1,1.3E1,6E0,1.3E1,5E0,1E1,3E0,3E0,3E0,9E0,4E0],"tree_param":{"num_deleted":"0","num_feature":"4","num_nodes":"13","size_leaf_vector":"1"}},{"base_weights":[4.16662E-2,-5.330196E-1,1.8862814E-1,3.2444534E-1,-1.1772767E-1,4.3824673E-1,-4.7024474E-1,7.979915E-2,-7.4550435E-3,8.0402065E-3,1.10275045E-1,-9.107806E-2,2.3362823E-2],"categories":[],"categories_nodes":[],"categories_segments":[],"categories_sizes":[],"default_left":[0,0,0,0,0,0,0,0,0,0,0,0,0],"id":40,"left_children":[1,3,5,7,-1,9,11,-1,-1,-1,-1,-1,-1],"loss_changes":[3.3099062E0,6.9158225E0,5.304558E0,1.4983827E0,0E0,7.1649795E0,4.9168878E0,0E0,0E0,0E0,0E0,0E0,0E0],"parents":[2147483647,0,0,1,1,2,2,3,3,5,5,6,6],"right_children":[2,4,6,8,-1,10,12,-1,-1,-1,-1,-1,-1],"split_conditions":[8E0,4E0,2.4E1,1E0,-1.1772767E-1,5E0,2.8E1,7.979915E-2,-7.4550435E-3,8.0402065E-3,1.10275045E-1,-9.107806E-2,2.3362823E-2],"split_indices":[1,0,1,0,0,0,1,0,0,0,0,0,0],"split_type":[0,0,0,0,0,0,0,0,0,0,0,0,0],"sum_hessian":[3.7E1,7E0,3E1,4E0,3E0,2.2E1,8E0,1E0,3E0,1.7E1,5E0,4E0,4E0],"tree_param":{"num_deleted":"0","num_feature":"4","num_nodes":"13","size_leaf_vector":"1"}},{"base_weights":[3.847003E-2,-2.4082835E-1,3.304436E-1,-6.1759632E-2,-1.2349645E0,-1.8366207E-1,1.17995955E-1,-2.0778768E-2,1.3215259E-1,-2.5821438E-2,-1.223743E-1,-2.4324963E-2,5.5261496E-2],"categories":[],"categories_nodes":[],"categories_segments":[],"categories_sizes":[],"default_left":[0,0,0,0,0,0,0,0,0,0,0,0,0],"id":41,"left_children":[1,3,5,7,9,11,-1,-1,-1,-1,-1,-1,-1],"loss_changes":[3.178394E0,3.4841027E0,1.1450435E1,6.5357947E0,3.1278038E-1,1.6839765E0,0E0,0E0,0E0,0E0,0E0,0E0,0E0],"parents":[2147483647,0,0,1,1,2,2,3,3,4,4,5,5],"right_children":[2,4,6,8,10,12,-1,-1,-1,-1,-1,-1,-1],"split_conditions":[1.9E1,1.8E1,6E0,1.7E1,1E0,3.1E1,1.17995955E-1,-2.0778768E-2,1.3215259E-1,-2.5821438E-2,-1.223743E-1,-2.4324963E-2,5.5261496E-2],"split_indices":[1,1,2,1,0,1,0,0,0,0,0,0,0],"split_type":[0,0,0,0,0,0,0,0,0,0,0,0,0],"sum_hessian":[3.7E1,1.9E1,1.8E1,1.7E1,2E0,1.3E1,5E0,1.6E1,1E0,1E0,1E0,1.2E1,1E0],"tree_param":{"num_deleted":"0","num_feature":"4","num_nodes":"13","size_leaf_vector":"1"}},{"base_weights":[3.834266E-2,-2.2340328E-1,3.1184664E-1,7.254366E-2,-7.8338236E-1,-1.6675925E-1,1.1012954E-1,1.0316014E-1,-1.9019295E-2,-1.7948791E-2,-1.1631673E-1,4.160721E-2,-2.5965998E-2],"categories":[],"categories_nodes":[],"categories_segments":[],"categories_sizes":[],"default_left":[0,0,0,0,0,0,0,0,0,0,0,0,0],"id":42,"left_children":[1,3,5,7,9,11,-1,-1,-1,-1,-1,-1,-1],"loss_changes":[2.790033E0,3.3713112E0,9.912087E0,5.593019E0,2.297862E0,1.6863472E0,0E0,0E0,0E0,0E0,0E0,0E0,0E0],"parents":[2147483647,0,0,1,1,2,2,3,3,4,4,5,5],"right_children":[2,4,6,8,10,12,-1,-1,-1,-1,-1,-1,-1],"split_conditions":[1.9E1,1.4E1,6E0,1E0,3E0,2.1E1,1.1012954E-1,1.0316014E-1,-1.9019295E-2,-1.7948791E-2,-1.1631673E-1,4.160721E-2,-2.5965998E-2],"split_indices":[1,1,2,0,0,1,0,0,0,0,0,0,0],"split_type":[0,0,0,0,0,0,0,0,0,0,0,0,0],"sum_hessian":[3.7E1,1.9E1,1.8E1,1.3E1,6E0,1.3E1,5E0,2E0,1.1E1,4E0,2E0,2E0,1.1E1],"tree_param":{"num_deleted":"0","num_feature":"4","num_nodes":"13","size_leaf_vector":"1"}},{"base_weights":[3.7265822E-2,-4.7650027E-1,1.686485E-1,3.2036096E-1,-1.08276136E-1,3.8550875E-1,-4.0428865E-1,7.3311955E-2,-4.6198843E-3,6.1178575E-3,9.986911E-2,-8.203043E-2,2.3812858E-2],"categories":[],"categories_nodes":[],"categories_segments":[],"categories_sizes":[],"default_left":[0,0,0,0,0,0,0,0,0,0,0,0,0],"id":43,"left_children":[1,3,5,7,-1,9,11,-1,-1,-1,-1,-1,-1],"loss_changes":[2.6453595E0,6.0240617E0,4.007523E0,1.17976E0,0E0,6.03755E0,4.228989E0,0E0,0E0,0E0,0E0,0E0,0E0],"parents":[2147483647,0,0,1,1,2,2,3,3,5,5,6,6],"right_children":[2,4,6,8,-1,10,12,-1,-1,-1,-1,-1,-1],"split_conditions":[8E0,4E0,2.4E1,1E0,-1.08276136E-1,5E0,2.8E1,7.3311955E-2,-4.6198843E-3,6.1178575E-3,9.986911E-2,-8.203043E-2,2.3812858E-2],"split_indices":[1,0,1,0,0,0,1,0,0,0,0,0,0],"split_type":[0,0,0,0,0,0,0,0,0,0,0,0,0],"sum_hessian":[3.7E1,7E0,3E1,4E0,3E0,2.2E1,8E0,1E0,3E0,1.7E1,5E0,4E0,4E0],"tree_param":{"num_deleted":"0","num_feature":"4","num_nodes":"13","size_leaf_vector":"1"}},{"base_weights":[3.4499954E-2,-2.0781428E-1,2.8775176E-1,8.238721E-2,-7.585295E-1,-1.4454906E-1,9.987961E-2,-1.21614775E-2,1.2518644E-1,-1.0117063E-1,-5.0234934E-3,-2.0628406E-2,5.313717E-2],"categories":[],"categories_nodes":[],"categories_segments":[],"categories_sizes":[],"default_left":[0,0,0,0,0,0,0,0,0,0,0,0,0],"id":44,"left_children":[1,3,5,7,9,11,-1,-1,-1,-1,-1,-1,-1],"loss_changes":[2.3917267E0,3.2588603E0,8.071742E0,5.1027875E0,2.3853893E0,1.4542001E0,0E0,0E0,0E0,0E0,0E0,0E0,0E0],"parents":[2147483647,0,0,1,1,2,2,3,3,4,4,5,5],"right_children":[2,4,6,8,10,12,-1,-1,-1,-1,-1,-1,-1],"split_conditions":[1.9E1,1.4E1,6E0,1.3E1,1.7E1,3.1E1,9.987961E-2,-1.21614775E-2,1.2518644E-1,-1.0117063E-1,-5.0234934E-3,-2.0628406E-2,5.313717E-2],"split_indices":[1,1,2,1,1,1,0,0,0,0,0,0,0],"split_type":[0,0,0,0,0,0,0,0,0,0,0,0,0],"sum_hessian":[3.7E1,1.9E1,1.8E1,1.3E1,6E0,1.3E1,5E0,1.2E1,1E0,3E0,3E0,1.2E1,1E0],"tree_param":{"num_deleted":"0","num_feature":"4","num_nodes":"13","size_leaf_vector":"1"}},{"base_weights":[3.540342E-2,-4.3268698E-1,1.550589E-1,3.1819963E-1,-1.0104988E-1,3.5309964E-1,-3.68274E-1,7.086594E-2,-3.6130047E-3,5.9271185E-3,9.050254E-2,-7.546026E-2,2.242881E-2],"categories":[],"categories_nodes":[],"categories_segments":[],"categories_sizes":[],"default_left":[0,0,0,0,0,0,0,0,0,0,0,0,0],"id":45,"left_children":[1,3,5,7,-1,9,11,-1,-1,-1,-1,-1,-1],"loss_changes":[2.195456E0,5.390435E0,3.3429158E0,1.0712727E0,0E0,4.9099693E0,3.6210117E0,0E0,0E0,0E0,0E0,0E0,0E0],"parents":[2147483647,0,0,1,1,2,2,3,3,5,5,6,6],"right_children":[2,4,6,8,-1,10,12,-1,-1,-1,-1,-1,-1],"split_conditions":[8E0,4E0,2.4E1,1E0,-1.0104988E-1,5E0,2.8E1,7.086594E-2,-3.6130047E-3,5.9271185E-3,9.050254E-2,-7.546026E-2,2.242881E-2],"split_indices":[1,0,1,0,0,0,1,0,0,0,0,0,0],"split_type":[0,0,0,0,0,0,0,0,0,0,0,0,0],"sum_hessian":[3.7E1,7E0,3E1,4E0,3E0,2.2E1,8E0,1E0,3E0,1.7E1,5E0,4E0,4E0],"tree_param":{"num_deleted":"0","num_feature":"4","num_nodes":"13","size_leaf_vector":"1"}},{"base_weights":[3.282368E-2,-1.9070539E-1,2.6638988E-1,-2.0979563E-2,-1.1454918E0,-1.2366932E-1,9.057037E-2,-1.6753988E-2,1.2730362E-1,-2.4351502E-2,-1.1310752E-1,3.9845936E-2,-2.1503953E-2],"categories":[],"categories_nodes":[],"categories_segments":[],"categories_sizes":[],"default_left":[0,0,0,0,0,0,0,0,0,0,0,0,0],"id":46,"left_children":[1,3,5,7,9,11,-1,-1,-1,-1,-1,-1,-1],"loss_changes":[2.0347376E0,3.2170067E0,6.5561156E0,5.802118E0,2.4676609E-1,1.397154E0,0E0,0E0,0E0,0E0,0E0,0E0,0E0],"parents":[2147483647,0,0,1,1,2,2,3,3,4,4,5,5],"right_children":[2,4,6,8,10,12,-1,-1,-1,-1,-1,-1,-1],"split_conditions":[1.9E1,1.8E1,6E0,1.7E1,1E0,2.1E1,9.057037E-2,-1.6753988E-2,1.2730362E-1,-2.4351502E-2,-1.1310752E-1,3.9845936E-2,-2.1503953E-2],"split_indices":[1,1,2,1,0,1,0,0,0,0,0,0,0],"split_type":[0,0,0,0,0,0,0,0,0,0,0,0,0],"sum_hessian":[3.7E1,1.9E1,1.8E1,1.7E1,2E0,1.3E1,5E0,1.6E1,1E0,1E0,1E0,2E0,1.1E1],"tree_param":{"num_deleted":"0","num_feature":"4","num_nodes":"13","size_leaf_vector":"1"}},{"base_weights":[3.2356113E-2,-1.7679432E-1,2.508115E-1,1.08211316E-1,-7.215492E-1,-1.12465486E-1,8.453247E-2,4.4546146E-2,-4.6619773E-2,-9.614229E-2,-4.874601E-3,-1.753159E-2,5.0974675E-2],"categories":[],"categories_nodes":[],"categories_segments":[],"categories_sizes":[],"default_left":[0,0,0,0,0,0,0,0,0,0,0,0,0],"id":47,"left_children":[1,3,5,7,9,11,-1,-1,-1,-1,-1,-1,-1],"loss_changes":[1.7805635E0,3.1832442E0,5.6809864E0,4.664135E0,2.1475055E0,1.2592448E0,0E0,0E0,0E0,0E0,0E0,0E0,0E0],"parents":[2147483647,0,0,1,1,2,2,3,3,4,4,5,5],"right_children":[2,4,6,8,10,12,-1,-1,-1,-1,-1,-1,-1],"split_conditions":[1.9E1,1.4E1,6E0,4E0,1.7E1,3.1E1,8.453247E-2,4.4546146E-2,-4.6619773E-2,-9.614229E-2,-4.874601E-3,-1.753159E-2,5.0974675E-2],"split_indices":[1,1,2,0,1,1,0,0,0,0,0,0,0],"split_type":[0,0,0,0,0,0,0,0,0,0,0,0,0],"sum_hessian":[3.7E1,1.9E1,1.8E1,1.3E1,6E0,1.3E1,5E0,8E0,5E0,3E0,3E0,1.2E1,1E0],"tree_param":{"num_deleted":"0","num_feature":"4","num_nodes":"13","size_leaf_vector":"1"}},{"base_weights":[3.015911E-2,-3.9242733E-1,1.382408E-1,2.8396073E-1,-9.1184445E-2,3.1060994E-1,-3.1761822E-1,6.691963E-2,-5.0637433E-3,4.1944566E-3,8.2670346E-2,-6.8132535E-2,2.2395516E-2],"categories":[],"categories_nodes":[],"categories_segments":[],"categories_sizes":[],"default_left":[0,0,0,0,0,0,0,0,0,0,0,0,0],"id":48,"left_children":[1,3,5,7,-1,9,11,-1,-1,-1,-1,-1,-1],"loss_changes":[1.789856E0,4.3678017E0,2.5345123E0,1.0123066E0,0E0,4.237712E0,3.1105068E0,0E0,0E0,0E0,0E0,0E0,0E0],"parents":[2147483647,0,0,1,1,2,2,3,3,5,5,6,6],"right_children":[2,4,6,8,-1,10,12,-1,-1,-1,-1,-1,-1],"split_conditions":[8E0,4E0,2.4E1,1E0,-9.1184445E-2,5E0,2.8E1,6.691963E-2,-5.0637433E-3,4.1944566E-3,8.2670346E-2,-6.8132535E-2,2.2395516E-2],"split_indices":[1,0,1,0,0,0,1,0,0,0,0,0,0],"split_type":[0,0,0,0,0,0,0,0,0,0,0,0,0],"sum_hessian":[3.7E1,7E0,3E1,4E0,3E0,2.2E1,8E0,1E0,3E0,1.7E1,5E0,4E0,4E0],"tree_param":{"num_deleted":"0","num_feature":"4","num_nodes":"13","size_leaf_vector":"1"}},{"base_weights":[2.8056717E-2,-1.670782E-1,2.3198521E-1,-2.4393399E-3,-1.0992186E0,-9.5115356E-2,7.652445E-2,-1.4587644E-2,1.2223865E-1,-2.3350218E-2,-1.0855601E-1,3.843216E-2,-1.8485473E-2],"categories":[],"categories_nodes":[],"categories_segments":[],"categories_sizes":[],"default_left":[0,0,0,0,0,0,0,0,0,0,0,0,0],"id":49,"left_children":[1,3,5,7,9,11,-1,-1,-1,-1,-1,-1,-1],"loss_changes":[1.5509154E0,3.066649E0,4.594124E0,5.2346063E0,2.2816801E-1,1.2064126E0,0E0,0E0,0E0,0E0,0E0,0E0,0E0],"parents":[2147483647,0,0,1,1,2,2,3,3,4,4,5,5],"right_children":[2,4,6,8,10,12,-1,-1,-1,-1,-1,-1,-1],"split_conditions":[1.9E1,1.8E1,6E0,1.7E1,1E0,2.1E1,7.652445E-2,-1.4587644E-2,1.2223865E-1,-2.3350218E-2,-1.0855601E-1,3.843216E-2,-1.8485473E-2],"split_indices":[1,1,2,1,0,1,0,0,0,0,0,0,0],"split_type":[0,0,0,0,0,0,0,0,0,0,0,0,0],"sum_hessian":[3.7E1,1.9E1,1.8E1,1.7E1,2E0,1.3E1,5E0,1.6E1,1E0,1E0,1E0,2E0,1.1E1],"tree_param":{"num_deleted":"0","num_feature":"4","num_nodes":"13","size_leaf_vector":"1"}},{"base_weights":[2.7712822E-2,-3.5193485E-1,1.2479245E-1,2.8528517E-1,-8.483809E-2,6.4499867E-1,-2.585699E-2,6.4826354E-2,-3.8846587E-3,2.1409709E-2,1.1637051E-1,-9.131966E-2,1.4252937E-2],"categories":[],"categories_nodes":[],"categories_segments":[],"categories_sizes":[],"default_left":[0,0,0,0,0,0,0,0,0,0,0,0,0],"id":50,"left_children":[1,3,5,7,-1,9,11,-1,-1,-1,-1,-1,-1],"loss_changes":[1.444449E0,3.9145117E0,2.4461098E0,9.15761E-1,0E0,1.7494686E0,5.8936505E0,0E0,0E0,0E0,0E0,0E0,0E0],"parents":[2147483647,0,0,1,1,2,2,3,3,5,5,6,6],"right_children":[2,4,6,8,-1,10,12,-1,-1,-1,-1,-1,-1],"split_conditions":[8E0,4E0,1.4E1,1E0,-8.483809E-2,5E0,1.7E1,6.4826354E-2,-3.8846587E-3,2.1409709E-2,1.1637051E-1,-9.131966E-2,1.4252937E-2],"split_indices":[1,0,1,0,0,0,1,0,0,0,0,0,0],"split_type":[0,0,0,0,0,0,0,0,0,0,0,0,0],"sum_hessian":[3.7E1,7E0,3E1,4E0,3E0,6E0,2.4E1,1E0,3E0,5E0,1E0,3E0,2.1E1],"tree_param":{"num_deleted":"0","num_feature":"4","num_nodes":"13","size_leaf_vector":"1"}},{"base_weights":[2.646482E-2,-3.267671E-1,1.16767734E-1,2.7465087E-1,-7.974782E-2,6.1308163E-1,-2.6870871E-2,6.2233314E-2,-3.6515712E-3,1.9982388E-2,1.117157E-1,-8.584048E-2,1.3164554E-2],"categories":[],"categories_nodes":[],"categories_segments":[],"categories_sizes":[],"default_left":[0,0,0,0,0,0,0,0,0,0,0,0,0],"id":51,"left_children":[1,3,5,7,-1,9,11,-1,-1,-1,-1,-1,-1],"loss_changes":[1.250275E0,3.4977736E0,2.2264593E0,8.4147614E-1,0E0,1.6433802E0,5.183054E0,0E0,0E0,0E0,0E0,0E0,0E0],"parents":[2147483647,0,0,1,1,2,2,3,3,5,5,6,6],"right_children":[2,4,6,8,-1,10,12,-1,-1,-1,-1,-1,-1],"split_conditions":[8E0,4E0,1.4E1,1E0,-7.974782E-2,5E0,1.7E1,6.2233314E-2,-3.6515712E-3,1.9982388E-2,1.117157E-1,-8.584048E-2,1.3164554E-2],"split_indices":[1,0,1,0,0,0,1,0,0,0,0,0,0],"split_type":[0,0,0,0,0,0,0,0,0,0,0,0,0],"sum_hessian":[3.7E1,7E0,3E1,4E0,3E0,6E0,2.4E1,1E0,3E0,5E0,1E0,3E0,2.1E1],"tree_param":{"num_deleted":"0","num_feature":"4","num_nodes":"13","size_leaf_vector":"1"}},{"base_weights":[2.53439E-2,1.236714E-1,-3.052304E-1,4.8794663E-3,9.5293775E-2,-8.042965E-1,2.5488177E-1,1.5565947E-2,-2.4477912E-2,-3.0322237E-2,-1.00214824E-1,5.3924814E-2,-1.994058E-2],"categories":[],"categories_nodes":[],"categories_segments":[],"categories_sizes":[],"default_left":[0,0,0,0,0,0,0,0,0,0,0,0,0],"id":52,"left_children":[1,3,5,7,-1,9,11,-1,-1,-1,-1,-1,-1],"loss_changes":[1.272921E0,3.7985024E0,2.7207975E0,1.710619E0,0E0,4.7862554E-1,1.2246354E0,0E0,0E0,0E0,0E0,0E0,0E0],"parents":[2147483647,0,0,1,1,2,2,3,3,5,5,6,6],"right_children":[2,4,6,8,-1,10,12,-1,-1,-1,-1,-1,-1],"split_conditions":[2.4E1,2.3E1,2.8E1,4E0,9.5293775E-2,2.7E1,5E0,1.5565947E-2,-2.4477912E-2,-3.0322237E-2,-1.00214824E-1,5.3924814E-2,-1.994058E-2],"split_indices":[1,1,1,0,0,1,0,0,0,0,0,0,0],"split_type":[0,0,0,0,0,0,0,0,0,0,0,0,0],"sum_hessian":[3.7E1,2.9E1,8E0,2.7E1,2E0,4E0,4E0,1.7E1,1E1,3E0,1E0,2E0,2E0],"tree_param":{"num_deleted":"0","num_feature":"4","num_nodes":"13","size_leaf_vector":"1"}},{"base_weights":[2.3048734E-2,1.1665712E-1,-2.915402E-1,-1.3752462E-1,5.682005E-1,-7.6606023E-1,2.412879E-1,2.2276624E-3,-8.6712435E-2,2.5486916E-2,9.021141E-2,-2.8502911E-2,-9.6206225E-2,5.104881E-2,-1.8877093E-2],"categories":[],"categories_nodes":[],"categories_segments":[],"categories_sizes":[],"default_left":[0,0,0,0,0,0,0,0,0,0,0,0,0,0,0],"id":53,"left_children":[1,3,5,7,9,11,13,-1,-1,-1,-1,-1,-1,-1,-1],"loss_changes":[1.1530404E0,3.5213642E0,2.4603798E0,3.1602497E0,1.1768391E0,4.659052E-1,1.097491E0,0E0,0E0,0E0,0E0,0E0,0E0,0E0,0E0],"parents":[2147483647,0,0,1,1,2,2,3,3,4,4,5,5,6,6],"right_children":[2,4,6,8,10,12,14,-1,-1,-1,-1,-1,-1,-1,-1],"split_conditions":[2.4E1,1.9E1,2.8E1,1.8E1,2.3E1,2.7E1,5E0,2.2276624E-3,-8.6712435E-2,2.5486916E-2,9.021141E-2,-2.8502911E-2,-9.6206225E-2,5.104881E-2,-1.8877093E-2],"split_indices":[1,1,1,1,1,1,0,0,0,0,0,0,0,0,0],"split_type":[0,0,0,0,0,0,0,0,0,0,0,0,0,0,0],"sum_hessian":[3.7E1,2.9E1,8E0,1.9E1,1E1,4E0,4E0,1.7E1,2E0,8E0,2E0,3E0,1E0,2E0,2E0],"tree_param":{"num_deleted":"0","num_feature":"4","num_nodes":"15","size_leaf_vector":"1"}},{"base_weights":[1.9591112E-2,5.9032246E-2,-1.9766053E-2,-5.580574E-1,1.0242123E-1,-4.5000934E-3,-7.362795E-2,4.6323087E-2,-2.8102791E-3],"categories":[],"categories_nodes":[],"categories_segments":[],"categories_sizes":[],"default_left":[0,0,0,0,0,0,0,0,0],"id":54,"left_children":[1,-1,3,5,7,-1,-1,-1,-1],"loss_changes":[1.0888729E0,0E0,2.4907343E0,1.2208316E0,2.052657E0,0E0,0E0,0E0,0E0],"parents":[2147483647,0,0,2,2,3,3,4,4],"right_children":[2,-1,4,6,8,-1,-1,-1,-1],"split_conditions":[2E0,5.9032246E-2,8E0,4E0,1.4E1,-4.5000934E-3,-7.362795E-2,4.6323087E-2,-2.8102791E-3],"split_indices":[1,0,1,0,1,0,0,0,0],"split_type":[0,0,0,0,0,0,0,0,0],"sum_hessian":[3.7E1,1E0,3.6E1,6E0,3E1,3E0,3E0,6E0,2.4E1],"tree_param":{"num_deleted":"0","num_feature":"4","num_nodes":"9","size_leaf_vector":"1"}},{"base_weights":[1.866662E-2,1.064446E-1,-2.760007E-1,-1.350332E-1,5.3581834E-1,-7.2746885E-1,2.3066759E-1,1.6533639E-3,-8.1937894E-2,1.1865145E-2,6.672155E-2,-2.6624106E-2,-9.224556E-2,4.8476104E-2,-1.7720426E-2],"categories":[],"categories_nodes":[],"categories_segments":[],"categories_sizes":[],"default_left":[0,0,0,0,0,0,0,0,0,0,0,0,0,0,0],"id":55,"left_children":[1,3,5,7,9,11,13,-1,-1,-1,-1,-1,-1,-1,-1],"loss_changes":[1.0122602E0,3.1828802E0,2.2265048E0,2.7901113E0,1.147398E0,4.5611072E-1,9.82687E-1,0E0,0E0,0E0,0E0,0E0,0E0,0E0,0E0],"parents":[2147483647,0,0,1,1,2,2,3,3,4,4,5,5,6,6],"right_children":[2,4,6,8,10,12,14,-1,-1,-1,-1,-1,-1,-1,-1],"split_conditions":[2.4E1,1.9E1,2.8E1,1.8E1,6E0,2.7E1,5E0,1.6533639E-3,-8.1937894E-2,1.1865145E-2,6.672155E-2,-2.6624106E-2,-9.224556E-2,4.8476104E-2,-1.7720426E-2],"split_indices":[1,1,1,1,2,1,0,0,0,0,0,0,0,0,0],"split_type":[0,0,0,0,0,0,0,0,0,0,0,0,0,0,0],"sum_hessian":[3.7E1,2.9E1,8E0,1.9E1,1E1,4E0,4E0,1.7E1,2E0,5E0,5E0,3E0,1E0,2E0,2E0],"tree_param":{"num_deleted":"0","num_feature":"4","num_nodes":"15","size_leaf_vector":"1"}},{"base_weights":[1.4809571E-2,5.6604803E-2,-2.303666E-2,-5.259911E-1,9.127682E-2,-4.3292902E-3,-6.9309466E-2,4.303327E-2,-2.994656E-3],"categories":[],"categories_nodes":[],"categories_segments":[],"categories_sizes":[],"default_left":[0,0,0,0,0,0,0,0,0],"id":56,"left_children":[1,-1,3,5,7,-1,-1,-1,-1],"loss_changes":[1.0125836E0,0E0,2.175306E0,1.0774238E0,1.8022307E0,0E0,0E0,0E0,0E0],"parents":[2147483647,0,0,2,2,3,3,4,4],"right_children":[2,-1,4,6,8,-1,-1,-1,-1],"split_conditions":[2E0,5.6604803E-2,8E0,4E0,1.4E1,-4.3292902E-3,-6.9309466E-2,4.303327E-2,-2.994656E-3],"split_indices":[1,0,1,0,1,0,0,0,0],"split_type":[0,0,0,0,0,0,0,0,0],"sum_hessian":[3.7E1,1E0,3.6E1,6E0,3E1,3E0,3E0,6E0,2.4E1],"tree_param":{"num_deleted":"0","num_feature":"4","num_nodes":"9","size_leaf_vector":"1"}},{"base_weights":[1.4230075E-2,5.4340627E-2,-2.2101969E-2,-4.9443176E-1,8.526611E-2,-4.069538E-3,-6.515091E-2,-5.252647E-3,3.6918983E-2],"categories":[],"categories_nodes":[],"categories_segments":[],"categories_sizes":[],"default_left":[0,0,0,0,0,0,0,0,0],"id":57,"left_children":[1,-1,3,5,7,-1,-1,-1,-1],"loss_changes":[9.3316203E-1,0E0,1.9185447E0,9.5201194E-1,1.7905077E0,0E0,0E0,0E0,0E0],"parents":[2147483647,0,0,2,2,3,3,4,4],"right_children":[2,-1,4,6,8,-1,-1,-1,-1],"split_conditions":[2E0,5.4340627E-2,8E0,4E0,5E0,-4.069538E-3,-6.515091E-2,-5.252647E-3,3.6918983E-2],"split_indices":[1,0,1,0,0,0,0,0,0],"split_type":[0,0,0,0,0,0,0,0,0],"sum_hessian":[3.7E1,1E0,3.6E1,6E0,3E1,3E0,3E0,2.2E1,8E0],"tree_param":{"num_deleted":"0","num_feature":"4","num_nodes":"9","size_leaf_vector":"1"}},{"base_weights":[1.3533523E-2,9.82737E-2,-2.7043745E-1,-5.558993E-3,8.276967E-2,-6.9488174E-1,2.0809431E-1,1.3155031E-2,-2.2658426E-2,-2.537525E-2,-8.822584E-2,4.6330564E-2,-1.8584657E-2],"categories":[],"categories_nodes":[],"categories_segments":[],"categories_sizes":[],"default_left":[0,0,0,0,0,0,0,0,0,0,0,0,0],"id":58,"left_children":[1,3,5,7,-1,9,11,-1,-1,-1,-1,-1,-1],"loss_changes":[9.409994E-1,2.9224548E0,1.9725916E0,1.3682652E0,0E0,4.205737E-1,9.51567E-1,0E0,0E0,0E0,0E0,0E0,0E0],"parents":[2147483647,0,0,1,1,2,2,3,3,5,5,6,6],"right_children":[2,4,6,8,-1,10,12,-1,-1,-1,-1,-1,-1],"split_conditions":[2.4E1,2.3E1,2.8E1,4E0,8.276967E-2,2.7E1,5E0,1.3155031E-2,-2.2658426E-2,-2.537525E-2,-8.822584E-2,4.6330564E-2,-1.8584657E-2],"split_indices":[1,1,1,0,0,1,0,0,0,0,0,0,0],"split_type":[0,0,0,0,0,0,0,0,0,0,0,0,0],"sum_hessian":[3.7E1,2.9E1,8E0,2.7E1,2E0,4E0,4E0,1.7E1,1E1,3E0,1E0,2E0,2E0],"tree_param":{"num_deleted":"0","num_feature":"4","num_nodes":"13","size_leaf_vector":"1"}},{"base_weights":[1.2119563E-2,9.2854E-2,-2.5834185E-1,-1.2719363E-1,4.8449934E-1,-5.8946043E-1,3.0292153E-1,1.6655033E-3,-7.782962E-2,9.733963E-3,6.1325934E-2,-5.768793E-2,-1.7396431E-2,7.485765E-2,-1.7593473E-2],"categories":[],"categories_nodes":[],"categories_segments":[],"categories_sizes":[],"default_left":[0,0,0,0,0,0,0,0,0,0,0,0,0,0,0],"id":59,"left_children":[1,3,5,7,9,11,13,-1,-1,-1,-1,-1,-1,-1,-1],"loss_changes":[8.5373896E-1,2.647044E0,1.8511631E0,2.5236669E0,1.0325086E0,1.3701439E-1,1.5291929E0,0E0,0E0,0E0,0E0,0E0,0E0,0E0,0E0],"parents":[2147483647,0,0,1,1,2,2,3,3,4,4,5,5,6,6],"right_children":[2,4,6,8,10,12,14,-1,-1,-1,-1,-1,-1,-1,-1],"split_conditions":[2.4E1,1.9E1,2.9E1,1.8E1,6E0,3E0,5E0,1.6655033E-3,-7.782962E-2,9.733963E-3,6.1325934E-2,-5.768793E-2,-1.7396431E-2,7.485765E-2,-1.7593473E-2],"split_indices":[1,1,1,1,2,0,0,0,0,0,0,0,0,0,0],"split_type":[0,0,0,0,0,0,0,0,0,0,0,0,0,0,0],"sum_hessian":[3.7E1,2.9E1,8E0,1.9E1,1E1,5E0,3E0,1.7E1,2E0,5E0,5E0,3E0,2E0,1E0,2E0],"tree_param":{"num_deleted":"0","num_feature":"4","num_nodes":"15","size_leaf_vector":"1"}},{"base_weights":[1.0546835E-2,5.157421E-2,-2.4015555E-2,-4.621208E-1,7.5686134E-2,-4.714613E-3,-5.99823E-2,3.976299E-2,-3.6255722E-3],"categories":[],"categories_nodes":[],"categories_segments":[],"categories_sizes":[],"default_left":[0,0,0,0,0,0,0,0,0],"id":60,"left_children":[1,-1,3,5,7,-1,-1,-1,-1],"loss_changes":[8.483312E-1,0E0,1.65113E0,7.676754E-1,1.6030895E0,0E0,0E0,0E0,0E0],"parents":[2147483647,0,0,2,2,3,3,4,4],"right_children":[2,-1,4,6,8,-1,-1,-1,-1],"split_conditions":[2E0,5.157421E-2,8E0,4E0,1.4E1,-4.714613E-3,-5.99823E-2,3.976299E-2,-3.6255722E-3],"split_indices":[1,0,1,0,1,0,0,0,0],"split_type":[0,0,0,0,0,0,0,0,0],"sum_hessian":[3.7E1,1E0,3.6E1,6E0,3E1,3E0,3E0,6E0,2.4E1],"tree_param":{"num_deleted":"0","num_feature":"4","num_nodes":"9","size_leaf_vector":"1"}},{"base_weights":[1.0308472E-2,-1.5422714E-1,1.3698107E-1,1.0269342E-1,-8.119138E-2,1.1546905E-1,6.0408115E-3,-6.886279E-3,1.02269135E-1,-7.348534E-2,1.2137083E-2],"categories":[],"categories_nodes":[],"categories_segments":[],"categories_sizes":[],"default_left":[0,0,0,0,0,0,0,0,0,0,0],"id":61,"left_children":[1,3,5,7,-1,-1,9,-1,-1,-1,-1],"loss_changes":[8.1312805E-1,3.8633065E0,3.754557E0,3.2171104E0,0E0,0E0,2.9678516E0,0E0,0E0,0E0,0E0],"parents":[2147483647,0,0,1,1,2,2,3,3,6,6],"right_children":[2,4,6,8,-1,-1,10,-1,-1,-1,-1],"split_conditions":[1.7E1,1.4E1,1.8E1,1.3E1,-8.119138E-2,1.1546905E-1,1.9E1,-6.886279E-3,1.02269135E-1,-7.348534E-2,1.2137083E-2],"split_indices":[1,1,1,1,0,0,1,0,0,0,0],"split_type":[0,0,0,0,0,0,0,0,0,0,0],"sum_hessian":[3.7E1,1.6E1,2.1E1,1.3E1,3E0,1E0,2E1,1.2E1,1E0,2E0,1.8E1],"tree_param":{"num_deleted":"0","num_feature":"4","num_nodes":"11","size_leaf_vector":"1"}},{"base_weights":[1.1281383E-2,-2.2066535E-2,4.9806174E-2,2.9730115E-2,-7.546984E-2,-1.6406582E-3,7.1522884E-2],"categories":[],"categories_nodes":[],"categories_segments":[],"categories_sizes":[],"default_left":[0,0,0,0,0,0,0],"id":62,"left_children":[1,3,-1,5,-1,-1,-1],"loss_changes":[7.883849E-1,1.7937083E0,0E0,1.5815018E0,0E0,0E0,0E0],"parents":[2147483647,0,0,1,1,3,3],"right_children":[2,4,-1,6,-1,-1,-1],"split_conditions":[3.1E1,3E1,4.9806174E-2,2.9E1,-7.546984E-2,-1.6406582E-3,7.1522884E-2],"split_indices":[1,1,0,1,0,0,0],"split_type":[0,0,0,0,0,0,0],"sum_hessian":[3.7E1,3.6E1,1E0,3.5E1,1E0,3.4E1,1E0],"tree_param":{"num_deleted":"0","num_feature":"4","num_nodes":"7","size_leaf_vector":"1"}},{"base_weights":[1.1542446E-2,9.004172E-2,-2.514043E-1,-5.438072E-3,7.60938E-2,-4.3224835E-1,4.781393E-2,1.2655639E-2,-2.1816619E-2,-1.8819552E-2,-7.245104E-2],"categories":[],"categories_nodes":[],"categories_segments":[],"categories_sizes":[],"default_left":[0,0,0,0,0,0,0,0,0,0,0],"id":63,"left_children":[1,3,5,7,-1,9,-1,-1,-1,-1,-1],"loss_changes":[8.069997E-1,2.47179E0,1.640301E0,1.2677011E0,0E0,5.3303087E-1,0E0,0E0,0E0,0E0,0E0],"parents":[2147483647,0,0,1,1,2,2,3,3,5,5],"right_children":[2,4,6,8,-1,10,-1,-1,-1,-1,-1],"split_conditions":[2.4E1,2.3E1,3.1E1,4E0,7.60938E-2,3E1,4.781393E-2,1.2655639E-2,-2.1816619E-2,-1.8819552E-2,-7.245104E-2],"split_indices":[1,1,1,0,0,1,0,0,0,0,0],"split_type":[0,0,0,0,0,0,0,0,0,0,0],"sum_hessian":[3.7E1,2.9E1,8E0,2.7E1,2E0,7E0,1E0,1.7E1,1E1,6E0,1E0],"tree_param":{"num_deleted":"0","num_feature":"4","num_nodes":"11","size_leaf_vector":"1"}},{"base_weights":[1.1236755E-2,4.9346123E-2,-2.1801524E-2,-4.2315838E-1,6.953072E-2,-4.6794508E-3,-5.456272E-2,-5.8146287E-3,3.401918E-2],"categories":[],"categories_nodes":[],"categories_segments":[],"categories_sizes":[],"default_left":[0,0,0,0,0,0,0,0,0],"id":64,"left_children":[1,-1,3,5,7,-1,-1,-1,-1],"loss_changes":[7.7373827E-1,0E0,1.3857249E0,6.209264E-1,1.599094E0,0E0,0E0,0E0,0E0],"parents":[2147483647,0,0,2,2,3,3,4,4],"right_children":[2,-1,4,6,8,-1,-1,-1,-1],"split_conditions":[2E0,4.9346123E-2,8E0,4E0,5E0,-4.6794508E-3,-5.456272E-2,-5.8146287E-3,3.401918E-2],"split_indices":[1,0,1,0,0,0,0,0,0],"split_type":[0,0,0,0,0,0,0,0,0],"sum_hessian":[3.7E1,1E0,3.6E1,6E0,3E1,3E0,3E0,2.2E1,8E0],"tree_param":{"num_deleted":"0","num_feature":"4","num_nodes":"9","size_leaf_vector":"1"}},{"base_weights":[1.08194975E-2,8.697368E-2,-2.4422996E-1,-2.2825685E-3,7.1283266E-2,-5.4665405E-1,2.704637E-1,1.1878466E-2,-1.9902306E-2,-2.0928172E-2,-5.9560418E-2,6.964733E-2,-1.7582092E-2],"categories":[],"categories_nodes":[],"categories_segments":[],"categories_sizes":[],"default_left":[0,0,0,0,0,0,0,0,0,0,0,0,0],"id":65,"left_children":[1,3,5,7,-1,9,11,-1,-1,-1,-1,-1,-1],"loss_changes":[7.5931877E-1,2.1550744E0,1.5487521E0,1.077492E0,0E0,1.43623E-1,1.3681618E0,0E0,0E0,0E0,0E0,0E0,0E0],"parents":[2147483647,0,0,1,1,2,2,3,3,5,5,6,6],"right_children":[2,4,6,8,-1,10,12,-1,-1,-1,-1,-1,-1],"split_conditions":[2.4E1,2.3E1,2.9E1,4E0,7.1283266E-2,2.7E1,5E0,1.1878466E-2,-1.9902306E-2,-2.0928172E-2,-5.9560418E-2,6.964733E-2,-1.7582092E-2],"split_indices":[1,1,1,0,0,1,0,0,0,0,0,0,0],"split_type":[0,0,0,0,0,0,0,0,0,0,0,0,0],"sum_hessian":[3.7E1,2.9E1,8E0,2.7E1,2E0,5E0,3E0,1.7E1,1E1,3E0,2E0,1E0,2E0],"tree_param":{"num_deleted":"0","num_feature":"4","num_nodes":"13","size_leaf_vector":"1"}},{"base_weights":[1.0870707E-2,4.689716E-2,-2.0522762E-2,-4.3201056E-1,5.727254E-2,-5.1113795E-3,-6.2306516E-2,-5.629397E-3,2.7609382E-2],"categories":[],"categories_nodes":[],"categories_segments":[],"categories_sizes":[],"default_left":[0,0,0,0,0,0,0,0,0],"id":66,"left_children":[1,-1,3,5,7,-1,-1,-1,-1],"loss_changes":[6.983882E-1,0E0,1.2091796E0,7.1626556E-1,1.1999811E0,0E0,0E0,0E0,0E0],"parents":[2147483647,0,0,2,2,3,3,4,4],"right_children":[2,-1,4,6,8,-1,-1,-1,-1],"split_conditions":[2E0,4.689716E-2,7E0,4E0,5E0,-5.1113795E-3,-6.2306516E-2,-5.629397E-3,2.7609382E-2],"split_indices":[1,0,1,0,0,0,0,0,0],"split_type":[0,0,0,0,0,0,0,0,0],"sum_hessian":[3.7E1,1E0,3.6E1,5E0,3.1E1,3E0,2E0,2.2E1,9E0],"tree_param":{"num_deleted":"0","num_feature":"4","num_nodes":"9","size_leaf_vector":"1"}},{"base_weights":[1.0039499E-2,8.289429E-2,-2.3392528E-1,-1.0439207E-1,4.1587907E-1,-5.953506E-1,1.7428513E-1,2.416833E-3,-7.0176765E-2,6.0254545E-3,5.4970145E-2,-1.9999474E-2,-7.907118E-2,4.1354902E-2,-1.8116888E-2],"categories":[],"categories_nodes":[],"categories_segments":[],"categories_sizes":[],"default_left":[0,0,0,0,0,0,0,0,0,0,0,0,0,0,0],"id":67,"left_children":[1,3,5,7,9,11,13,-1,-1,-1,-1,-1,-1,-1,-1],"loss_changes":[6.948032E-1,1.9143198E0,1.4315991E0,2.1069639E0,9.643866E-1,4.3160343E-1,8.036468E-1,0E0,0E0,0E0,0E0,0E0,0E0,0E0,0E0],"parents":[2147483647,0,0,1,1,2,2,3,3,4,4,5,5,6,6],"right_children":[2,4,6,8,10,12,14,-1,-1,-1,-1,-1,-1,-1,-1],"split_conditions":[2.4E1,1.9E1,2.8E1,1.8E1,6E0,2.7E1,5E0,2.416833E-3,-7.0176765E-2,6.0254545E-3,5.4970145E-2,-1.9999474E-2,-7.907118E-2,4.1354902E-2,-1.8116888E-2],"split_indices":[1,1,1,1,2,1,0,0,0,0,0,0,0,0,0],"split_type":[0,0,0,0,0,0,0,0,0,0,0,0,0,0,0],"sum_hessian":[3.7E1,2.9E1,8E0,1.9E1,1E1,4E0,4E0,1.7E1,2E0,5E0,5E0,3E0,1E0,2E0,2E0],"tree_param":{"num_deleted":"0","num_feature":"4","num_nodes":"15","size_leaf_vector":"1"}},{"base_weights":[7.062887E-3,4.492462E-2,-2.3100698E-2,-3.803533E-1,5.831443E-2,-4.949703E-3,-4.829976E-2,3.5989515E-2,-4.292273E-3],"categories":[],"categories_nodes":[],"categories_segments":[],"categories_sizes":[],"default_left":[0,0,0,0,0,0,0,0,0],"id":68,"left_children":[1,-1,3,5,7,-1,-1,-1,-1],"loss_changes":[6.485434E-1,0E0,1.0983535E0,4.6067345E-1,1.383224E0,0E0,0E0,0E0,0E0],"parents":[2147483647,0,0,2,2,3,3,4,4],"right_children":[2,-1,4,6,8,-1,-1,-1,-1],"split_conditions":[2E0,4.492462E-2,8E0,4E0,1.4E1,-4.949703E-3,-4.829976E-2,3.5989515E-2,-4.292273E-3],"split_indices":[1,0,1,0,1,0,0,0,0],"split_type":[0,0,0,0,0,0,0,0,0],"sum_hessian":[3.7E1,1E0,3.6E1,6E0,3E1,3E0,3E0,6E0,2.4E1],"tree_param":{"num_deleted":"0","num_feature":"4","num_nodes":"9","size_leaf_vector":"1"}},{"base_weights":[7.1128984E-3,-2.3124522E-2,4.5035895E-2,2.5134848E-2,-7.041847E-2,-1.6805675E-3,6.560411E-2],"categories":[],"categories_nodes":[],"categories_segments":[],"categories_sizes":[],"default_left":[0,0,0,0,0,0,0],"id":69,"left_children":[1,3,-1,5,-1,-1,-1],"loss_changes":[6.516855E-1,1.5525707E0,0E0,1.3376708E0,0E0,0E0,0E0],"parents":[2147483647,0,0,1,1,3,3],"right_children":[2,4,-1,6,-1,-1,-1],"split_conditions":[3.1E1,3E1,4.5035895E-2,2.9E1,-7.041847E-2,-1.6805675E-3,6.560411E-2],"split_indices":[1,1,0,1,0,0,0],"split_type":[0,0,0,0,0,0,0],"sum_hessian":[3.7E1,3.6E1,1E0,3.5E1,1E0,3.4E1,1E0],"tree_param":{"num_deleted":"0","num_feature":"4","num_nodes":"7","size_leaf_vector":"1"}},{"base_weights":[7.558183E-3,7.6580845E-2,-2.2335714E-1,-5.7894504E-3,6.558746E-2,-3.863845E-1,4.323446E-2,1.0872159E-2,-1.8969746E-2,-1.6011799E-2,-6.760173E-2],"categories":[],"categories_nodes":[],"categories_segments":[],"categories_sizes":[],"default_left":[0,0,0,0,0,0,0,0,0,0,0],"id":70,"left_children":[1,3,5,7,-1,9,-1,-1,-1,-1,-1],"loss_changes":[6.227637E-1,1.8414289E0,1.329479E0,9.500043E-1,0E0,5.141928E-1,0E0,0E0,0E0,0E0,0E0],"parents":[2147483647,0,0,1,1,2,2,3,3,5,5],"right_children":[2,4,6,8,-1,10,-1,-1,-1,-1,-1],"split_conditions":[2.4E1,2.3E1,3.1E1,4E0,6.558746E-2,3E1,4.323446E-2,1.0872159E-2,-1.8969746E-2,-1.6011799E-2,-6.760173E-2],"split_indices":[1,1,1,0,0,1,0,0,0,0,0],"split_type":[0,0,0,0,0,0,0,0,0,0,0],"sum_hessian":[3.7E1,2.9E1,8E0,2.7E1,2E0,7E0,1E0,1.7E1,1E1,6E0,1E0],"tree_param":{"num_deleted":"0","num_feature":"4","num_nodes":"11","size_leaf_vector":"1"}},{"base_weights":[7.4038943E-3,-1.3593778E-1,1.1783137E-1,1.0988045E-1,-7.698537E-2,1.1009971E-1,-7.628702E-3,-5.4160366E-3,9.673729E-2,-6.669531E-2,9.8563E-3],"categories":[],"categories_nodes":[],"categories_segments":[],"categories_sizes":[],"default_left":[0,0,0,0,0,0,0,0,0,0,0],"id":71,"left_children":[1,3,5,7,-1,-1,9,-1,-1,-1,-1],"loss_changes":[6.175144E-1,3.5591047E0,3.4838777E0,2.814959E0,0E0,0E0,2.3723059E0,0E0,0E0,0E0,0E0],"parents":[2147483647,0,0,1,1,2,2,3,3,6,6],"right_children":[2,4,6,8,-1,-1,10,-1,-1,-1,-1],"split_conditions":[1.7E1,1.4E1,1.8E1,1.3E1,-7.698537E-2,1.1009971E-1,1.9E1,-5.4160366E-3,9.673729E-2,-6.669531E-2,9.8563E-3],"split_indices":[1,1,1,1,0,0,1,0,0,0,0],"split_type":[0,0,0,0,0,0,0,0,0,0,0],"sum_hessian":[3.7E1,1.6E1,2.1E1,1.3E1,3E0,1E0,2E1,1.2E1,1E0,2E0,1.8E1],"tree_param":{"num_deleted":"0","num_feature":"4","num_nodes":"11","size_leaf_vector":"1"}},{"base_weights":[8.5903155E-3,7.650195E-2,-2.1873628E-1,-4.8517328E-4,6.156382E-2,-5.57834E-1,1.6410875E-1,1.085588E-2,-1.7862964E-2,-1.8071804E-2,-7.54232E-2,3.8001888E-2,-1.6120719E-2],"categories":[],"categories_nodes":[],"categories_segments":[],"categories_sizes":[],"default_left":[0,0,0,0,0,0,0,0,0,0,0,0,0],"id":72,"left_children":[1,3,5,7,-1,9,11,-1,-1,-1,-1,-1,-1],"loss_changes":[6.0338235E-1,1.6010414E0,1.2599425E0,8.7987506E-1,0E0,4.2593086E-1,6.6410136E-1,0E0,0E0,0E0,0E0,0E0,0E0],"parents":[2147483647,0,0,1,1,2,2,3,3,5,5,6,6],"right_children":[2,4,6,8,-1,10,12,-1,-1,-1,-1,-1,-1],"split_conditions":[2.4E1,2.3E1,2.8E1,4E0,6.156382E-2,2.7E1,5E0,1.085588E-2,-1.7862964E-2,-1.8071804E-2,-7.54232E-2,3.8001888E-2,-1.6120719E-2],"split_indices":[1,1,1,0,0,1,0,0,0,0,0,0,0],"split_type":[0,0,0,0,0,0,0,0,0,0,0,0,0],"sum_hessian":[3.7E1,2.9E1,8E0,2.7E1,2E0,4E0,4E0,1.7E1,1E1,3E0,1E0,2E0,2E0],"tree_param":{"num_deleted":"0","num_feature":"4","num_nodes":"13","size_leaf_vector":"1"}},{"base_weights":[7.4543324E-3,-7.107316E-2,2.0666482E-1,-1.3084076E-1,6.1706085E-2,-3.7405792E-1,3.772763E-1,9.2239375E-4,-6.076622E-2,-4.064516E-2,-4.2417906E-3,5.8061164E-2,-1.9182013E-2],"categories":[],"categories_nodes":[],"categories_segments":[],"categories_sizes":[],"default_left":[0,0,0,0,0,0,0,0,0,0,0,0,0],"id":73,"left_children":[1,3,5,7,-1,9,11,-1,-1,-1,-1,-1,-1],"loss_changes":[6.091413E-1,1.51067E0,1.230981E0,2.4256284E0,0E0,1.0212383E-1,2.109337E0,0E0,0E0,0E0,0E0,0E0,0E0],"parents":[2147483647,0,0,1,1,2,2,3,3,5,5,6,6],"right_children":[2,4,6,8,-1,10,12,-1,-1,-1,-1,-1,-1],"split_conditions":[5E0,2.9E1,8E0,4E0,6.1706085E-2,6E0,2.4E1,9.2239375E-4,-6.076622E-2,-4.064516E-2,-4.2417906E-3,5.8061164E-2,-1.9182013E-2],"split_indices":[0,1,1,0,0,0,1,0,0,0,0,0,0],"split_type":[0,0,0,0,0,0,0,0,0,0,0,0,0],"sum_hessian":[3.7E1,2.7E1,1E1,2.6E1,1E0,2E0,8E0,2.2E1,4E0,1E0,1E0,5E0,3E0],"tree_param":{"num_deleted":"0","num_feature":"4","num_nodes":"13","size_leaf_vector":"1"}},{"base_weights":[6.748971E-3,-2.1800358E-2,4.2522963E-2,2.1955047E-2,-6.3879795E-2,-1.5784329E-3,5.923784E-2],"categories":[],"categories_nodes":[],"categories_segments":[],"categories_sizes":[],"default_left":[0,0,0,0,0,0,0],"id":74,"left_children":[1,3,-1,5,-1,-1,-1],"loss_changes":[5.809169E-1,1.2749647E0,0E0,1.092873E0,0E0,0E0,0E0],"parents":[2147483647,0,0,1,1,3,3],"right_children":[2,4,-1,6,-1,-1,-1],"split_conditions":[3.1E1,3E1,4.2522963E-2,2.9E1,-6.3879795E-2,-1.5784329E-3,5.923784E-2],"split_indices":[1,1,0,1,0,0,0],"split_type":[0,0,0,0,0,0,0],"sum_hessian":[3.7E1,3.6E1,1E0,3.5E1,1E0,3.4E1,1E0],"tree_param":{"num_deleted":"0","num_feature":"4","num_nodes":"7","size_leaf_vector":"1"}},{"base_weights":[7.164422E-3,4.2568624E-2,-2.140453E-2,-3.670422E-1,4.407143E-2,-5.491266E-3,-5.1405065E-2,-5.8540814E-3,2.4746673E-2],"categories":[],"categories_nodes":[],"categories_segments":[],"categories_sizes":[],"default_left":[0,0,0,0,0,0,0,0,0],"id":75,"left_children":[1,-1,3,5,7,-1,-1,-1,-1],"loss_changes":[5.812787E-1,0E0,8.535216E-1,4.4918925E-1,1.0178771E0,0E0,0E0,0E0,0E0],"parents":[2147483647,0,0,2,2,3,3,4,4],"right_children":[2,-1,4,6,8,-1,-1,-1,-1],"split_conditions":[2E0,4.2568624E-2,7E0,4E0,5E0,-5.491266E-3,-5.1405065E-2,-5.8540814E-3,2.4746673E-2],"split_indices":[1,0,1,0,0,0,0,0,0],"split_type":[0,0,0,0,0,0,0,0,0],"sum_hessian":[3.7E1,1E0,3.6E1,5E0,3.1E1,3E0,2E0,2.2E1,9E0],"tree_param":{"num_deleted":"0","num_feature":"4","num_nodes":"9","size_leaf_vector":"1"}},{"base_weights":[6.711452E-3,7.401976E-2,-2.183953E-1,-8.7082945E-2,3.602047E-1,-3.701703E-1,3.983219E-2,2.8209602E-3,-6.337E-2,3.3781687E-3,4.945185E-2,-1.6040007E-2,-6.231447E-2],"categories":[],"categories_nodes":[],"categories_segments":[],"categories_sizes":[],"default_left":[0,0,0,0,0,0,0,0,0,0,0,0,0],"id":76,"left_children":[1,3,5,7,9,11,-1,-1,-1,-1,-1,-1,-1],"loss_changes":[5.919246E-1,1.4145226E0,1.1627535E0,1.7530986E0,8.7612E-1,3.986603E-1,0E0,0E0,0E0,0E0,0E0,0E0,0E0],"parents":[2147483647,0,0,1,1,2,2,3,3,4,4,5,5],"right_children":[2,4,6,8,10,12,-1,-1,-1,-1,-1,-1,-1],"split_conditions":[2.4E1,1.9E1,3.1E1,1.8E1,6E0,3E1,3.983219E-2,2.8209602E-3,-6.337E-2,3.3781687E-3,4.945185E-2,-1.6040007E-2,-6.231447E-2],"split_indices":[1,1,1,1,2,1,0,0,0,0,0,0,0],"split_type":[0,0,0,0,0,0,0,0,0,0,0,0,0],"sum_hessian":[3.7E1,2.9E1,8E0,1.9E1,1E1,7E0,1E0,1.7E1,2E0,5E0,5E0,6E0,1E0],"tree_param":{"num_deleted":"0","num_feature":"4","num_nodes":"13","size_leaf_vector":"1"}},{"base_weights":[4.957425E-3,4.075306E-2,-2.2444442E-2,-1.9170582E-1,1.01674944E-1,3.8863989E-3,-7.397666E-2,1.0540905E-1,-1.5176282E-3],"categories":[],"categories_nodes":[],"categories_segments":[],"categories_sizes":[],"default_left":[0,0,0,0,0,0,0,0,0],"id":77,"left_children":[1,-1,3,5,7,-1,-1,-1,-1],"loss_changes":[5.3670865E-1,0E0,7.9681057E-1,2.8630035E0,3.2523346E0,0E0,0E0,0E0,0E0],"parents":[2147483647,0,0,2,2,3,3,4,4],"right_children":[2,-1,4,6,8,-1,-1,-1,-1],"split_conditions":[2E0,4.075306E-2,1.7E1,1.4E1,1.8E1,3.8863989E-3,-7.397666E-2,1.0540905E-1,-1.5176282E-3],"split_indices":[1,0,1,1,1,0,0,0,0],"split_type":[0,0,0,0,0,0,0,0,0],"sum_hessian":[3.7E1,1E0,3.6E1,1.5E1,2.1E1,1.2E1,3E0,1E0,2E1],"tree_param":{"num_deleted":"0","num_feature":"4","num_nodes":"9","size_leaf_vector":"1"}},{"base_weights":[6.5228753E-3,6.941879E-2,-2.0385493E-1,7.7013456E-4,6.87E-1,-4.5721245E-1,2.2714508E-1,1.0395561E-2,-1.685409E-2,1.7281646E-2,6.5158345E-2,-1.5753364E-2,-5.2149504E-2,5.7804793E-2,-1.43077215E-2],"categories":[],"categories_nodes":[],"categories_segments":[],"categories_sizes":[],"default_left":[0,0,0,0,0,0,0,0,0,0,0,0,0,0,0],"id":78,"left_children":[1,3,5,7,9,11,13,-1,-1,-1,-1,-1,-1,-1,-1],"loss_changes":[5.169637E-1,1.2713543E0,1.0866274E0,7.921526E-1,4.176259E-3,1.7564487E-1,9.3376446E-1,0E0,0E0,0E0,0E0,0E0,0E0,0E0,0E0],"parents":[2147483647,0,0,1,1,2,2,3,3,4,4,5,5,6,6],"right_children":[2,4,6,8,10,12,14,-1,-1,-1,-1,-1,-1,-1,-1],"split_conditions":[2.4E1,2.3E1,2.9E1,4E0,2E0,2.7E1,5E0,1.0395561E-2,-1.685409E-2,1.7281646E-2,6.5158345E-2,-1.5753364E-2,-5.2149504E-2,5.7804793E-2,-1.43077215E-2],"split_indices":[1,1,1,0,0,1,0,0,0,0,0,0,0,0,0],"split_type":[0,0,0,0,0,0,0,0,0,0,0,0,0,0,0],"sum_hessian":[3.7E1,2.9E1,8E0,2.7E1,2E0,5E0,3E0,1.7E1,1E1,1E0,1E0,3E0,2E0,1E0,2E0],"tree_param":{"num_deleted":"0","num_feature":"4","num_nodes":"15","size_leaf_vector":"1"}},{"base_weights":[7.3582185E-3,-1.870772E-2,3.8871918E-2,2.1876011E-2,-5.918888E-2,-1.3709232E-3,5.549261E-2],"categories":[],"categories_nodes":[],"categories_segments":[],"categories_sizes":[],"default_left":[0,0,0,0,0,0,0],"id":79,"left_children":[1,3,-1,5,-1,-1,-1],"loss_changes":[4.830874E-1,1.0990676E0,0E0,9.553718E-1,0E0,0E0,0E0],"parents":[2147483647,0,0,1,1,3,3],"right_children":[2,4,-1,6,-1,-1,-1],"split_conditions":[3.1E1,3E1,3.8871918E-2,2.9E1,-5.918888E-2,-1.3709232E-3,5.549261E-2],"split_indices":[1,1,0,1,0,0,0],"split_type":[0,0,0,0,0,0,0],"sum_hessian":[3.7E1,3.6E1,1E0,3.5E1,1E0,3.4E1,1E0],"tree_param":{"num_deleted":"0","num_feature":"4","num_nodes":"7","size_leaf_vector":"1"}},{"base_weights":[7.659103E-3,-6.303793E-2,1.8691891E-1,-1.14699446E-1,5.3272914E-2,-3.4147882E-1,3.422827E-1,1.2972881E-3,-5.551768E-2,-3.6439322E-2,-4.5381356E-3,5.232362E-2,-1.6874542E-2],"categories":[],"categories_nodes":[],"categories_segments":[],"categories_sizes":[],"default_left":[0,0,0,0,0,0,0,0,0,0,0,0,0],"id":80,"left_children":[1,3,5,7,-1,9,11,-1,-1,-1,-1,-1,-1],"loss_changes":[4.933622E-1,1.1308212E0,1.019915E0,2.0588164E0,0E0,7.155758E-2,1.6902027E0,0E0,0E0,0E0,0E0,0E0,0E0],"parents":[2147483647,0,0,1,1,2,2,3,3,5,5,6,6],"right_children":[2,4,6,8,-1,10,12,-1,-1,-1,-1,-1,-1],"split_conditions":[5E0,2.9E1,8E0,4E0,5.3272914E-2,6E0,2.4E1,1.2972881E-3,-5.551768E-2,-3.6439322E-2,-4.5381356E-3,5.232362E-2,-1.6874542E-2],"split_indices":[0,1,1,0,0,0,1,0,0,0,0,0,0],"split_type":[0,0,0,0,0,0,0,0,0,0,0,0,0],"sum_hessian":[3.7E1,2.7E1,1E1,2.6E1,1E0,2E0,8E0,2.2E1,4E0,1E0,1E0,5E0,3E0],"tree_param":{"num_deleted":"0","num_feature":"4","num_nodes":"13","size_leaf_vector":"1"}},{"base_weights":[6.8760924E-3,3.8710058E-2,-1.9093513E-2,-3.365109E-1,4.101892E-2,-6.183548E-3,-4.5597013E-2,2.7225323E-2,-4.511766E-3],"categories":[],"categories_nodes":[],"categories_segments":[],"categories_sizes":[],"default_left":[0,0,0,0,0,0,0,0,0],"id":81,"left_children":[1,-1,3,5,7,-1,-1,-1,-1],"loss_changes":[4.7996363E-1,0E0,7.197903E-1,3.1903255E-1,9.521968E-1,0E0,0E0,0E0,0E0],"parents":[2147483647,0,0,2,2,3,3,4,4],"right_children":[2,-1,4,6,8,-1,-1,-1,-1],"split_conditions":[2E0,3.8710058E-2,7E0,4E0,1.4E1,-6.183548E-3,-4.5597013E-2,2.7225323E-2,-4.511766E-3],"split_indices":[1,0,1,0,1,0,0,0,0],"split_type":[0,0,0,0,0,0,0,0,0],"sum_hessian":[3.7E1,1E0,3.6E1,5E0,3.1E1,3E0,2E0,7E0,2.4E1],"tree_param":{"num_deleted":"0","num_feature":"4","num_nodes":"9","size_leaf_vector":"1"}},{"base_weights":[6.5799262E-3,-1.9034464E-2,3.817249E-2,6.541427E-2,-3.333379E-1,-6.802589E-3,2.6640547E-2,-1.4486357E-2,-5.596588E-2],"categories":[],"categories_nodes":[],"categories_segments":[],"categories_sizes":[],"default_left":[0,0,0,0,0,0,0,0,0],"id":82,"left_children":[1,3,-1,5,7,-1,-1,-1,-1],"loss_changes":[4.6711627E-1,1.0038786E0,0E0,1.2360685E0,3.194213E-1,0E0,0E0,0E0,0E0],"parents":[2147483647,0,0,1,1,3,3,4,4],"right_children":[2,4,-1,6,8,-1,-1,-1,-1],"split_conditions":[3.1E1,2.4E1,3.817249E-2,1.9E1,3E1,-6.802589E-3,2.6640547E-2,-1.4486357E-2,-5.596588E-2],"split_indices":[1,1,0,1,1,0,0,0,0],"split_type":[0,0,0,0,0,0,0,0,0],"sum_hessian":[3.7E1,3.6E1,1E0,2.9E1,7E0,1.9E1,1E1,6E0,1E0],"tree_param":{"num_deleted":"0","num_feature":"4","num_nodes":"9","size_leaf_vector":"1"}},{"base_weights":[5.725873E-3,3.7433777E-2,-1.9412465E-2,-1.7458993E-1,9.432626E-2,4.3339333E-3,-6.995406E-2,1.0123241E-1,-1.7357436E-3],"categories":[],"categories_nodes":[],"categories_segments":[],"categories_sizes":[],"default_left":[0,0,0,0,0,0,0,0,0],"id":83,"left_children":[1,-1,3,5,7,-1,-1,-1,-1],"loss_changes":[4.5059976E-1,0E0,6.6950685E-1,2.6089282E0,3.0166426E0,0E0,0E0,0E0,0E0],"parents":[2147483647,0,0,2,2,3,3,4,4],"right_children":[2,-1,4,6,8,-1,-1,-1,-1],"split_conditions":[2E0,3.7433777E-2,1.7E1,1.4E1,1.8E1,4.3339333E-3,-6.995406E-2,1.0123241E-1,-1.7357436E-3],"split_indices":[1,0,1,1,1,0,0,0,0],"split_type":[0,0,0,0,0,0,0,0,0],"sum_hessian":[3.7E1,1E0,3.6E1,1.5E1,2.1E1,1.2E1,3E0,1E0,2E1],"tree_param":{"num_deleted":"0","num_feature":"4","num_nodes":"9","size_leaf_vector":"1"}},{"base_weights":[7.1443883E-3,-6.0152464E-2,1.7779598E-1,-1.1050196E-1,5.1971357E-2,-3.200501E-1,3.2398954E-1,9.798531E-4,-5.224417E-2,-3.305912E-2,-5.3468896E-3,8.7710686E-2,7.231388E-3],"categories":[],"categories_nodes":[],"categories_segments":[],"categories_sizes":[],"default_left":[0,0,0,0,0,0,0,0,0,0,0,0,0],"id":84,"left_children":[1,3,5,7,-1,9,11,-1,-1,-1,-1,-1,-1],"loss_changes":[4.4709885E-1,1.072445E0,9.0429366E-1,1.8061475E0,0E0,4.317093E-2,1.524757E0,0E0,0E0,0E0,0E0,0E0,0E0],"parents":[2147483647,0,0,1,1,2,2,3,3,5,5,6,6],"right_children":[2,4,6,8,-1,10,12,-1,-1,-1,-1,-1,-1],"split_conditions":[5E0,2.9E1,8E0,4E0,5.1971357E-2,6E0,1.4E1,9.798531E-4,-5.224417E-2,-3.305912E-2,-5.3468896E-3,8.7710686E-2,7.231388E-3],"split_indices":[0,1,1,0,0,0,1,0,0,0,0,0,0],"split_type":[0,0,0,0,0,0,0,0,0,0,0,0,0],"sum_hessian":[3.7E1,2.7E1,1E1,2.6E1,1E0,2E0,8E0,2.2E1,4E0,1E0,1E0,1E0,7E0],"tree_param":{"num_deleted":"0","num_feature":"4","num_nodes":"13","size_leaf_vector":"1"}},{"base_weights":[8.079165E-3,6.594626E-2,-1.8570884E-1,-7.567606E-2,3.1744626E-1,-3.227529E-1,3.6425743E-2,3.2425858E-3,-5.9816077E-2,1.4778137E-3,4.508097E-2,-3.812989E-2,-3.9780997E-3],"categories":[],"categories_nodes":[],"categories_segments":[],"categories_sizes":[],"default_left":[0,0,0,0,0,0,0,0,0,0,0,0,0],"id":85,"left_children":[1,3,5,7,9,11,-1,-1,-1,-1,-1,-1,-1],"loss_changes":[4.3837687E-1,1.0925636E0,9.376013E-1,1.5922047E0,7.988297E-1,3.123858E-1,0E0,0E0,0E0,0E0,0E0,0E0,0E0],"parents":[2147483647,0,0,1,1,2,2,3,3,4,4,5,5],"right_children":[2,4,6,8,10,12,-1,-1,-1,-1,-1,-1,-1],"split_conditions":[2.4E1,1.9E1,3.1E1,1.8E1,6E0,2.8E1,3.6425743E-2,3.2425858E-3,-5.9816077E-2,1.4778137E-3,4.508097E-2,-3.812989E-2,-3.9780997E-3],"split_indices":[1,1,1,1,2,1,0,0,0,0,0,0,0],"split_type":[0,0,0,0,0,0,0,0,0,0,0,0,0],"sum_hessian":[3.7E1,2.9E1,8E0,1.9E1,1E1,7E0,1E0,1.7E1,2E0,5E0,5E0,4E0,3E0],"tree_param":{"num_deleted":"0","num_feature":"4","num_nodes":"13","size_leaf_vector":"1"}},{"base_weights":[7.0196013E-3,3.5767555E-2,-1.6957946E-2,-2.31391E-1,6.023093E-2,6.06192E-2,-3.403902E-2,9.767441E-2,-2.238205E-3],"categories":[],"categories_nodes":[],"categories_segments":[],"categories_sizes":[],"default_left":[0,0,0,0,0,0,0,0,0],"id":86,"left_children":[1,-1,3,5,7,-1,-1,-1,-1],"loss_changes":[4.085546E-1,0E0,6.263552E-1,2.2422805E0,2.9008973E0,0E0,0E0,0E0,0E0],"parents":[2147483647,0,0,2,2,3,3,4,4],"right_children":[2,-1,4,6,8,-1,-1,-1,-1],"split_conditions":[2E0,3.5767555E-2,1.1E1,1E0,1.2E1,6.06192E-2,-3.403902E-2,9.767441E-2,-2.238205E-3],"split_indices":[1,0,1,0,1,0,0,0,0],"split_type":[0,0,0,0,0,0,0,0,0],"sum_hessian":[3.7E1,1E0,3.6E1,9E0,2.7E1,1E0,8E0,1E0,2.6E1],"tree_param":{"num_deleted":"0","num_feature":"4","num_nodes":"9","size_leaf_vector":"1"}},{"base_weights":[1.0610411E-2,-1.2790828E-2,3.505825E-2,2.4144432E-2,-5.3698406E-2,-8.784675E-4,5.0141163E-2],"categories":[],"categories_nodes":[],"categories_segments":[],"categories_sizes":[],"default_left":[0,0,0,0,0,0,0],"id":87,"left_children":[1,3,-1,5,-1,-1,-1],"loss_changes":[3.8586313E-1,9.1603255E-1,0E0,7.6890147E-1,0E0,0E0,0E0],"parents":[2147483647,0,0,1,1,3,3],"right_children":[2,4,-1,6,-1,-1,-1],"split_conditions":[3.1E1,3E1,3.505825E-2,2.9E1,-5.3698406E-2,-8.784675E-4,5.0141163E-2],"split_indices":[1,1,0,1,0,0,0],"split_type":[0,0,0,0,0,0,0],"sum_hessian":[3.7E1,3.6E1,1E0,3.5E1,1E0,3.4E1,1E0],"tree_param":{"num_deleted":"0","num_feature":"4","num_nodes":"7","size_leaf_vector":"1"}},{"base_weights":[1.0567213E-2,6.513694E-2,-1.7250602E-1,4.1340077E-3,6.1278534E-1,-4.436265E-1,1.3311568E-1,9.187855E-3,-1.4192837E-2,1.4059753E-2,5.9474487E-2,-1.0905332E-2,-6.691463E-2,2.9678447E-2,-1.1929689E-2],"categories":[],"categories_nodes":[],"categories_segments":[],"categories_sizes":[],"default_left":[0,0,0,0,0,0,0,0,0,0,0,0,0,0,0],"id":88,"left_children":[1,3,5,7,9,11,13,-1,-1,-1,-1,-1,-1,-1,-1],"loss_changes":[3.9086622E-1,9.997115E-1,8.0479634E-1,5.8316267E-1,4.0635943E-2,4.8954672E-1,3.9099222E-1,0E0,0E0,0E0,0E0,0E0,0E0,0E0,0E0],"parents":[2147483647,0,0,1,1,2,2,3,3,4,4,5,5,6,6],"right_children":[2,4,6,8,10,12,14,-1,-1,-1,-1,-1,-1,-1,-1],"split_conditions":[2.4E1,2.3E1,2.8E1,4E0,2E0,2.7E1,5E0,9.187855E-3,-1.4192837E-2,1.4059753E-2,5.9474487E-2,-1.0905332E-2,-6.691463E-2,2.9678447E-2,-1.1929689E-2],"split_indices":[1,1,1,0,0,1,0,0,0,0,0,0,0,0,0],"split_type":[0,0,0,0,0,0,0,0,0,0,0,0,0,0,0],"sum_hessian":[3.7E1,2.9E1,8E0,2.7E1,2E0,4E0,4E0,1.7E1,1E1,1E0,1E0,3E0,1E0,2E0,2E0],"tree_param":{"num_deleted":"0","num_feature":"4","num_nodes":"15","size_leaf_vector":"1"}},{"base_weights":[9.944521E-3,-5.5396736E-2,1.7536367E-1,1.9091377E-1,-1.8211822E-1,-2.766695E-1,3.0655655E-1,-3.7932333E-3,9.343506E-2,-7.829796E-2,2.2732578E-3,-2.9902037E-2,-3.2983017E-3,8.4764935E-2,6.3988543E-3],"categories":[],"categories_nodes":[],"categories_segments":[],"categories_sizes":[],"default_left":[0,0,0,0,0,0,0,0,0,0,0,0,0,0,0],"id":89,"left_children":[1,3,5,7,9,11,13,-1,-1,-1,-1,-1,-1,-1,-1],"loss_changes":[4.20445E-1,9.0872824E-1,7.3715365E-1,2.3839128E0,3.2143517E0,5.3177804E-2,1.4507313E0,0E0,0E0,0E0,0E0,0E0,0E0,0E0,0E0],"parents":[2147483647,0,0,1,1,2,2,3,3,4,4,5,5,6,6],"right_children":[2,4,6,8,10,12,14,-1,-1,-1,-1,-1,-1,-1,-1],"split_conditions":[5E0,1.2E1,8E0,1.1E1,1.7E1,6E0,1.4E1,-3.7932333E-3,9.343506E-2,-7.829796E-2,2.2732578E-3,-2.9902037E-2,-3.2983017E-3,8.4764935E-2,6.3988543E-3],"split_indices":[0,1,1,1,1,0,1,0,0,0,0,0,0,0,0],"split_type":[0,0,0,0,0,0,0,0,0,0,0,0,0,0,0],"sum_hessian":[3.7E1,2.7E1,1E1,9E0,1.8E1,2E0,8E0,8E0,1E0,3E0,1.5E1,1E0,1E0,1E0,7E0],"tree_param":{"num_deleted":"0","num_feature":"4","num_nodes":"15","size_leaf_vector":"1"}},{"base_weights":[1.1032682E-2,6.460751E-2,-1.6877593E-1,6.5027815E-3,5.8538246E-1,-2.95739E-1,3.387714E-2,4.2400197E-3,-3.1891428E-2,1.3406372E-2,5.6839522E-2,-1.2373499E-2,-5.132923E-2],"categories":[],"categories_nodes":[],"categories_segments":[],"categories_sizes":[],"default_left":[0,0,0,0,0,0,0,0,0,0,0,0,0],"id":90,"left_children":[1,3,5,7,9,11,-1,-1,-1,-1,-1,-1,-1],"loss_changes":[3.7696636E-1,9.03978E-1,8.019687E-1,5.4859906E-1,3.7751675E-2,2.911051E-1,0E0,0E0,0E0,0E0,0E0,0E0,0E0],"parents":[2147483647,0,0,1,1,2,2,3,3,4,4,5,5],"right_children":[2,4,6,8,10,12,-1,-1,-1,-1,-1,-1,-1],"split_conditions":[2.4E1,2.3E1,3.1E1,2.2E1,2E0,3E1,3.387714E-2,4.2400197E-3,-3.1891428E-2,1.3406372E-2,5.6839522E-2,-1.2373499E-2,-5.132923E-2],"split_indices":[1,1,1,1,0,1,0,0,0,0,0,0,0],"split_type":[0,0,0,0,0,0,0,0,0,0,0,0,0],"sum_hessian":[3.7E1,2.9E1,8E0,2.7E1,2E0,7E0,1E0,2.5E1,2E0,1E0,1E0,6E0,1E0],"tree_param":{"num_deleted":"0","num_feature":"4","num_nodes":"13","size_leaf_vector":"1"}},{"base_weights":[1.04862265E-2,3.3986587E-2,-1.2194273E-2,-1.5361157E-1,9.120896E-2,4.346645E-3,-6.3282296E-2,9.651085E-2,-1.5473302E-3],"categories":[],"categories_nodes":[],"categories_segments":[],"categories_sizes":[],"default_left":[0,0,0,0,0,0,0,0,0],"id":91,"left_children":[1,-1,3,5,7,-1,-1,-1,-1],"loss_changes":[3.6228842E-1,0E0,5.5506194E-1,2.1637387E0,2.735569E0,0E0,0E0,0E0,0E0],"parents":[2147483647,0,0,2,2,3,3,4,4],"right_children":[2,-1,4,6,8,-1,-1,-1,-1],"split_conditions":[2E0,3.3986587E-2,1.7E1,1.4E1,1.8E1,4.346645E-3,-6.3282296E-2,9.651085E-2,-1.5473302E-3],"split_indices":[1,0,1,1,1,0,0,0,0],"split_type":[0,0,0,0,0,0,0,0,0],"sum_hessian":[3.7E1,1E0,3.6E1,1.5E1,2.1E1,1.2E1,3E0,1E0,2E1],"tree_param":{"num_deleted":"0","num_feature":"4","num_nodes":"9","size_leaf_vector":"1"}},{"base_weights":[1.1489893E-2,-5.0111014E-2,1.6724767E-1,-9.5869094E-2,4.7414284E-2,-2.7132726E-1,2.9485622E-1,1.1433195E-3,-4.6674717E-2,-2.9049424E-2,-3.5098456E-3,8.103088E-2,6.2793395E-3],"categories":[],"categories_nodes":[],"categories_segments":[],"categories_sizes":[],"default_left":[0,0,0,0,0,0,0,0,0,0,0,0,0],"id":92,"left_children":[1,3,5,7,-1,9,11,-1,-1,-1,-1,-1,-1],"loss_changes":[3.729841E-1,8.8037837E-1,6.956276E-1,1.4585199E0,0E0,4.6703354E-2,1.3187021E0,0E0,0E0,0E0,0E0,0E0,0E0],"parents":[2147483647,0,0,1,1,2,2,3,3,5,5,6,6],"right_children":[2,4,6,8,-1,10,12,-1,-1,-1,-1,-1,-1],"split_conditions":[5E0,2.9E1,8E0,4E0,4.7414284E-2,6E0,1.4E1,1.1433195E-3,-4.6674717E-2,-2.9049424E-2,-3.5098456E-3,8.103088E-2,6.2793395E-3],"split_indices":[0,1,1,0,0,0,1,0,0,0,0,0,0],"split_type":[0,0,0,0,0,0,0,0,0,0,0,0,0],"sum_hessian":[3.7E1,2.7E1,1E1,2.6E1,1E0,2E0,8E0,2.2E1,4E0,1E0,1E0,1E0,7E0],"tree_param":{"num_deleted":"0","num_feature":"4","num_nodes":"13","size_leaf_vector":"1"}},{"base_weights":[1.2060924E-2,6.48018E-2,-1.6508208E-1,-6.549863E-2,2.958206E-1,-2.8675723E-1,3.2332763E-2,3.7238183E-3,-5.7275508E-2,5.029551E-4,4.2884063E-2,-1.2084846E-2,-4.946535E-2],"categories":[],"categories_nodes":[],"categories_segments":[],"categories_sizes":[],"default_left":[0,0,0,0,0,0,0,0,0,0,0,0,0],"id":93,"left_children":[1,3,5,7,9,11,-1,-1,-1,-1,-1,-1,-1],"loss_changes":[3.6571935E-1,9.224312E-1,7.3925877E-1,1.490926E0,7.61732E-1,2.6652896E-1,0E0,0E0,0E0,0E0,0E0,0E0,0E0],"parents":[2147483647,0,0,1,1,2,2,3,3,4,4,5,5],"right_children":[2,4,6,8,10,12,-1,-1,-1,-1,-1,-1,-1],"split_conditions":[2.4E1,1.9E1,3.1E1,1.8E1,6E0,3E1,3.2332763E-2,3.7238183E-3,-5.7275508E-2,5.029551E-4,4.2884063E-2,-1.2084846E-2,-4.946535E-2],"split_indices":[1,1,1,1,2,1,0,0,0,0,0,0,0],"split_type":[0,0,0,0,0,0,0,0,0,0,0,0,0],"sum_hessian":[3.7E1,2.9E1,8E0,1.9E1,1E1,7E0,1E0,1.7E1,2E0,5E0,5E0,6E0,1E0],"tree_param":{"num_deleted":"0","num_feature":"4","num_nodes":"13","size_leaf_vector":"1"}},{"base_weights":[1.0059632E-2,3.2432403E-2,-1.1582271E-2,-2.0855303E-1,5.917808E-2,5.7475585E-2,-3.1310398E-2,8.915949E-2,-1.6948177E-3],"categories":[],"categories_nodes":[],"categories_segments":[],"categories_sizes":[],"default_left":[0,0,0,0,0,0,0,0,0],"id":94,"left_children":[1,-1,3,5,7,-1,-1,-1,-1],"loss_changes":[3.2982457E-1,0E0,5.280374E-1,1.975987E0,2.3982525E0,0E0,0E0,0E0,0E0],"parents":[2147483647,0,0,2,2,3,3,4,4],"right_children":[2,-1,4,6,8,-1,-1,-1,-1],"split_conditions":[2E0,3.2432403E-2,1.1E1,1E0,1.2E1,5.7475585E-2,-3.1310398E-2,8.915949E-2,-1.6948177E-3],"split_indices":[1,0,1,0,1,0,0,0,0],"split_type":[0,0,0,0,0,0,0,0,0],"sum_hessian":[3.7E1,1E0,3.6E1,9E0,2.7E1,1E0,8E0,1E0,2.6E1],"tree_param":{"num_deleted":"0","num_feature":"4","num_nodes":"9","size_leaf_vector":"1"}},{"base_weights":[1.3098371E-2,-4.477811E-2,1.5922956E-1,-8.909294E-2,4.6068896E-2,-2.42083E-1,2.7530825E-1,1.1805402E-3,-4.3918636E-2,-2.678399E-2,-2.2659684E-3,7.770847E-2,5.350623E-3],"categories":[],"categories_nodes":[],"categories_segments":[],"categories_sizes":[],"default_left":[0,0,0,0,0,0,0,0,0,0,0,0,0],"id":95,"left_children":[1,3,5,7,-1,9,11,-1,-1,-1,-1,-1,-1],"loss_changes":[3.2851723E-1,8.21404E-1,5.790696E-1,1.2976061E0,0E0,4.9973965E-2,1.2406995E0,0E0,0E0,0E0,0E0,0E0,0E0],"parents":[2147483647,0,0,1,1,2,2,3,3,5,5,6,6],"right_children":[2,4,6,8,-1,10,12,-1,-1,-1,-1,-1,-1],"split_conditions":[5E0,2.9E1,8E0,4E0,4.6068896E-2,6E0,1.4E1,1.1805402E-3,-4.3918636E-2,-2.678399E-2,-2.2659684E-3,7.770847E-2,5.350623E-3],"split_indices":[0,1,1,0,0,0,1,0,0,0,0,0,0],"split_type":[0,0,0,0,0,0,0,0,0,0,0,0,0],"sum_hessian":[3.7E1,2.7E1,1E1,2.6E1,1E0,2E0,8E0,2.2E1,4E0,1E0,1E0,1E0,7E0],"tree_param":{"num_deleted":"0","num_feature":"4","num_nodes":"13","size_leaf_vector":"1"}},{"base_weights":[1.3559398E-2,6.548798E-2,-1.6104248E-1,-5.7763707E-2,2.836285E-1,-2.7771407E-1,3.089321E-2,3.8976818E-3,-5.41934E-2,1.0494295E-3,4.0549416E-2,-1.1781578E-2,-4.763298E-2],"categories":[],"categories_nodes":[],"categories_segments":[],"categories_sizes":[],"default_left":[0,0,0,0,0,0,0,0,0,0,0,0,0],"id":96,"left_children":[1,3,5,7,9,11,-1,-1,-1,-1,-1,-1,-1],"loss_changes":[3.5508576E-1,8.2296914E-1,6.8183583E-1,1.352678E0,6.5762526E-1,2.4384922E-1,0E0,0E0,0E0,0E0,0E0,0E0,0E0],"parents":[2147483647,0,0,1,1,2,2,3,3,4,4,5,5],"right_children":[2,4,6,8,10,12,-1,-1,-1,-1,-1,-1,-1],"split_conditions":[2.4E1,1.9E1,3.1E1,1.8E1,6E0,3E1,3.089321E-2,3.8976818E-3,-5.41934E-2,1.0494295E-3,4.0549416E-2,-1.1781578E-2,-4.763298E-2],"split_indices":[1,1,1,1,2,1,0,0,0,0,0,0,0],"split_type":[0,0,0,0,0,0,0,0,0,0,0,0,0],"sum_hessian":[3.7E1,2.9E1,8E0,1.9E1,1E1,7E0,1E0,1.7E1,2E0,5E0,5E0,6E0,1E0],"tree_param":{"num_deleted":"0","num_feature":"4","num_nodes":"13","size_leaf_vector":"1"}},{"base_weights":[1.14951795E-2,5.9958972E-2,-1.5132803E-1,-8.807594E-2,2.3543288E-1,-3.984788E-1,1.2608834E-1,8.6344825E-3,-6.016651E-2,4.9596976E-2,-1.0436753E-2,-8.426552E-3,-6.284265E-2,2.7525226E-2,-1.071345E-2],"categories":[],"categories_nodes":[],"categories_segments":[],"categories_sizes":[],"default_left":[0,0,0,0,0,0,0,0,0,0,0,0,0,0,0],"id":97,"left_children":[1,3,5,7,9,11,13,-1,-1,-1,-1,-1,-1,-1,-1],"loss_changes":[3.0893263E-1,8.000239E-1,6.6731656E-1,2.293718E0,2.0506282E0,4.8457724E-1,3.2945377E-1,0E0,0E0,0E0,0E0,0E0,0E0,0E0,0E0],"parents":[2147483647,0,0,1,1,2,2,3,3,4,4,5,5,6,6],"right_children":[2,4,6,8,10,12,14,-1,-1,-1,-1,-1,-1,-1,-1],"split_conditions":[2.4E1,1.7E1,2.8E1,1.4E1,3E0,2.7E1,5E0,8.6344825E-3,-6.016651E-2,4.9596976E-2,-1.0436753E-2,-8.426552E-3,-6.284265E-2,2.7525226E-2,-1.071345E-2],"split_indices":[1,1,1,1,0,1,0,0,0,0,0,0,0,0,0],"split_type":[0,0,0,0,0,0,0,0,0,0,0,0,0,0,0],"sum_hessian":[3.7E1,2.9E1,8E0,1.6E1,1.3E1,4E0,4E0,1.3E1,3E0,6E0,7E0,3E0,1E0,2E0,2E0],"tree_param":{"num_deleted":"0","num_feature":"4","num_nodes":"15","size_leaf_vector":"1"}},{"base_weights":[8.816829E-3,-4.8449222E-2,1.5378343E-1,-9.0610676E-2,4.35964E-2,-2.4075453E-1,2.6820904E-1,5.862356E-4,-4.1840494E-2,-2.6213922E-2,-2.6766204E-3,7.4098855E-2,5.6140996E-3],"categories":[],"categories_nodes":[],"categories_segments":[],"categories_sizes":[],"default_left":[0,0,0,0,0,0,0,0,0,0,0,0,0],"id":98,"left_children":[1,3,5,7,-1,9,11,-1,-1,-1,-1,-1,-1],"loss_changes":[3.2291397E-1,7.4990475E-1,5.611702E-1,1.1472347E0,0E0,4.3091163E-2,1.1077979E0,0E0,0E0,0E0,0E0,0E0,0E0],"parents":[2147483647,0,0,1,1,2,2,3,3,5,5,6,6],"right_children":[2,4,6,8,-1,10,12,-1,-1,-1,-1,-1,-1],"split_conditions":[5E0,2.9E1,8E0,4E0,4.35964E-2,6E0,1.4E1,5.862356E-4,-4.1840494E-2,-2.6213922E-2,-2.6766204E-3,7.4098855E-2,5.6140996E-3],"split_indices":[0,1,1,0,0,0,1,0,0,0,0,0,0],"split_type":[0,0,0,0,0,0,0,0,0,0,0,0,0],"sum_hessian":[3.7E1,2.7E1,1E1,2.6E1,1E0,2E0,8E0,2.2E1,4E0,1E0,1E0,1E0,7E0],"tree_param":{"num_deleted":"0","num_feature":"4","num_nodes":"13","size_leaf_vector":"1"}},{"base_weights":[9.510389E-3,5.7721037E-2,-1.5224849E-1,-8.247323E-2,2.2383401E-1,-2.6459658E-1,2.986145E-2,8.186102E-3,-5.6692254E-2,9.031303E-2,5.3898483E-3,-1.1184921E-2,-4.552368E-2],"categories":[],"categories_nodes":[],"categories_segments":[],"categories_sizes":[],"default_left":[0,0,0,0,0,0,0,0,0,0,0,0,0],"id":99,"left_children":[1,3,5,7,9,11,-1,-1,-1,-1,-1,-1,-1],"loss_changes":[3.0513096E-1,7.171029E-1,6.301325E-1,2.0397158E0,1.9064742E0,2.2436678E-1,0E0,0E0,0E0,0E0,0E0,0E0,0E0],"parents":[2147483647,0,0,1,1,2,2,3,3,4,4,5,5],"right_children":[2,4,6,8,10,12,-1,-1,-1,-1,-1,-1,-1],"split_conditions":[2.4E1,1.7E1,3.1E1,1.4E1,1.8E1,3E1,2.986145E-2,8.186102E-3,-5.6692254E-2,9.031303E-2,5.3898483E-3,-1.1184921E-2,-4.552368E-2],"split_indices":[1,1,1,1,1,1,0,0,0,0,0,0,0],"split_type":[0,0,0,0,0,0,0,0,0,0,0,0,0],"sum_hessian":[3.7E1,2.9E1,8E0,1.6E1,1.3E1,7E0,1E0,1.3E1,3E0,1E0,1.2E1,6E0,1E0],"tree_param":{"num_deleted":"0","num_feature":"4","num_nodes":"13","size_leaf_vector":"1"}}]},"name":"gbtree"},"learner_model_param":{"base_score":"[1.127027E1]","boost_from_average":"1","num_class":"0","num_feature":"4","num_target":"1"},"objective":{"name":"reg:squarederror","reg_loss_param":{"scale_pos_weight":"1"}}},"version":[3,2,0]}